svm_type c_svc
kernel_type linear
nr_class 4
total_sv 284
rho 0.827988 0.595697 0.552833 -0.0402452 -0.0142325 -0.120772
label 2 3 1 4
nr_sv 64 89 88 43
SV
1 1 0.5968743846971826 1:-0.13593324 2:0.27615664 3:-0.10694324 4:-0.04647248 5:0.30796732 6:-0.00830612 7:-0.27050104 8:0.2907974 9:-0.0042428 10:0.44397684 11:-0.19876048 12:-0.1432076 13:-0.51246108 14:-0.04264392 15:0.05149452 16:-0.13307472 17:0.01034464 18:0.27104216 19:-0.0063568 20:0.15414752 21:-0.01002824 22:-0.05232584 23:0.078304 24:-0.55224508 25:0.3798466 
1 0 1 1:-0.10748236 2:-0.65333764 3:0.09242844 4:-0.36064388 5:0.1210382 6:0.25704732 7:-0.17800456 8:-0.17233992 9:-0.30889264 10:0.49911388 11:0.04598136 12:0.17345628 13:0.21015524 14:-0.45083236 15:0.40886776 16:0.11142832 17:0.23971312 18:0.13690348 19:0.02164848 20:-0.36317852 21:-0.29770168 22:0.12024476 23:-0.26963776 24:-0.0367314 25:0.29493348 
0 1 0 1:-0.04608176 2:-0.22012532 3:0.00098268 4:0.02605648 5:0.13291528 6:0.36907012 7:-0.5930102 8:0.39309808 9:0.67712324 10:0.1845602 11:0.29118836 12:1.0422844 13:-0.25693176 14:0.2896824 15:0.30964492 16:0.678836 17:-0.26069492 18:-0.43439108 19:0.4426884 20:0.6668704 21:-0.07332152 22:-0.87555108 23:0.3330668 24:-0.77147504 25:0.66628112 
1 1 1 1:-0.18341372 2:-0.212188 3:-0.07544232 4:0.12167028 5:-0.02231748 6:-0.00725328 7:-0.19456332 8:-0.16336876 9:0.16227572 10:0.27956084 11:-0.19334624 12:0.14856852 13:-0.19321196 14:0.22028792 15:0.30813308 16:-0.14601348 17:-0.13061572 18:-0.16985652 19:-0.13959668 20:-0.15011208 21:-0.0581592 22:0.06302948 23:-0.14170736 24:-0.07850412 25:0.1278664 
0.3530313920384732 0.3961356581054254 0 1:-0.37763284 2:-0.09267368 3:0.7331836 4:-0.67294636 5:0.4786304 6:0.4486196 7:-0.15647844 8:0.22820368 9:0.48505304 10:0.8472932 11:-0.13268436 12:1.0658257 13:0.24638628 14:0.31773944 15:1.0657136 16:0.59101516 17:0.65727464 18:0.4204888 19:-0.46261588 20:0.63407612 21:-0.07707488 22:-0.49401828 23:-0.05130108 24:-0.23890852 25:0.54658672 
1 0 0 1:0.11167576 2:0.30118848 3:0.82531856 4:-0.2789 5:0.01372584 6:0.72130872 7:-0.37587864 8:-0.25786408 9:0.00964948 10:0.5149798 11:0.10086324 12:0.16269748 13:0.10009584 14:-0.55551056 15:0.0685092 16:0.66977252 17:-0.49068416 18:0.50632936 19:0.3129076 20:-0.00427832 21:-0.64058488 22:-0.4197188 23:-0.47704912 24:-0.05985156 25:0.49130176 
1 1 0 1:-0.64525636 2:-0.34400732 3:-0.26739528 4:-0.10317228 5:-0.06995664 6:-0.249264 7:-0.29365396 8:0.15057752 9:-0.13040728 10:0.18162988 11:0.35101712 12:-0.11264884 13:-0.05670116 14:0.2618882 15:-0.59443052 16:0.3310228 17:-0.04472504 18:-0.03790136 19:0.47069468 20:-0.03167004 21:0.3244356 22:-0.30645208 23:0.20165892 24:-0.02585824 25:0.23987648 
1 1 1 1:0.31733796 2:-0.04682332 3:-0.04020456 4:-0.26833936 5:-0.04344308 6:0.04996852 7:-0.1089018 8:0.01036688 9:0.04104672 10:-0.12005096 11:-0.73578692 12:0.32167844 13:-0.42195292 14:-0.00631972 15:0.44869416 16:0.01922352 17:0.32576876 18:0.77484164 19:0.36772392 20:0.10870768 21:0.03014724 22:0.0980794 23:0.1938372 24:-0.69082292 25:0.76912932 
1 1 1 1:-0.05153092 2:-0.17823604 3:-0.1544538 4:0.08474912 5:0.23622024 6:-0.33029588 7:-0.26773444 8:0.12057156 9:-0.2383468 10:0.10282504 11:0.12209352 12:-0.24230268 13:-0.1015732 14:0.2146424 15:0.03425832 16:0.0476582 17:0.04539444 18:0.14491832 19:-0.05088364 20:0.02588096 21:0.04813532 22:-0.32475296 23:0.16277284 24:-0.4596578 25:0.42731544 
1 1 0 1:-0.47802732 2:0.34659308 3:-0.02121108 4:-0.42476172 5:0.60136152 6:0.1524998 7:-0.53645068 8:0.03562988 9:-0.55855184 10:1.427514 11:0.11594856 12:-0.266726 13:0.11449048 14:0.37681936 15:0.30191192 16:-0.02129448 17:0.00783016 18:0.76359564 19:-0.0142184 20:0.01801332 21:-0.50240208 22:0.06169116 23:-0.0900584 24:-1.2622691 25:1.4570414 
1 1 1 1:-0.21821664 2:0.24112284 3:0.26664908 4:-0.0308434 5:0.04686248 6:-0.09881832 7:-0.02219016 8:-0.40064816 9:0.0103486 10:0.39255524 11:0.08833272 12:0.16510748 13:0.14783512 14:-0.1625472 15:0.21235608 16:0.06887164 17:0.05854448 18:0.22641732 19:-0.056141 20:0.09997628 21:-0.15602268 22:-0.08363528 23:-0.07511212 24:0.09171984 25:0.16490684 
1 1 0 1:-0.42597444 2:-0.36476232 3:0.22773124 4:0.19446456 5:0.17613472 6:0.37490928 7:0.429947 8:-0.53312584 9:0.45277952 10:0.89362912 11:0.18830368 12:0.38589644 13:-0.2370038 14:0.15626356 15:0.31521492 16:0.17003476 17:-0.344391 18:0.47217676 19:-0.04812152 20:0.00435144 21:-0.13208524 22:0.41557308 23:-0.1391056 24:0.30243476 25:0.09723808 
1 1 1 1:-0.12236772 2:0.12729052 3:0.1654828 4:-0.21779084 5:0.32259704 6:0.25723484 7:-0.06173132 8:-0.27310872 9:-0.11817988 10:0.76789512 11:-0.11793776 12:0.3798558 13:0.162286 14:-0.41385016 15:0.10049368 16:0.11034772 17:-0.36065076 18:0.28240688 19:0.02916848 20:0.11311444 21:-0.39061732 22:0.06912084 23:-0.15259856 24:-0.18558772 25:0.40477372 
1 1 1 1:-0.13593324 2:0.27615664 3:-0.10694324 4:-0.04647248 5:0.30796732 6:-0.00830612 7:-0.27050104 8:0.2907974 9:-0.0042428 10:0.44397684 11:-0.19876048 12:-0.1432076 13:-0.51246108 14:-0.04264392 15:0.05149452 16:-0.13307472 17:0.01034464 18:0.27104216 19:-0.0063568 20:0.15414752 21:-0.01002824 22:-0.05232584 23:0.078304 24:-0.55224508 25:0.3798466 
1 0 0 1:0.11167576 2:0.30118848 3:0.82531856 4:-0.2789 5:0.01372584 6:0.72130872 7:-0.37587864 8:-0.25786408 9:0.00964948 10:0.5149798 11:0.10086324 12:0.16269748 13:0.10009584 14:-0.55551056 15:0.0685092 16:0.66977252 17:-0.49068416 18:0.50632936 19:0.3129076 20:-0.00427832 21:-0.64058488 22:-0.4197188 23:-0.47704912 24:-0.05985156 25:0.49130176 
1 1 1 1:-0.23379608 2:0.06973844 3:-0.07199836 4:-0.13882284 5:0.03859508 6:0.09942956 7:0.00903128 8:-0.17994696 9:-0.04038864 10:0.30864796 11:-0.04438312 12:-0.01561924 13:0.06972224 14:-0.16428196 15:0.1348566 16:0.03601192 17:-0.05558796 18:-0.0151716 19:-0.01061084 20:-0.03598532 21:-0.10523188 22:-0.06842132 23:-0.11200764 24:-0.17097948 25:0.06723212 
1 1 0 1:-0.48866544 2:0.10157892 3:0.0977704 4:0.13639688 5:0.19267944 6:0.30269192 7:-0.03116308 8:0.20365248 9:-0.02563608 10:0.20074048 11:0.00299708 12:-0.09652352 13:-0.24504372 14:0.15881728 15:0.1069818 16:0.19308756 17:0.21694616 18:0.45519588 19:-0.2309444 20:0.20075172 21:0.22961672 22:-0.18426408 23:-0.1431762 24:-0.87168348 25:0.49807016 
1 1 0 1:-0.31338472 2:0.2203682 3:0.13994008 4:-0.35017904 5:0.4538918 6:0.2395752 7:-0.3675938 8:-0.33864252 9:-0.33424836 10:0.82143572 11:-0.2632106 12:0.30917336 13:0.27250016 14:-0.53943912 15:0.11844888 16:0.17787428 17:-0.31683928 18:0.29365604 19:0.08278404 20:0.1773096 21:-0.2280318 22:0.12272092 23:0.00358324 24:-0.4822204 25:0.80274268 
1 1 1 1:-0.14944864 2:0.15663504 3:-0.05595004 4:0.06927932 5:-0.0326942 6:-0.17216664 7:0.02285476 8:-0.28932184 9:0.0717922 10:0.17146252 11:0.18896912 12:0.1660064 13:0.07559168 14:0.15250508 15:0.0659288 16:0.10845896 17:-0.0405716 18:0.132337 19:-0.13399664 20:0.02883536 21:-0.04614564 22:0.03929572 23:0.08368544 24:0.11126692 25:0.02625264 
1 1 1 1:-0.19838624 2:0.09083468 3:0.04349792 4:0.0678138 5:0.37171296 6:-0.040485 7:-0.20808956 8:0.02375916 9:-0.08649752 10:0.38923348 11:0.03281312 12:0.09860836 13:0.10861648 14:0.1955452 15:0.25434584 16:-0.08302888 17:-0.04965096 18:0.11510072 19:-0.12622036 20:0.01953524 21:-0.10026256 22:-0.07128108 23:0.2086506 24:-0.07216064 25:0.25315776 
1 1 1 1:-0.03692744 2:0.06705524 3:0.1646854 4:-0.0797124 5:0.06256452 6:-0.22533424 7:-0.0594384 8:0.097262 9:-0.08048836 10:0.40732884 11:0.25348952 12:-0.15707364 13:-0.11577796 14:0.29760276 15:-0.05476608 16:-0.0116258 17:0.11797684 18:0.3203056 19:-0.21617132 20:-0.04861456 21:0.06527052 22:-0.0270788 23:-0.15513112 24:-0.06670964 25:0.045444 
1 1 0 1:-0.29375024 2:0.06764424 3:-0.10609984 4:-0.01021212 5:0.22246124 6:0.06888112 7:-0.18266552 8:-0.29153256 9:-0.07807132 10:0.41116928 11:0.20996952 12:-0.1742274 13:0.05483972 14:-0.07522304 15:0.0774176 16:0.07090884 17:0.12402684 18:0.12867548 19:-0.38271444 20:-0.0347414 21:0.24312236 22:0.04532092 23:-0.12577896 24:-0.1868242 25:0.1138736 
0.9099831524507423 0.3926907590719174 0 1:0.10290724 2:0.14329248 3:-0.32218556 4:0.02523144 5:0.36165716 6:-0.17448696 7:-0.55227248 8:-0.07737192 9:-0.1161892 10:0.70222792 11:0.05338488 12:-0.354289 13:0.22476888 14:0.15686712 15:-0.08636884 16:0.39577596 17:0.20684328 18:-0.2849612 19:-0.16619456 20:-0.29970204 21:0.42105056 22:-0.19371676 23:-0.37233516 24:-0.02741804 25:0.49745584 
0.4648708598444146 1 1 1:-0.01525268 2:-0.25740432 3:-0.16642624 4:-0.12397576 5:-0.11347016 6:0.06732196 7:-0.22852584 8:0.0824284 9:-0.05799536 10:-0.1426274 11:-0.08296676 12:0.21403908 13:-0.61183596 14:-0.37832268 15:-0.29553088 16:0.00756784 17:0.30642924 18:-0.21101848 19:0.11155968 20:0.05627164 21:0.0875424 22:-0.12907244 23:0.49980204 24:0.05124796 25:0.13705464 
1 1 0 1:-0.36772516 2:-0.0559432 3:0.17786084 4:0.4317408 5:0.5189792 6:0.44344156 7:-0.47912796 8:0.01794912 9:-0.33326896 10:0.45455752 11:0.10221012 12:-0.03332732 13:-0.16891516 14:-0.07054848 15:-0.02279176 16:-0.268412 17:0.62172088 18:0.14868624 19:-0.13819088 20:0.23143712 21:0.04711216 22:-0.13288508 23:0.20825772 24:-0.32756404 25:0.62475612 
1 1 0 1:-0.36772516 2:-0.0559432 3:0.17786084 4:0.4317408 5:0.5189792 6:0.44344156 7:-0.47912796 8:0.01794912 9:-0.33326896 10:0.45455752 11:0.10221012 12:-0.03332732 13:-0.16891516 14:-0.07054848 15:-0.02279176 16:-0.268412 17:0.62172088 18:0.14868624 19:-0.13819088 20:0.23143712 21:0.04711216 22:-0.13288508 23:0.20825772 24:-0.32756404 25:0.62475612 
1 1 1 1:0.1054186 2:-0.24006924 3:0.17351592 4:-0.26254644 5:0.2208916 6:0.12997912 7:-0.107626 8:-0.021334 9:-0.02054204 10:0.32231844 11:0.03377116 12:0.5073724 13:0.06872908 14:-0.18570948 15:0.19423404 16:0.06595336 17:-0.08349024 18:0.15318252 19:0.06164944 20:-0.0627238 21:-0.3058068 22:0.33411332 23:-0.14350108 24:-0.26490264 25:0.19480184 
1 1 0.9978543922200999 1:-0.2351562 2:0.02071436 3:-0.09257352 4:-0.30932412 5:0.20191892 6:0.28410012 7:-0.11401016 8:-0.3264698 9:-0.12380996 10:0.63994164 11:-0.04660388 12:0.13260556 13:0.34941332 14:-0.19106048 15:0.14741224 16:0.23151952 17:-0.30544496 18:0.04920256 19:-0.01129692 20:0.12153076 21:-0.23872968 22:0.07802384 23:-0.16421816 24:-0.270176 25:0.23285832 
1 1 1 1:0.15396456 2:0.0258234 3:0.08396784 4:0.17842844 5:-0.23544372 6:-0.37971376 7:-0.18096244 8:-0.06791276 9:-0.0572218 10:0.15735464 11:-0.0699938 12:0.06248508 13:0.02238556 14:0.16312312 15:0.0021568 16:0.02569312 17:-0.07936416 18:0.09285924 19:0.12349044 20:0.08126676 21:0.14226976 22:0.02639648 23:-0.14795484 24:-0.1802588 25:-0.05885404 
1 1 0.00248252611675552 1:-0.12861808 2:-0.37607132 3:0.0053146 4:0.1013302 5:0.28031252 6:0.31377332 7:-0.29193732 8:-0.15104584 9:-0.05863508 10:0.21639172 11:-0.13580208 12:0.03758548 13:0.31604348 14:-0.13586388 15:0.16770516 16:0.34156328 17:-0.00185452 18:-0.12952716 19:0.26595876 20:0.1968152 21:-0.12395912 22:-0.19066664 23:-0.1012268 24:0.06419648 25:0.42211552 
1 1 1 1:0.00882824 2:-0.00756456 3:0.03686896 4:-0.00205496 5:0.10914488 6:-0.12152068 7:0.07058708 8:-0.05448764 9:-0.0834916 10:0.21060124 11:0.09683016 12:-0.09358784 13:-0.1043094 14:0.16329756 15:0.0203212 16:0.01889344 17:0.09105036 18:0.21502736 19:-0.21874232 20:-0.14206148 21:0.08363 22:0.01387824 23:0.02293192 24:-0.04563616 25:0.07106536 
1 1 0 1:-0.07662236 2:0.5091646 3:0.38298112 4:0.02577536 5:0.45731828 6:0.21382904 7:-0.51267532 8:-0.49054604 9:0.20581108 10:0.9739792 11:-0.20504712 12:0.84895304 13:0.42410136 14:-0.29703432 15:0.63046804 16:0.30750908 17:-0.15942324 18:0.0499218 19:0.17738436 20:0.03001824 21:-0.26175388 22:-0.26855808 23:0.23437416 24:0.2278034 25:0.46588968 
1 0 0 1:-0.33044264 2:-0.6296656 3:-0.08980212 4:-0.37436992 5:-0.12933112 6:0.31066932 7:-0.48407904 8:0.04487228 9:-0.33595516 10:0.3090164 11:0.2659742 12:-0.11342436 13:-0.46690284 14:-0.3698014 15:-0.2153584 16:0.18059864 17:0.3322472 18:0.08137008 19:-0.2864708 20:-0.0618048 21:0.33523784 22:-0.36203844 23:0.13333592 24:-0.15253364 25:0.05492196 
1 1 0 1:-0.26410296 2:0.16497256 3:0.22764744 4:-0.19764812 5:0.62934616 6:0.31391384 7:-0.17347308 8:-0.39089056 9:0.21641068 10:0.82475004 11:-0.07971128 12:0.39611292 13:0.30515908 14:0.19880492 15:0.4241214 16:-0.08018496 17:0.0053956 18:-0.00574288 19:-0.26851152 20:0.0468866 21:-0.10899908 22:-0.13725364 23:0.074751 24:-0.3729906 25:0.372384 
1 1 0.7387972488129 1:-0.12861808 2:-0.37607132 3:0.0053146 4:0.1013302 5:0.28031252 6:0.31377332 7:-0.29193732 8:-0.15104584 9:-0.05863508 10:0.21639172 11:-0.13580208 12:0.03758548 13:0.31604348 14:-0.13586388 15:0.16770516 16:0.34156328 17:-0.00185452 18:-0.12952716 19:0.26595876 20:0.1968152 21:-0.12395912 22:-0.19066664 23:-0.1012268 24:0.06419648 25:0.42211552 
1 1 0.3145759090867483 1:-0.35225196 2:0.09470844 3:-0.08084604 4:-0.18176464 5:-0.01491548 6:-0.02407292 7:0.12774764 8:-0.58306352 9:0.00684812 10:0.376008 11:0.46507324 12:0.67128324 13:-0.06852916 14:0.02573048 15:-0.11689752 16:0.19528424 17:-0.34987768 18:0.03662508 19:0.05721756 20:0.0530558 21:0.05961564 22:0.40321824 23:-0.09488832 24:0.10940964 25:0.1739622 
1 1 1 1:-0.19230728 2:-0.0661844 3:-0.03734532 4:-0.05903816 5:0.24429604 6:-0.10172484 7:-0.14853268 8:-0.09672672 9:-0.13708652 10:0.30781932 11:0.07133008 12:-0.15265812 13:-0.00164692 14:0.09899612 15:0.046888 16:0.04668964 17:0.08419508 18:0.27800476 19:-0.08725708 20:-0.16314848 21:0.02451944 22:-0.24083844 23:-0.17558552 24:-0.1993716 25:0.25509836 
1 1 0 1:-0.6006556 2:0.2777394 3:-0.13171616 4:-0.26845876 5:0.58943332 6:-0.45354708 7:-0.61250232 8:-0.21785128 9:0.02495284 10:1.3228711 11:0.30248608 12:0.3372918 13:0.48921548 14:-0.19874312 15:0.30920436 16:0.54756888 17:0.08222744 18:0.23377912 19:-0.70152992 20:0.14512536 21:-0.64891492 22:-0.07526092 23:0.3149726 24:-0.30622572 25:0.58324984 
1 1 0.7509203974971079 1:0.01369572 2:0.29231488 3:-0.00932972 4:0.51318832 5:0.52067968 6:-0.1753946 7:-0.43202472 8:0.19684076 9:-0.07198832 10:0.25750168 11:-0.02560928 12:-0.1236222 13:0.26874576 14:0.27882156 15:0.4293936 16:-0.14803088 17:0.18842932 18:0.06925136 19:0.12979092 20:0.33867992 21:0.26586188 22:-0.37919112 23:0.42824504 24:-0.72838528 25:0.72542948 
1 1 1 1:-0.11420952 2:0.02196276 3:0.02118624 4:-0.27881596 5:0.47063096 6:0.29439556 7:-0.38879168 8:-0.2087704 9:-0.13893084 10:0.38402632 11:-0.38836896 12:0.3388064 13:-0.20035944 14:-0.3440344 15:0.02935076 16:-0.0874266 17:-0.24333368 18:-0.118324 19:0.18062836 20:0.14827964 21:-0.18063808 22:0.16370292 23:0.36993672 24:-0.33980972 25:0.76917508 
1 1 1 1:-0.02977784 2:-0.0624682 3:-0.18963668 4:0.04490984 5:0.01909316 6:0.00540028 7:0.14779176 8:0.04466192 9:0.1098764 10:0.42074556 11:0.35586416 12:0.17292268 13:-0.05632852 14:0.06430676 15:0.09210804 16:0.01955784 17:-0.126922 18:0.05392004 19:0.03111 20:0.09197684 21:0.18109452 22:0.16191896 23:-0.2653946 24:-0.0858448 25:0.10409376 
1 1 1 1:0.03503212 2:-0.00100628 3:-0.02616384 4:-0.08479868 5:0.0846782 6:-0.11884336 7:-0.02720376 8:-0.0118512 9:-0.08826708 10:0.4584024 11:0.07935592 12:-0.0843754 13:-0.18790232 14:0.23960864 15:0.12913268 16:0.034289 17:0.071201 18:0.35836104 19:-0.23731036 20:-0.20030924 21:0.11341892 22:-0.0442278 23:-0.14213512 24:-0.00937616 25:-0.06657 
1 1 1 1:-0.18338104 2:-0.14826904 3:0.09000572 4:-0.02655888 5:0.1515534 6:-0.046619 7:-0.19172712 8:0.06934692 9:-0.0616442 10:0.00516744 11:0.28001968 12:-0.0466928 13:0.01744456 14:-0.0520642 15:-0.14327032 16:0.05667616 17:0.18918408 18:-0.1514988 19:0.2978626 20:-0.00982124 21:0.10042448 22:-0.0691366 23:-0.11582348 24:0.20232312 25:0.23879292 
1 1 1 1:-0.22773512 2:0.00419276 3:-0.054143 4:-0.115901 5:0.0808236 6:0.2297376 7:0.01291212 8:-0.26246868 9:-0.00625344 10:0.37829092 11:-0.08614676 12:0.03987364 13:0.19117992 14:-0.09780504 15:0.157471 16:0.01369372 17:-0.09799552 18:-0.01634652 19:-0.00128464 20:-0.06831276 21:-0.1535532 22:-0.01168708 23:-0.15130184 24:-0.118375 25:0.13482212 
1 1 0 1:-0.31289116 2:-0.2699694 3:-0.35684272 4:-0.55588972 5:0.27377972 6:0.280457 7:-0.00332104 8:-0.60883784 9:-0.1168564 10:0.60165084 11:0.25742568 12:-0.06961048 13:-0.48475136 14:-0.26074636 15:-0.23426896 16:0.25623828 17:0.247571 18:-0.037797 19:-0.2134446 20:-0.1833928 21:0.24992792 22:-0.20172892 23:-0.38104988 24:-0.05750756 25:0.06200292 
0.2338524950902505 1 0 1:-0.23658848 2:0.54396828 3:-0.26180272 4:0.6824472 5:0.02877304 6:-0.53405508 7:-0.95155096 8:0.18799104 9:-0.19786608 10:0.35640436 11:-0.31513372 12:0.15388964 13:-0.317852 14:-0.04455772 15:-0.29176932 16:-0.1897394 17:-0.0435014 18:0.26669588 19:0.2018862 20:0.63754864 21:0.23854456 22:0.02369944 23:0.035495 24:-0.83255728 25:0.79877676 
1 1 0 1:0.03951816 2:0.00927728 3:0.1003852 4:0.068233 5:0.3223256 6:0.23427572 7:-0.60378772 8:-0.43173212 9:-0.19293084 10:0.51041972 11:0.00709736 12:0.37803368 13:0.29372404 14:-0.02409648 15:0.2882538 16:0.22975456 17:0.28402904 18:-0.03976968 19:0.36240984 20:0.1128334 21:0.02259448 22:0.23678488 23:-0.04243748 24:0.12489748 25:0.5014018 
1 1 0 1:-0.33280936 2:0.00649188 3:-0.46481684 4:-0.09151884 5:0.1796516 6:-0.12398604 7:-0.77147828 8:0.34779952 9:0.1011814 10:0.58456228 11:0.13000264 12:-0.48048112 13:0.49432132 14:0.2183148 15:-0.25164724 16:0.4304878 17:0.14579924 18:-0.34620176 19:0.24694372 20:0.10550548 21:0.05695416 22:-0.14187316 23:0.06927884 24:-0.16424516 25:0.4274816 
1 1 1 1:0.21809096 2:-0.04431744 3:-0.0268376 4:-0.16585332 5:0.34758376 6:-0.41649956 7:-0.10269092 8:-0.02708272 9:-0.19428632 10:0.35170588 11:0.18002324 12:0.0478142 13:-0.14226904 14:0.0122286 15:0.23432892 16:0.31606948 17:0.14987512 18:0.363295 19:-0.29555004 20:-0.66283304 21:0.09111416 22:0.31070192 23:0.13258648 24:-0.53653432 25:0.42009816 
1 1 1 1:-0.18956008 2:-0.06619396 3:-0.42896648 4:-0.2045584 5:0.04332336 6:-0.418076 7:-0.1660502 8:0.02613176 9:-0.03705632 10:0.06715808 11:0.01270416 12:-0.26628928 13:0.05474076 14:0.00362144 15:-0.07415776 16:0.37022032 17:-0.08129396 18:0.0575744 19:0.32401436 20:-0.41848148 21:0.24886972 22:-0.12078176 23:-0.24096752 24:-0.05667572 25:0.20763752 
1 1 1 1:-0.24112792 2:0.15971492 3:0.23993756 4:0.05862908 5:0.5704924 6:-0.13917356 7:0.03457104 8:-0.08964032 9:-0.04204472 10:0.26358096 11:0.30094932 12:0.65069376 13:-0.56127088 14:-0.21337788 15:0.10615992 16:-0.45593076 17:-0.24957376 18:0.09908028 19:0.23994536 20:0.10005828 21:0.0516432 22:0.14732384 23:0.1005522 24:-0.09218516 25:0.06245972 
1 1 0.09575043072560074 1:-0.10760416 2:0.05436152 3:-0.00482636 4:-0.13410768 5:0.34300364 6:-0.12986088 7:-0.01932684 8:-0.26280956 9:-0.13303404 10:0.47653932 11:0.11691088 12:-0.25553612 13:-0.06520932 14:0.2682522 15:0.10625612 16:-0.01844524 17:0.05190148 18:0.50264144 19:-0.39858652 20:-0.2423238 21:0.13637264 22:0.00218736 23:0.01989416 24:-0.27422436 25:0.26756744 
1 1 1 1:-0.05903356 2:-0.03890012 3:-0.05031724 4:-0.15485552 5:-0.0393398 6:-0.09055668 7:0.05514076 8:0.08760188 9:-0.11461276 10:0.14279508 11:0.07104308 12:0.05109036 13:0.02899748 14:-0.18217648 15:0.13189292 16:0.02232204 17:0.06398928 18:0.07495312 19:-0.00015148 20:-0.14648384 21:-0.07150304 22:0.02062828 23:-0.08798024 24:-0.08352616 25:0.09682612 
1 1 1 1:-0.0354334 2:-0.21601112 3:0.19454704 4:0.1445024 5:-0.18524632 6:-0.00324324 7:-0.10982568 8:-0.1683236 9:0.11068596 10:0.1968176 11:0.25227236 12:0.02989148 13:-0.07767776 14:-0.280891 15:-0.10085728 16:-0.02502136 17:0.00675744 18:-0.20034736 19:0.02394204 20:0.06157872 21:0.28532712 22:0.05724576 23:0.11710924 24:0.08006484 25:-0.4506944 
0.8433957740177627 0.1604385087257744 0 1:-0.22155052 2:0.03714356 3:0.03986884 4:0.2983626 5:0.012174 6:0.34022868 7:-0.074545 8:0.35125968 9:0.15793128 10:-0.06992804 11:-0.2966314 12:0.10436228 13:-0.44431044 14:0.34955668 15:0.0979642 16:0.2373454 17:0.39095752 18:0.47520956 19:-0.00756008 20:0.42649492 21:0.31852392 22:-0.35649468 23:-0.29771224 24:-0.58866436 25:0.54207708 
1 0.4081011258993364 0 1:-0.2191098 2:-0.3189982 3:-0.07352188 4:0.0671622 5:0.10200608 6:0.47048148 7:-0.05137156 8:-0.17743664 9:0.10855928 10:0.579582 11:0.41385696 12:0.59990616 13:0.19012536 14:-0.1931066 15:0.31541216 16:0.00714844 17:0.03375088 18:0.13676868 19:-0.10022804 20:0.24080764 21:0.14943504 22:0.45712072 23:-0.22537292 24:0.31582892 25:0.3394928 
1 1 0 1:-0.1996152 2:-0.27508204 3:-0.10514544 4:-0.22256744 5:0.37022688 6:-0.27235456 7:-0.00822676 8:0.34779728 9:-0.00716452 10:0.19443912 11:-0.00746608 12:-0.18406656 13:-0.39977856 14:0.25259696 15:0.58586852 16:1.2107472 17:0.27281236 18:0.79652524 19:-0.426723 20:-0.01418664 21:0.4505994 22:0.16888916 23:-0.2696542 24:-0.40907188 25:-0.000318 
0.3512062473638064 1 1 1:0.0934522 2:-0.41539932 3:-0.06506892 4:-0.10406984 5:0.26294384 6:-0.42408784 7:-0.36288224 8:0.20728024 9:-0.41726188 10:0.12631752 11:-0.51074368 12:0.15987292 13:-0.07569308 14:0.02926292 15:-0.14376244 16:0.07129356 17:0.24339688 18:0.63555168 19:0.41083996 20:0.22642324 21:-0.07480784 22:-0.19246344 23:0.3943526 24:-0.56043624 25:0.83137804 
1 1 1 1:-0.24531944 2:-0.10875384 3:0.13708976 4:-0.07617948 5:0.002143 6:0.05827104 7:-0.1757534 8:0.13396068 9:-0.08753576 10:0.08776196 11:0.18613196 12:-0.02521588 13:-0.395009 14:-0.15821488 15:0.02775544 16:-0.06811248 17:0.15895384 18:0.04094756 19:-0.03308232 20:0.10536972 21:0.1817916 22:-0.21006428 23:0.05665736 24:-0.13751304 25:0.09907948 
1 0 1 1:-0.264646 2:-0.22495212 3:0.1251102 4:0.01246336 5:-0.09057392 6:0.31063876 7:-0.272643 8:0.20364088 9:0.01163604 10:0.12916416 11:0.34743644 12:0.30142928 13:-0.37807128 14:-0.2780794 15:0.01335336 16:-0.05034708 17:0.18799332 18:0.03731228 19:-0.0615134 20:0.06249044 21:0.08217988 22:-0.21001004 23:0.0096614 24:0.04634948 25:-0.0902888 
1 1 1 1:0.16747776 2:-0.02469504 3:-0.06954856 4:-0.14926776 5:0.24070996 6:0.05871904 7:-0.03138624 8:0.1804486 9:-0.00959164 10:0.17969888 11:0.23787796 12:0.04235156 13:-0.01534276 14:0.19029984 15:0.20034244 16:0.41368036 17:0.13325076 18:-0.3201456 19:0.12774264 20:-0.15870924 21:-0.04126552 22:0.16309244 23:-0.0621902 24:-0.1656634 25:0.04501544 
1 1 0.3383818588399839 1:-0.3543444 2:-0.1723374 3:0.15136008 4:-0.1892326 5:0.26566632 6:-0.01371172 7:-0.49284976 8:0.20461728 9:-0.18823208 10:0.2363936 11:0.0241998 12:-0.13692316 13:-0.6652038 14:-0.32090192 15:-0.0493234 16:-0.11255352 17:0.30280024 18:0.22838556 19:-0.25724 20:0.15843708 21:0.122915 22:-0.47375896 23:0.11339112 24:-0.23491688 25:0.26212944 
1 1 1 1:-0.18408532 2:0.21690776 3:0.00115224 4:-0.20828644 5:0.29166648 6:-0.02401732 7:-0.07415056 8:-0.15386924 9:0.01696284 10:0.64379736 11:0.12577276 12:0.40319968 13:0.38464396 14:-0.18441248 15:0.15349564 16:0.23492528 17:-0.06981232 18:0.10654732 19:-0.14814036 20:0.24089476 21:-0.25053268 22:-0.1071708 23:0.00329156 24:0.07330708 25:0.19686628 
1 1 1 1:0.05168656 2:-0.14533516 3:-0.14847972 4:-0.000917 5:-0.19939064 6:-0.02347976 7:-0.11051248 8:0.15417072 9:-0.07150284 10:0.0936452 11:-0.01793044 12:-0.0245076 13:-0.2798776 14:-0.08818676 15:-0.03285252 16:0.04667408 17:0.1572438 18:0.03435224 19:-0.08457188 20:-0.03848952 21:-0.06861224 22:0.00747408 23:0.13426148 24:-0.1525656 25:0.020448 
-0.4160212448618563 1 0 1:-0.64395268 2:0.39791324 3:-0.03800004 4:0.2613216 5:0.26943324 6:0.401134 7:-0.57129428 8:-0.23735428 9:-0.27944672 10:0.76935104 11:-0.0861756 12:-0.30661508 13:0.141929 14:-0.10427856 15:-0.13794872 16:-0.24214788 17:0.23545988 18:-0.29800064 19:0.40887008 20:0.3519388 21:-0.0181164 22:0.19574868 23:-0.02544884 24:-0.58570848 25:0.74527416 
-1 0 0 1:-0.58514016 2:0.21401516 3:0.34581568 4:-0.66038688 5:0.53444964 6:0.38540672 7:-0.17151268 8:-0.39801072 9:0.06870776 10:1.1357687 11:0.04626308 12:0.76608048 13:0.17742068 14:-0.26351312 15:0.39623 16:0.21797944 17:-0.13520096 18:0.4703494 19:-0.0366498 20:0.10528972 21:-0.36867064 22:-0.16690724 23:0.12269176 24:-0.23829688 25:0.30785184 
-1 1 0.2197974995030904 1:0.06331388 2:0.26440152 3:-0.1495572 4:0.10068036 5:0.25694056 6:0.00830324 7:0.19683876 8:-0.069046 9:-0.00112416 10:0.37306564 11:0.1711518 12:0.32207104 13:-0.09649808 14:0.23569292 15:0.05286452 16:0.03050788 17:-0.05694564 18:0.20956324 19:0.02211668 20:-0.03955108 21:0.05053776 22:-0.08125536 23:0.06302428 24:-0.01133 25:0.0308068 
-1 1 1 1:-0.15299516 2:-0.112432 3:0.16481204 4:0.03722 5:0.02803116 6:0.12663984 7:-0.12310812 8:0.08117332 9:0.07796636 10:0.09127972 11:0.20565464 12:0.10538208 13:-0.2859912 14:-0.065068 15:-0.02214652 16:0.0025868 17:0.1660274 18:0.05547188 19:-0.01884264 20:0.0888934 21:0.1277734 22:-0.14539724 23:0.02921612 24:0.04812776 25:0.00345768 
-1 1 0 1:-0.35976524 2:0.12682768 3:-0.13144512 4:-0.38551952 5:0.26154612 6:0.12702604 7:-0.30177064 8:-0.00735196 9:-0.4143572 10:0.43925596 11:0.0894082 12:-0.34332448 13:-0.05627616 14:0.1178496 15:0.12906308 16:-0.22861636 17:0.29549232 18:0.37762128 19:-0.21024748 20:-0.10134052 21:0.08162204 22:-0.19516552 23:0.10760376 24:-0.57577176 25:0.6294714 
-1 1 1 1:0.19009492 2:-0.06650676 3:0.01602096 4:-0.1161482 5:0.05723568 6:0.11321652 7:-0.19617252 8:0.12422388 9:-0.06164948 10:0.12982372 11:-0.05740404 12:0.16674656 13:0.07624032 14:-0.15707824 15:-0.09871856 16:0.17837136 17:0.00766976 18:-0.19211848 19:0.43930548 20:-0.14467708 21:0.02866692 22:0.09524788 23:0.15742136 24:-0.06263204 25:0.44764216 
-1 1 1 1:-0.03215428 2:-0.0431392 3:0.09221436 4:-0.02543788 5:-0.04737164 6:0.0469284 7:0.00822112 8:0.02888892 9:-0.13350588 10:0.09947724 11:0.08889432 12:0.11313528 13:0.07991436 14:-0.08399916 15:0.16813552 16:0.04923688 17:0.08055648 18:0.0670336 19:0.00628964 20:0.08412988 21:-0.1067434 22:0.05916788 23:-0.05029356 24:0.0962156 25:0.14614068 
-1 0 0.3755696715457427 1:-0.39278428 2:-0.49532688 3:-0.32516968 4:-0.44414272 5:-0.06023812 6:0.07378532 7:0.10177288 8:-0.103536 9:-0.00291064 10:0.27629624 11:0.1487026 12:-0.37045032 13:-0.03505276 14:-0.07208736 15:0.07335412 16:0.64234096 17:0.2136918 18:0.10721604 19:0.1830282 20:0.0950934 21:-0.0138772 22:-0.12996676 23:-0.1464202 24:0.09315868 25:-0.24238168 
-1 1 0 1:-0.10669156 2:-0.02802504 3:0.14609132 4:-0.27519064 5:0.57210868 6:0.34457452 7:-0.15301512 8:-0.2787308 9:0.2233736 10:0.44817392 11:-0.11672984 12:0.44755576 13:-0.00830396 14:0.24224892 15:0.56270312 16:-0.06552768 17:0.28242728 18:0.24900888 19:-0.07998792 20:-0.2627996 21:0.06168748 22:-0.00740696 23:-0.0144752 24:0.06019832 25:0.18836696 
-1 1 0 1:-0.1928456 2:0.12805588 3:-0.0068024 4:-0.09621992 5:0.2758312 6:0.06611548 7:-0.11241668 8:-0.34077292 9:-0.25126168 10:0.52440492 11:-0.00066296 12:0.01804856 13:0.27222308 14:-0.27648668 15:0.1829412 16:0.25547196 17:-0.1326652 18:0.33966616 19:-0.17877468 20:0.22437036 21:-0.10394088 22:-0.09071824 23:-0.20790636 24:-0.3836288 25:0.41271 
-0.3245552791876312 1 1 1:-0.18281592 2:-0.41241144 3:0.64546632 4:-0.14933712 5:0.22992496 6:-0.02720784 7:-0.03900372 8:-0.24891156 9:0.35039084 10:0.82015792 11:-0.25127244 12:0.66480568 13:0.11991056 14:-0.24050792 15:0.91849236 16:0.20456328 17:-0.06294876 18:0.31215896 19:-0.16022184 20:-0.19865468 21:-0.53707116 22:0.14591584 23:-0.02504788 24:-0.6286872 25:0.8721016 
-1 1 1 1:-0.07574184 2:-0.08335004 3:0.01201432 4:-0.11260972 5:0.03317468 6:0.09525604 7:-0.04096692 8:-0.01273492 9:-0.00287112 10:0.24639712 11:0.13138196 12:0.06613804 13:0.10872024 14:-0.11549672 15:0.09789964 16:0.009918 17:-0.0165912 18:0.12217288 19:0.08496644 20:-0.06523144 21:-0.10627836 22:0.08671436 23:-0.09194892 24:0.028275 25:0.09161492 
-0 1 0 1:0.00256664 2:-0.00519176 3:0.11125404 4:0.10995048 5:0.19845728 6:0.16176936 7:-0.02312828 8:-0.24602948 9:0.07330956 10:0.21347808 11:-0.0401724 12:0.3255944 13:0.1986658 14:0.07058152 15:0.2598112 16:0.08949724 17:-0.00548384 18:0.08471236 19:0.0476714 20:-0.07542204 21:0.07477632 22:0.02791036 23:-0.097613 24:0.08759604 25:0.02154784 
-1 1 1 1:-0.19143072 2:-0.10395684 3:0.20957456 4:0.05950872 5:0.29232184 6:-0.13935668 7:-0.29811552 8:-0.09635276 9:-0.21629308 10:0.04046192 11:0.04523636 12:-0.03623924 13:-0.14338264 14:-0.0602826 15:0.09776128 16:0.01806308 17:-0.01263396 18:0.30018604 19:-0.05374908 20:0.09639992 21:0.01949644 22:-0.17820308 23:-0.06625628 24:-0.18194248 25:0.41579312 
-0 1 0 1:-0.23057924 2:0.00414116 3:0.11603288 4:-0.10504964 5:0.326927 6:0.23562448 7:0.07505276 8:-0.39862532 9:0.21047396 10:0.1821692 11:0.18263384 12:0.42888408 13:0.40904756 14:-0.00288168 15:0.30712084 16:-0.00847032 17:-0.07868332 18:-0.13074696 19:0.05553476 20:-0.04573676 21:-0.45114336 22:0.0574548 23:-0.24072864 24:-0.0063154 25:0.33182204 
-1 1 0.729978474382141 1:-0.02433488 2:-0.05203044 3:-0.23940352 4:-0.1411144 5:0.21990156 6:-0.02531604 7:-0.05036552 8:-0.26658096 9:-0.19557936 10:0.41183668 11:0.14295356 12:0.19690908 13:0.02672608 14:-0.11842132 15:0.1678326 16:0.05070724 17:-0.0682562 18:-0.20601396 19:0.09518056 20:-0.0933868 21:0.00131836 22:-0.0616882 23:-0.32697156 24:-0.11239396 25:0.13789812 
-1 1 0.4139296460480658 1:-0.0406232 2:-0.65463076 3:-0.01997016 4:-0.3440378 5:-0.23702996 6:0.37500832 7:-0.50802764 8:0.18656156 9:-0.07837048 10:0.26163552 11:0.29498372 12:0.30835192 13:-0.1450294 14:-0.15543552 15:0.07649272 16:-0.00991504 17:0.20574784 18:-0.00751936 19:0.0039874 20:0.05418208 21:0.12768368 22:-0.01131576 23:0.24635796 24:0.42564296 25:0.00897516 
-1 1 1 1:-0.13800652 2:-0.22588988 3:-0.05114156 4:-0.36804508 5:0.22255088 6:-0.1592792 7:-0.44099332 8:-0.0151482 9:-0.49796496 10:0.33805448 11:0.08689616 12:0.33695252 13:-0.0442248 14:-0.00654584 15:-0.17536748 16:-0.05872884 17:-0.04115552 18:0.20811892 19:0.13871848 20:0.21991828 21:0.0815572 22:-0.20982496 23:-0.06116608 24:0.00614988 25:0.32708632 
-0 1 0 1:-0.81155608 2:0.22735196 3:0.12002876 4:-0.13439396 5:0.49875052 6:-0.34851136 7:0.16978368 8:-0.35742668 9:-0.01368892 10:0.92966512 11:0.19077464 12:0.6670132 13:-0.23198964 14:-0.02278008 15:-0.12485256 16:-0.11809612 17:-0.67312488 18:0.30269952 19:0.38846536 20:0.54839844 21:0.0831252 22:-0.1283204 23:-0.08149124 24:0.10051264 25:0.26865232 
-1 1 1 1:-0.1633368 2:0.12882596 3:0.05773208 4:0.00703512 5:0.1702488 6:0.03806924 7:0.05432348 8:-0.19662156 9:-0.15546484 10:0.25534248 11:0.17218124 12:0.0141348 13:0.05353488 14:-0.0720752 15:0.07482012 16:0.0418222 17:0.04681456 18:0.251636 19:-0.26830336 20:0.04663124 21:-0.21833868 22:-0.10253468 23:0.09245784 24:-0.0737888 25:0.12662008 
-1 1 1 1:-0.31068492 2:-0.01795788 3:0.12880004 4:-0.31853816 5:-0.01279932 6:-0.01345088 7:-0.04572836 8:0.20227588 9:-0.02941532 10:0.18156108 11:0.093453 12:-0.01040756 13:-0.3508528 14:-0.37022048 15:-0.02723928 16:-0.11139484 17:0.08451356 18:-0.1085926 19:0.01951672 20:-0.11711272 21:0.1257518 22:-0.02348824 23:0.05626636 24:-0.16895848 25:0.17460652 
-0.6323139113086135 1 0.3187797426209333 1:-0.12498064 2:0.04182768 3:0.11328972 4:-0.1812518 5:-0.05344696 6:-0.02104936 7:-0.00677092 8:-0.09503436 9:-0.03779576 10:0.242904 11:0.2004176 12:0.13599432 13:0.175193 14:-0.08203048 15:0.06306732 16:0.27928392 17:-0.19393248 18:0.30801828 19:-0.02244272 20:0.13338612 21:-0.06886364 22:0.0009398 23:0.0341712 24:-0.20487296 25:0.21251864 
-0 1 0 1:-0.101303 2:-0.0787346 3:0.43080908 4:-0.15385712 5:0.39852536 6:0.23795844 7:-0.56636984 8:-0.07020688 9:-0.28593424 10:0.82987832 11:0.27035416 12:0.18785944 13:0.35546636 14:-0.32946228 15:0.7223058 16:0.21172812 17:-0.10852796 18:0.4616142 19:-0.31418244 20:-0.24654332 21:-0.251249 22:0.39661416 23:0.00659236 24:-0.45588292 25:0.71061644 
-0 1 1 1:-0.18028168 2:-0.22697688 3:0.10664976 4:-0.08150092 5:0.12762912 6:-0.20401568 7:-0.13916016 8:-0.49915832 9:0.07494912 10:0.190806 11:-0.1468638 12:0.66541832 13:0.43298024 14:0.20699084 15:0.23677524 16:0.0148112 17:-0.7095932 18:0.08018092 19:0.135514 20:0.22281104 21:-0.34480968 22:0.11442516 23:0.1772366 24:-0.1427558 25:0.50695156 
-0 1 1 1:-0.04782408 2:-0.17846416 3:0.16513064 4:0.07284312 5:-0.06389272 6:0.0296136 7:-0.17840676 8:-0.19404048 9:-0.02201904 10:0.29698628 11:0.14552864 12:0.1146056 13:-0.02991012 14:-0.32928828 15:-0.1395966 16:-0.05818836 17:-0.05178048 18:-0.28166148 19:0.17556296 20:0.15626812 21:0.22826908 22:0.0620648 23:-0.0535884 24:0.11644832 25:-0.25199204 
-1 0 0 1:-0.19874236 2:-0.18766988 3:0.14292364 4:-0.15163048 5:0.04920568 6:0.199451 7:-0.0218438 8:-0.01727932 9:0.1116378 10:0.52674656 11:0.0839494 12:0.1479946 13:0.2317228 14:-0.25318168 15:0.23726796 16:0.35644708 17:-0.0885552 18:0.2362458 19:0.20111772 20:-0.22256704 21:0.05727596 22:0.03338288 23:-0.41995512 24:-0.04681904 25:0.16895188 
-1 1 0.07577309467229797 1:-0.19953792 2:-0.24257396 3:0.0865396 4:-0.1199926 5:-0.13089124 6:0.14322472 7:0.1439072 8:-0.02587744 9:-0.10457868 10:0.06798652 11:0.35691884 12:0.51204084 13:-0.56485764 14:0.22751244 15:-0.52526636 16:0.54233528 17:-0.01326992 18:-0.19766948 19:-0.15535304 20:0.42203244 21:0.17636356 22:0.11395136 23:-0.00326136 24:-0.4565584 25:0.21424548 
-0 1 0 1:-0.19079128 2:-0.07198348 3:0.06819224 4:-0.04201728 5:0.03171808 6:0.1272816 7:-0.05540692 8:-0.14055716 9:0.10764216 10:0.3176206 11:-0.02024452 12:0.01540772 13:0.06506404 14:-0.01792324 15:0.24861416 16:-0.02621512 17:-0.04294276 18:0.054272 19:-0.0829308 20:-0.06418032 21:-0.1489814 22:0.00716252 23:-0.18985752 24:-0.07323992 25:0.09442932 
-1 1 0 1:-0.17100096 2:0.08270276 3:0.11323356 4:-0.2469138 5:0.32981108 6:0.2418202 7:-0.125277 8:-0.33131764 9:-0.08453532 10:0.63539996 11:-0.12020848 12:0.36647944 13:0.2493774 14:-0.42029572 15:0.18707212 16:0.15685984 17:-0.42699868 18:0.20644272 19:0.07299836 20:-0.0146722 21:-0.31660856 22:0.09025636 23:-0.13916544 24:-0.23462804 25:0.45957064 
-1 1 0 1:-0.01904348 2:0.02387296 3:0.16031888 4:-0.16225008 5:0.2705854 6:0.04876516 7:-0.19469328 8:-0.44733424 9:-0.13592596 10:0.33744912 11:-0.00935552 12:-0.03530856 13:0.31265448 14:-0.20502784 15:0.17234972 16:0.27155152 17:-0.01645652 18:0.10489712 19:0.14407364 20:0.28258064 21:-0.06240652 22:0.04378264 23:-0.2065624 24:-0.09537716 25:0.2764978 
-1 1 0.8247440050457958 1:-0.20580308 2:-0.08499432 3:-0.00730712 4:-0.18116204 5:0.0890286 6:0.13784472 7:-0.07107484 8:-0.09479344 9:-0.06012944 10:0.24989044 11:0.03893252 12:0.01627536 13:0.18330832 14:-0.00100168 15:0.07917364 16:-0.04375364 17:0.02955712 18:-0.03797656 19:-0.00845012 20:-0.01755504 21:-0.02828216 22:-0.04876776 23:-0.09061272 24:0.00444776 25:0.15745164 
-0 1 0 1:-0.35780304 2:-0.10561488 3:-0.1034994 4:-0.47633912 5:0.51706264 6:-0.00718708 7:-0.22788312 8:-0.41565508 9:-0.30868872 10:0.81792628 11:-0.06885372 12:-0.3044272 13:0.11276288 14:0.09502664 15:0.06350216 16:-0.05898256 17:-0.22808448 18:0.4583576 19:-0.14759324 20:-0.21175056 21:0.12122412 22:-0.2226428 23:-0.11568592 24:-0.57861704 25:0.59893824 
-0 1 0 1:-0.2158604 2:-0.11100056 3:-0.03957264 4:0.13591068 5:0.72184544 6:-0.45510436 7:-0.38726576 8:0.01399036 9:-0.014737 10:0.89682588 11:0.55643444 12:-0.15387312 13:-0.004844 14:0.13023564 15:0.81801148 16:0.1359492 17:-0.15038664 18:0.893356 19:-0.48288116 20:-0.20095516 21:-0.01135628 22:0.08883164 23:-0.04478928 24:-0.67342964 25:0.10468488 
-1 1 0 1:0.08459984 2:-0.07721424 3:0.14585932 4:-0.14500096 5:0.13022584 6:0.13760916 7:-0.31014164 8:-0.05506712 9:-0.12002224 10:0.31948348 11:0.10026736 12:-0.04093532 13:-0.04446208 14:-0.04227804 15:0.1185052 16:0.00375352 17:0.1574136 18:0.07902904 19:-0.02600252 20:0.07671932 21:0.01911344 22:-0.1615352 23:0.13751508 24:0.05939728 25:0.3393768 
-1 1 1 1:0.00947584 2:0.0270606 3:-0.08716852 4:-0.03897464 5:0.019706 6:-0.0568288 7:-0.11244904 8:0.00925204 9:-0.01040888 10:0.30595908 11:0.06982012 12:-0.06205348 13:-0.16115908 14:0.14795268 15:0.1655578 16:0.03262284 17:0.05513516 18:0.2803488 19:-0.1293662 20:-0.14772624 21:0.08373884 22:-0.09425236 23:-0.1171472 24:-0.10574428 25:-0.11656372 
-1 1 0 1:-0.25812404 2:-0.42657596 3:0.2417128 4:-0.11102352 5:0.12578356 6:0.197088 7:-0.4226914 8:0.12412336 9:-0.027606 10:0.42700428 11:-0.16480636 12:-0.1032866 13:-0.20736916 14:-0.10998852 15:-0.2362708 16:0.24435888 17:0.0570492 18:-0.12387976 19:0.087038 20:-0.21378828 21:-0.05218232 22:-0.32452812 23:-0.00722828 24:0.0398388 25:0.60351628 
-1 0.6498766231374143 0 1:-0.52940176 2:-0.009356 3:0.12834376 4:-0.28270884 5:-0.03547692 6:0.33634908 7:-0.22151768 8:-0.07714016 9:-0.10816752 10:0.61111008 11:0.22000752 12:0.33774456 13:-0.55611968 14:-0.4210796 15:0.1181328 16:-0.12466192 17:0.21250372 18:-0.00200656 19:-0.08660532 20:-0.02416792 21:-0.0324408 22:-0.28781352 23:0.07359612 24:-0.33425044 25:0.20336372 
-0 1 1 1:-0.01035956 2:-0.09873828 3:-0.00333728 4:-0.09941876 5:0.62078348 6:-0.10813384 7:0.06702424 8:-0.11685856 9:0.22673004 10:0.38693424 11:-0.42926936 12:0.11260804 13:0.03324456 14:-0.11932156 15:0.83015612 16:0.00432836 17:-0.17128212 18:0.30897008 19:0.8928694 20:-0.02253668 21:-0.3112552 22:0.06733072 23:0.11634952 24:-0.34530404 25:0.54721496 
-0.8232562204653535 0 0.7196848146043489 1:-0.0558166 2:0.05432728 3:0.0276126 4:-0.01109464 5:0.08762032 6:-0.09427016 7:0.22730744 8:-0.10475304 9:0.04219088 10:0.522444 11:-0.04324952 12:-0.11594076 13:-0.00094492 14:0.06175932 15:0.00672756 16:0.02972176 17:-0.02275072 18:0.19350776 19:-0.08139804 20:-0.04148064 21:0.12255196 22:0.02834416 23:-0.12621572 24:0.08767828 25:0.11143952 
-0 1 0 1:0.03166564 2:0.15842956 3:0.20590456 4:0.07663056 5:0.160621 6:-0.21843772 7:-0.21384988 8:-0.46222796 9:0.03207888 10:0.80640112 11:0.06062692 12:0.10862784 13:0.39294088 14:-0.10096956 15:0.552046 16:0.02508724 17:-0.48128896 18:0.62276536 19:-0.2489996 20:0.13576296 21:-0.31250984 22:0.14166452 23:-0.15251512 24:-0.36557468 25:0.552901 
-0 0.3987776017211359 0 1:-0.19685104 2:-0.04446608 3:-0.11332984 4:-0.17645084 5:0.04391812 6:-0.07368308 7:0.0927928 8:-0.33004492 9:-0.1377484 10:0.45557528 11:0.27562104 12:-0.00089224 13:0.29503652 14:0.14558124 15:0.08806972 16:0.27665216 17:-0.16543644 18:0.05483296 19:0.0676104 20:-0.19937628 21:-0.0577764 22:0.24309032 23:-0.17916596 24:-0.09533876 25:0.2234386 
-0.5731499078789469 1 1 1:-0.15432196 2:0.04126376 3:-0.01433356 4:-0.144306 5:0.12093 6:-0.10138456 7:0.048011 8:-0.05237784 9:-0.07893028 10:0.3242234 11:-0.03930068 12:-0.09859124 13:0.1124848 14:0.04899564 15:0.02728272 16:0.10140276 17:0.1258886 18:0.07992316 19:0.03254924 20:-0.12379228 21:0.00615444 22:0.00724108 23:0.02316388 24:-0.18868312 25:0.20284488 
-1 1 1 1:-0.06653748 2:-0.03468772 3:0.04110592 4:0.10773668 5:-0.04087096 6:-0.02035568 7:0.00729808 8:-0.00913392 9:0.02055944 10:0.13860052 11:0.08414576 12:-0.08009864 13:-0.00930272 14:0.14288472 15:0.03831388 16:-0.04101716 17:0.11587864 18:0.06757068 19:0.0240868 20:0.00424464 21:0.04456664 22:-0.05486356 23:-0.15833544 24:0.01869884 25:-0.009921 
-0 0.4022223137327654 0 1:-0.20047776 2:-0.10087684 3:0.21144688 4:-0.16559212 5:0.26437308 6:0.28407936 7:-0.08557888 8:-0.33011156 9:-0.05702928 10:0.54960344 11:0.15770544 12:0.08554384 13:0.19147348 14:-0.17522572 15:0.21786568 16:0.21994808 17:-0.14021308 18:0.04798964 19:0.08855604 20:0.05722172 21:-0.12889024 22:0.06152652 23:-0.25662224 24:-0.22726388 25:0.27851816 
-0.9454187219227337 0.8566047028253442 0 1:-0.3908916 2:0.39800592 3:0.25471184 4:1.1192175 5:0.79200152 6:0.0784638 7:-0.83476536 8:0.48094456 9:-0.46800456 10:1.0895156 11:-0.23964284 12:-0.34517864 13:-0.52869028 14:0.16418232 15:0.67705464 16:-0.05365532 17:-0.08891528 18:0.76193204 19:0.11952724 20:0.278586 21:0.37013856 22:0.2129404 23:-0.32036168 24:-1.5836269 25:1.3627788 
-0.6377580772905781 0.3981105922846724 0 1:-0.27894788 2:-0.23388096 3:0.50396612 4:-0.05911228 5:0.09664512 6:0.34888264 7:-0.3597504 8:-0.2509358 9:-0.18897456 10:0.57998444 11:0.2814556 12:0.61009256 13:0.42626604 14:-0.0938734 15:0.23095172 16:0.19114484 17:0.21186124 18:0.03913856 19:0.01138248 20:0.12797016 21:-0.28448724 22:0.32719984 23:0.23948188 24:-0.00066896 25:0.32162476 
-1 0 1 1:0.15141888 2:-0.19884132 3:0.10259976 4:0.04811024 5:0.12158636 6:0.16004932 7:-0.05887896 8:-0.05314252 9:-0.07668588 10:0.3798798 11:-0.07937632 12:0.17069192 13:0.14052808 14:-0.01768604 15:0.2080562 16:-0.11826136 17:0.13913748 18:0.088772 19:0.07377016 20:0.05735292 21:-0.11297076 22:0.1724644 23:-0.05236124 24:0.25668228 25:0.16764356 
-1 1 1 1:-0.01825152 2:0.02769748 3:-0.05445972 4:-0.08700632 5:-0.0671572 6:-0.08753024 7:0.140528 8:-0.00977984 9:-0.07193896 10:0.09678368 11:0.05341704 12:-0.06158124 13:0.00929468 14:-0.0125884 15:-0.05513772 16:0.1852898 17:0.0323538 18:0.03297072 19:-0.07426108 20:-0.09582808 21:0.12208428 22:0.096038 23:-0.15549768 24:-0.14433432 25:-0.0055298 
-0.9170876710702578 1 1 1:-0.10411484 2:-0.05100424 3:0.19174276 4:-0.14021268 5:-0.08265768 6:-0.041234 7:-0.04803096 8:0.0327676 9:-0.12324088 10:0.27640524 11:0.1086238 12:0.07059228 13:0.13749048 14:-0.19916604 15:0.18183216 16:0.21115612 17:-0.03067312 18:0.0096222 19:0.0028384 20:0.01010608 21:-0.09578368 22:0.13749004 23:-0.07153452 24:-0.03616468 25:0.26577816 
-1 1 1 1:-0.0611672 2:-0.11530528 3:-0.14548272 4:-0.19214848 5:-0.00486024 6:-0.28219952 7:-0.36735552 8:-0.23817092 9:-0.07872916 10:0.15385744 11:0.25582308 12:-0.10309176 13:-0.4382284 14:-0.22250356 15:-0.5429436 16:-0.34589508 17:0.2311628 18:0.17359672 19:-0.13321736 20:-0.0005652 21:0.25039512 22:-0.36371808 23:0.16867128 24:0.09837852 25:0.2519468 
-0 1 0.5594800244654771 1:0.12058164 2:0.51548504 3:-0.94060716 4:0.7152008 5:0.21865976 6:-0.7968564 7:-0.23576432 8:0.04439908 9:0.15486476 10:0.27911536 11:0.58784188 12:-0.10996704 13:-0.0955992 14:0.43808212 15:1.0665778 16:0.37433452 17:-0.02726396 18:0.47884652 19:-0.81681428 20:-0.11041684 21:0.69997292 22:0.0209716 23:0.05186932 24:-1.0005631 25:-0.0526448 
-1 1 1 1:0.1692844 2:-0.04987716 3:-0.16768088 4:0.03586524 5:0.08083472 6:-0.1123482 7:0.04113688 8:0.05386456 9:-0.03147776 10:0.26433924 11:-0.0310074 12:-0.02449132 13:0.0422866 14:-0.06460148 15:0.06496644 16:0.1923698 17:0.1249156 18:0.01413696 19:-0.01979128 20:-0.33048208 21:0.08540536 22:0.26399688 23:-0.19548328 24:-0.08282196 25:0.0413384 
-1 0.7421529342084328 0 1:-0.4321088 2:0.03013548 3:0.21630676 4:-0.19116024 5:0.13600808 6:0.1801378 7:-0.23310088 8:-0.42440164 9:-0.08489512 10:0.55523116 11:-0.0355586 12:-0.00222184 13:0.26421376 14:-0.152563 15:0.14962836 16:0.1169564 17:0.17628572 18:0.03203392 19:-0.17439656 20:0.2163008 21:-0.07478924 22:-0.03797888 23:-0.3877328 24:-0.3872436 25:0.33155604 
-1 1 0 1:-0.6009844 2:-0.36964008 3:-0.04448308 4:0.81330476 5:-0.03074776 6:0.15639252 7:-0.58763456 8:-0.08264992 9:0.22721164 10:0.36750176 11:0.20999008 12:0.90736052 13:0.61309716 14:0.53525396 15:0.15456612 16:0.27236844 17:-0.08373548 18:-0.3684054 19:0.06770828 20:0.01947048 21:-0.4569664 22:-0.02757216 23:0.29082024 24:-0.17450308 25:0.16961588 
-0.2427262947521595 1 1 1:0.01248852 2:-0.04621376 3:-0.12068556 4:-0.01314276 5:-0.03002876 6:0.02604196 7:-0.04587544 8:-0.19071976 9:-0.08741028 10:0.12599212 11:-0.09429216 12:-0.1116004 13:-0.00619628 14:0.0633508 15:0.0536774 16:0.08645012 17:-0.04735288 18:0.05422968 19:-0.08520784 20:-0.10183004 21:0.09765392 22:0.04401836 23:-0.09332016 24:-0.09658276 25:-0.11171532 
-1 1 1 1:-0.17051492 2:-0.033742 3:0.25562848 4:-0.16478108 5:0.0864086 6:0.23257632 7:-0.29001844 8:0.184518 9:0.1021038 10:0.30856068 11:0.04933896 12:0.06355384 13:-0.27897052 14:-0.475737 15:0.04990484 16:-0.075216 17:0.2252202 18:0.04622028 19:0.04822836 20:-0.0036424 21:0.05595212 22:-0.08298684 23:0.10876692 24:0.0991646 25:0.19600416 
-0 0 1 1:-0.1467258 2:0.10277968 3:-0.04282968 4:0.1708928 5:-0.05722028 6:0.0576314 7:0.05596144 8:-0.17230476 9:-0.0974142 10:0.30153264 11:-0.167162 12:-0.04352612 13:-0.20475776 14:-0.18635104 15:0.08353064 16:-0.11790064 17:-0.10865584 18:0.03369124 19:0.28671296 20:0.17787164 21:-0.02603692 22:0.13989228 23:-0.11564052 24:-0.04188312 25:0.16816204 
-0 0 0.2391972090503964 1:-0.11204596 2:-0.0524072 3:0.00286812 4:-0.34423544 5:0.05617932 6:0.17877832 7:0.10345408 8:0.02039412 9:-0.04826048 10:1.0103468 11:-0.07592008 12:0.53575456 13:0.30014328 14:-0.28440752 15:0.30915776 16:-0.00925704 17:-0.41491672 18:0.10008784 19:0.36495804 20:-0.13575852 21:-0.42695076 22:0.26230108 23:-0.10831856 24:-0.38301772 25:0.4607392 
-0.1778547708121668 0 0 1:-0.13927456 2:-0.17586996 3:0.41553528 4:0.2057278 5:0.30381948 6:0.4401544 7:-0.11841048 8:-0.10520256 9:0.13194476 10:0.38741584 11:0.29094128 12:0.22994932 13:0.35426372 14:0.13457948 15:0.27201296 16:0.06334944 17:0.08675568 18:-0.15867916 19:0.21995648 20:-0.109418 21:-0.25465416 22:-0.14027188 23:-0.04870504 24:0.13280396 25:0.33859812 
-1 0 0 1:0.20662224 2:-0.20213016 3:0.24321296 4:-0.32238416 5:0.11349944 6:-0.02949972 7:-0.05362128 8:-0.00894104 9:0.03792332 10:0.50445792 11:0.20149832 12:-0.018007 13:0.2046434 14:-0.08590388 15:0.23904164 16:-0.14692704 17:0.17950524 18:0.14796048 19:0.27334536 20:-0.00178208 21:-0.10536612 22:0.00105248 23:-0.26767252 24:0.16628972 25:0.1401004 
-0.9067729726995503 1 0 1:-0.6718472 2:0.21043024 3:-0.16153112 4:-0.29323488 5:0.53850244 6:-0.74703152 7:-0.45193708 8:-0.6018746 9:-0.2725306 10:0.58273864 11:0.47450264 12:-0.53601228 13:-0.4331002 14:0.58407468 15:0.2557366 16:-0.0148064 17:-0.16786092 18:1.3041054 19:-0.56624564 20:0.22145752 21:0.17198472 22:-0.23976592 23:0.73115272 24:-0.69745084 25:0.64343596 
-0 1 1 1:-0.13362248 2:-0.04878316 3:0.0476538 4:-0.01845268 5:0.11691536 6:0.12327488 7:0.00213696 8:-0.09646168 9:0.01005944 10:0.26276856 11:0.02640836 12:0.02432636 13:0.11904224 14:-0.04824036 15:0.13713648 16:-0.007004 17:0.0064284 18:0.01739436 19:-0.05229068 20:-0.05817544 21:-0.08893288 22:0.06070236 23:-0.1246612 24:-0.02174132 25:0.08922068 
-1 1 0 1:-0.23547912 2:-0.2334648 3:0.08513824 4:-0.35963192 5:0.55972492 6:0.1691834 7:-0.0340204 8:-0.29092356 9:0.03763716 10:0.62854964 11:0.24458008 12:0.50017132 13:0.27250084 14:-0.11856816 15:0.08769532 16:0.2291292 17:-0.37961316 18:0.15098776 19:0.1472388 20:0.05149456 21:-0.3953664 22:0.27401368 23:-0.1032162 24:-0.0068628 25:0.372228 
-0.4561414302207409 1 0 1:-0.273182 2:-0.05533528 3:0.20047876 4:-0.30894164 5:0.3939354 6:-0.10695868 7:-0.29269516 8:-0.0151318 9:-0.3108056 10:0.60405824 11:0.25659808 12:-0.30785488 13:-0.03368004 14:0.0837278 15:0.27840936 16:-0.07983456 17:0.13202028 18:0.72592316 19:-0.48458112 20:-0.204334 21:-0.01273888 22:-0.27709456 23:0.13842636 24:-0.60664744 25:0.45685624 
-1 1 1 1:-0.15238548 2:0.03889412 3:-0.22038672 4:-0.12531288 5:0.0961424 6:-0.27534372 7:-0.22058632 8:-0.09285804 9:0.255949 10:0.0615942 11:-0.1345328 12:0.18202812 13:-0.25904708 14:-0.23170196 15:0.60378268 16:0.30270436 17:-0.45735092 18:0.3179156 19:-0.16078872 20:0.04280676 21:-0.15569928 22:0.22714732 23:-0.07721188 24:-0.491545 25:0.18780052 
-1 0 0 1:-0.19874236 2:-0.18766988 3:0.14292364 4:-0.15163048 5:0.04920568 6:0.199451 7:-0.0218438 8:-0.01727932 9:0.1116378 10:0.52674656 11:0.0839494 12:0.1479946 13:0.2317228 14:-0.25318168 15:0.23726796 16:0.35644708 17:-0.0885552 18:0.2362458 19:0.20111772 20:-0.22256704 21:0.05727596 22:0.03338288 23:-0.41995512 24:-0.04681904 25:0.16895188 
-1 1 0 1:-0.1425144 2:0.3700454 3:0.08631044 4:-0.26399288 5:0.47181896 6:-0.1745166 7:0.35616688 8:-0.25463272 9:0.13307104 10:0.46819296 11:0.10447932 12:-0.03992904 13:-0.3799876 14:-0.00475612 15:0.20514448 16:0.25896988 17:-0.44091048 18:0.15352844 19:-0.26544856 20:0.19058624 21:0.00215716 22:-0.19903516 23:0.28449524 24:-0.0041086 25:0.47966976 
-0 0.7296098622899685 0 1:-0.22773512 2:0.00419276 3:-0.054143 4:-0.115901 5:0.0808236 6:0.2297376 7:0.01291212 8:-0.26246868 9:-0.00625344 10:0.37829092 11:-0.08614676 12:0.03987364 13:0.19117992 14:-0.09780504 15:0.157471 16:0.01369372 17:-0.09799552 18:-0.01634652 19:-0.00128464 20:-0.06831276 21:-0.1535532 22:-0.01168708 23:-0.15130184 24:-0.118375 25:0.13482212 
-1 1 1 1:-0.32923188 2:0.23907632 3:-0.17988708 4:0.0856896 5:0.3158782 6:-0.1293246 7:-0.46682844 8:0.03070696 9:-0.31029764 10:0.22546448 11:-0.02430736 12:-0.25329624 13:-0.07543228 14:0.07787512 15:0.07779376 16:0.01546116 17:0.10151024 18:0.2229552 19:0.05643016 20:-0.08469224 21:0.05069948 22:-0.09874476 23:-0.11159388 24:-0.5583904 25:0.4065572 
-1 0 0 1:0.14431132 2:-0.00022716 3:0.16129456 4:0.06383116 5:-0.00363064 6:-0.32957508 7:-0.05609812 8:-0.20431536 9:-0.27380068 10:0.42295316 11:0.40333428 12:-0.0794674 13:0.37484024 14:0.2147178 15:-0.02070204 16:0.73994776 17:0.199733 18:0.19303804 19:-0.21498308 20:-0.26170672 21:0.31426968 22:0.40001524 23:-0.07626624 24:-0.06872904 25:0.12082004 
-1 1 0 1:-0.3908916 2:0.39800592 3:0.25471184 4:1.1192175 5:0.79200152 6:0.0784638 7:-0.83476536 8:0.48094456 9:-0.46800456 10:1.0895156 11:-0.23964284 12:-0.34517864 13:-0.52869028 14:0.16418232 15:0.67705464 16:-0.05365532 17:-0.08891528 18:0.76193204 19:0.11952724 20:0.278586 21:0.37013856 22:0.2129404 23:-0.32036168 24:-1.5836269 25:1.3627788 
-1 0 0 1:-0.18830472 2:-0.29861848 3:0.13588976 4:-0.0135556 5:0.33697944 6:0.48578992 7:-0.261278 8:-0.0609498 9:0.02034 10:0.80525156 11:0.10597544 12:0.54274908 13:0.21708008 14:-0.07477032 15:0.27103448 16:-0.00359604 17:-0.20372124 18:-0.1259602 19:0.14664376 20:-0.04473276 21:-0.27370996 22:-0.11307376 23:-0.23384492 24:-0.07855776 25:0.23084212 
-1 1 1 1:-0.20747816 2:0.0430146 3:0.052105 4:-0.2654346 5:0.25239516 6:0.05397984 7:-0.0194312 8:0.0451132 9:-0.08151828 10:0.42471672 11:0.13012772 12:0.06282536 13:0.17610508 14:-0.21147964 15:-0.03592976 16:0.15649848 17:0.07004128 18:0.01242488 19:-0.09156024 20:0.1637698 21:-0.22208596 22:-0.10033648 23:0.00347828 24:0.04678372 25:0.10720912 
-0 1 1 1:-0.27555332 2:-0.00638588 3:0.1572044 4:-0.07782092 5:0.11952088 6:-0.02442572 7:0.0071404 8:-0.3208078 9:0.0120408 10:0.13949512 11:0.02452504 12:0.37539404 13:0.21504976 14:0.0768944 15:0.12406248 16:-0.0313468 17:-0.31524692 18:0.05646136 19:0.18397336 20:0.13013712 21:-0.34483076 22:0.09404604 23:0.0186168 24:-0.30148032 25:0.21659892 
-0 0.1469929134275194 0 1:-0.3489966 2:-0.04529368 3:0.31501016 4:-0.37875344 5:-0.04367968 6:-0.14644564 7:0.06188424 8:0.09858528 9:-0.08599552 10:0.38269012 11:0.36888684 12:0.17320664 13:-0.2787256 14:-0.0705036 15:-0.01013336 16:-0.03441628 17:-0.07263792 18:-0.01144868 19:0.2439512 20:0.03319364 21:0.34199392 22:-0.16548904 23:-0.08529728 24:0.03100472 25:0.07968388 
-1 1 1 1:-0.22162184 2:0.13178592 3:0.05445 4:-0.13551536 5:0.18597296 6:0.04446508 7:-0.25832704 8:-0.0701416 9:-0.23516112 10:0.30774364 11:-0.11710156 12:-0.06075288 13:0.08344796 14:-0.14942444 15:0.01478752 16:0.0183344 17:0.11286796 18:0.094239 19:-0.03155976 20:0.14211528 21:0.023613 22:0.05525196 23:0.05757724 24:-0.27174252 25:0.40471372 
-1 1 1 1:0.10485004 2:0.51210488 3:-0.24987356 4:-0.28654052 5:0.45329144 6:-0.29032324 7:0.0716846 8:-0.34423176 9:0.04388772 10:0.37012564 11:0.2711912 12:0.31896824 13:-0.47792716 14:-0.39187512 15:0.21340792 16:-0.0796102 17:-0.19374948 18:0.27866444 19:-0.07476904 20:0.00983776 21:0.11382072 22:-0.2000606 23:0.01832836 24:-0.41568444 25:0.19996488 
-1 1 1 1:-0.09717 2:0.01569764 3:-0.37445844 4:0.18346768 5:0.11508056 6:-0.53122928 7:-0.15838016 8:-0.04993288 9:0.025818 10:0.05456024 11:0.2250414 12:-0.10191444 13:-0.09315924 14:0.11554008 15:0.18830232 16:0.15435628 17:-0.02976172 18:0.41105996 19:-0.43270376 20:-0.01395912 21:0.24224208 22:-0.07083328 23:0.23619616 24:-0.45819972 25:-0.01865228 
-1 0.7525591753770672 0 1:-1.0461804 2:-0.06230588 3:-0.10497448 4:0.66067616 5:0.60367644 6:0.65664736 7:-0.9879476 8:0.53781952 9:-0.042594 10:0.57057824 11:-0.44700684 12:-0.4770742 13:-0.9826006 14:-0.00353464 15:0.26342136 16:0.83212312 17:1.1792824 18:0.25761364 19:-0.54558668 20:-0.04924968 21:0.6365192 22:-0.14280692 23:0.0488942 24:-0.95589188 25:0.68987068 
-1 1 1 1:-0.06000144 2:0.21360776 3:-0.11407692 4:0.13415448 5:0.28476168 6:-0.08000396 7:-0.1815998 8:0.09756068 9:-0.03899716 10:0.33662284 11:-0.03938088 12:-0.23089008 13:-0.14298064 14:0.13766052 15:0.02623732 16:-0.03366632 17:0.00215404 18:0.26737932 19:0.02150996 20:-0.07547984 21:0.14001032 22:-0.05163304 23:0.05043148 24:-0.41858896 25:0.32207124 
-0 1 0 1:-0.18432604 2:-0.03385884 3:0.05409368 4:-0.24914204 5:0.21793816 6:0.28353788 7:-0.15228412 8:-0.38963088 9:-0.11744052 10:0.53299076 11:-0.07645268 12:0.10052876 13:0.2343752 14:-0.20407404 15:0.21338304 16:0.03197004 17:-0.1733506 18:0.09017836 19:0.01539648 20:-0.00493696 21:-0.18699768 22:-0.01124588 23:-0.22261828 24:-0.21224212 25:0.31254748 
-1 1 0 1:0.07470996 2:-0.15463936 3:0.09352296 4:0.02794428 5:0.51575836 6:0.17796776 7:-0.065188 8:-0.42046884 9:0.11174392 10:0.19694892 11:0.00500404 12:0.00950736 13:0.05817372 14:0.18485444 15:0.25506396 16:0.01712556 17:0.00631116 18:0.08676208 19:0.37214544 20:-0.08066572 21:0.01840996 22:0.0646196 23:-0.09049192 24:0.10218764 25:0.10796572 
-0 1 0 1:-0.3724746 2:-0.30109532 3:-0.20470268 4:-0.47846676 5:0.51839536 6:-0.01672412 7:0.03839596 8:-0.13511556 9:0.1007518 10:0.89177344 11:-0.01917496 12:0.48753728 13:0.41891244 14:-0.11051356 15:0.44775272 16:0.05131188 17:-0.05570504 18:-0.1485558 19:0.0413606 20:-0.12822296 21:-0.29640628 22:0.23584744 23:-0.23766496 24:-0.2140814 25:0.2757274 
-0.778385824496078 1 1 1:-0.19838624 2:0.09083468 3:0.04349792 4:0.0678138 5:0.37171296 6:-0.040485 7:-0.20808956 8:0.02375916 9:-0.08649752 10:0.38923348 11:0.03281312 12:0.09860836 13:0.10861648 14:0.1955452 15:0.25434584 16:-0.08302888 17:-0.04965096 18:0.11510072 19:-0.12622036 20:0.01953524 21:-0.10026256 22:-0.07128108 23:0.2086506 24:-0.07216064 25:0.25315776 
-0.3248975938387835 1 0.4999873511018095 1:0.01369572 2:0.29231488 3:-0.00932972 4:0.51318832 5:0.52067968 6:-0.1753946 7:-0.43202472 8:0.19684076 9:-0.07198832 10:0.25750168 11:-0.02560928 12:-0.1236222 13:0.26874576 14:0.27882156 15:0.4293936 16:-0.14803088 17:0.18842932 18:0.06925136 19:0.12979092 20:0.33867992 21:0.26586188 22:-0.37919112 23:0.42824504 24:-0.72838528 25:0.72542948 
-1 0.7914550854325797 0 1:-0.0094252 2:-0.04622932 3:0.0612068 4:0.09428632 5:0.14483372 6:0.3584236 7:-0.01337004 8:-0.27535036 9:0.09744964 10:0.51986904 11:-0.16878584 12:0.38606144 13:0.28570724 14:0.05378292 15:0.0521012 16:0.22413756 17:-0.2765748 18:0.05806588 19:0.29249788 20:-0.03559276 21:-0.05950364 22:-0.23610668 23:0.06539656 24:-0.38053576 25:0.25833264 
-1 1 0 1:-0.44104028 2:0.1684436 3:-0.20356772 4:-0.71069416 5:0.35965724 6:0.66905904 7:-0.51228632 8:-0.42244652 9:-0.21042164 10:1.1941453 11:-0.32045864 12:0.60911136 13:0.8329146 14:-0.14981212 15:0.18876772 16:0.24697344 17:-0.29229228 18:-0.41704772 19:0.17416896 20:0.28434492 21:-0.51412148 22:-0.19222628 23:0.26665628 24:-0.68149244 25:0.94034084 
-1 1 1 1:-0.13269004 2:-0.07247692 3:0.05203164 4:-0.00749864 5:-0.0091572 6:0.08440596 7:-0.04241352 8:0.05332212 9:0.03218088 10:-0.0012984 11:0.12105428 12:0.0292468 13:-0.24074772 14:-0.06350328 15:-0.05966332 16:-0.02513368 17:0.08452632 18:-0.0135538 19:-0.0364418 20:0.02798676 21:0.11717756 22:-0.0689186 23:0.03435056 24:0.06733444 25:-0.0821372 
-0 1 0 1:-0.33156324 2:0.31226312 3:-0.09729512 4:-0.1817288 5:0.22085752 6:-0.05194264 7:0.140195 8:-0.15408212 9:0.19918916 10:0.6264786 11:0.21539676 12:0.02512556 13:-0.36632432 14:-0.10393776 15:0.21530972 16:0.05986472 17:-0.29206832 18:0.6890404 19:-0.27856784 20:-0.13320852 21:-0.07619168 22:0.07183208 23:-0.07123364 24:-0.33050988 25:-0.14465324 
-0.05768602181176789 -1 0 1:-0.311865 2:0.44640024 3:0.37099432 4:0.12910256 5:-0.07446072 6:-0.19567884 7:-0.29628188 8:-0.51854592 9:0.01258824 10:0.44627148 11:0.15055108 12:0.51594076 13:0.1311774 14:-0.15547096 15:0.31737684 16:0.06363156 17:-0.50595204 18:0.4587684 19:-0.12969064 20:0.22797284 21:-0.29633076 22:-0.221573 23:-0.01036996 24:0.07951584 25:0.73940356 
-1 -1 1 1:-0.22712836 2:0.00684088 3:0.02393544 4:-0.10081012 5:0.1537202 6:0.20123648 7:-0.03978476 8:-0.27448788 9:-0.04082024 10:0.42114108 11:0.00457572 12:0.01746352 13:0.32515492 14:-0.10165496 15:0.18085464 16:0.06606352 17:-0.09697552 18:-0.00832568 19:-0.01606612 20:0.02820304 21:-0.18692368 22:0.04541488 23:-0.13454764 24:-0.12327488 25:0.27448072 
-0 -0.3183504625618577 0 1:-0.45957684 2:0.3739906 3:0.204173 4:0.45826748 5:0.33135836 6:-0.2231944 7:-0.52451124 8:0.08731392 9:-0.47863752 10:0.48013812 11:0.0100022 12:-0.24546264 13:-0.38625492 14:-0.06455468 15:-0.01935556 16:-0.02583 17:0.06759396 18:0.32506696 19:-0.24861556 20:0.23808788 21:0.04462928 22:0.03261356 23:0.41875084 24:-0.79663792 25:0.81915248 
-0 -0.007790347028160503 1 1:0.01892824 2:0.05270208 3:0.0384108 4:-0.44405012 5:0.34384124 6:0.09078336 7:-0.21777624 8:-0.49178864 9:-0.18593264 10:0.41513604 11:-0.3775634 12:0.04724696 13:-0.2387946 14:-0.66123048 15:0.32813784 16:-0.19986612 17:-0.09365808 18:-0.08021816 19:0.18533764 20:0.06712204 21:-0.09127576 22:0.12601576 23:-0.00438364 24:-0.19725936 25:0.62201008 
-1 -1 0 1:0.13728236 2:-0.32110776 3:-0.0795646 4:-0.01300988 5:0.12386796 6:0.45952376 7:-0.14347024 8:0.46243296 9:0.57226916 10:-0.11435168 11:-0.0147704 12:0.4585586 13:-0.05777596 14:0.73263968 15:-0.17627956 16:1.0105902 17:0.26392612 18:-0.41195392 19:0.10408752 20:-0.0760042 21:0.106624 22:-0.62729704 23:-0.28640708 24:-0.39704816 25:0.12570436 
-1 -0.3325059730205572 0 1:-0.43023276 2:-0.05235496 3:0.08822492 4:-0.09560552 5:0.57185864 6:-0.443758 7:-0.53084612 8:0.33038084 9:-0.22122096 10:0.21587288 11:-0.02149156 12:-0.42707168 13:-0.3378856 14:0.16885328 15:-0.10334776 16:-0.0557608 17:0.18635608 18:0.36019676 19:-0.049798 20:0.14883104 21:0.16446528 22:-0.58829572 23:0.11594592 24:-0.40262728 25:0.54211624 
-1 -1 1 1:0.03370916 2:-0.0198568 3:-0.10652084 4:0.03606524 5:0.13283288 6:0.0458682 7:-0.14237216 8:-0.03113036 9:0.1098038 10:0.08862 11:0.14794364 12:0.03177608 13:-0.24510232 14:0.03648296 15:0.2098698 16:0.04303288 17:-0.02599612 18:0.13058608 19:-0.0046598 20:-0.07662148 21:0.2807114 22:-0.08756688 23:-0.1309604 24:-0.194309 25:-0.32075 
-0 -0 0.4422814495436801 1:0.15473272 2:0.044694 3:-0.51920292 4:-0.2218284 5:0.26899308 6:-0.20737876 7:-0.08996052 8:-0.004949 9:0.1862604 10:0.02392152 11:-0.25154052 12:0.044613 13:-0.19373744 14:-0.02592712 15:0.3673498 16:0.0068552 17:0.13533384 18:-0.01345984 19:-0.0228636 20:0.28681176 21:-0.00370652 22:-0.1608438 23:0.51256792 24:-0.2441 25:-0.009366 
-1 -1 1 1:-0.25122756 2:-0.07683804 3:-0.00052484 4:-0.0887762 5:0.07307736 6:0.0438998 7:0.0468486 8:-0.1190046 9:-0.10184444 10:0.24557948 11:0.03673232 12:-0.01801308 13:-0.07851636 14:0.02544312 15:-0.03830236 16:0.10890928 17:0.00314488 18:0.15443812 19:-0.0984118 20:-0.04516748 21:0.02676392 22:-0.02237552 23:-0.06099556 24:-0.1516788 25:0.01548256 
-1 -0 0.742187821967252 1:-0.16799096 2:0.30108544 3:-0.52918188 4:0.19909084 5:0.35372208 6:-0.219031 7:-0.28359664 8:-0.14228188 9:-0.30168776 10:0.34206348 11:-0.26860344 12:-0.05489516 13:-0.48484236 14:0.15219988 15:-0.41072056 16:-0.32094524 17:0.03065748 18:0.22242948 19:0.07848076 20:0.39727784 21:0.16242508 22:0.06926768 23:0.22210176 24:-0.22062028 25:0.48384588 
-0 -1 0.7322227035739055 1:-0.1777526 2:-0.0114424 3:0.06473852 4:-0.07281724 5:0.24049948 6:0.04165636 7:0.0475106 8:-0.18618324 9:-0.11546472 10:0.2898968 11:0.04421068 12:-0.08349172 13:0.061463 14:0.05015012 15:0.10326956 16:0.03020932 17:-0.01828924 18:0.15156448 19:-0.162841 20:-0.0661972 21:-0.02346748 22:-0.01485236 23:-0.08373592 24:-0.2107128 25:0.13952512 
-0 -0.4384344488875755 0 1:-0.2462538 2:-0.02811336 3:0.30844408 4:-0.51320084 5:0.17734332 6:0.30046992 7:-0.49107396 8:-0.43916016 9:0.18568604 10:0.40306544 11:0.22823104 12:0.21255976 13:0.070543 14:-0.17175972 15:0.30383676 16:-0.3145292 17:-0.1276276 18:0.30584432 19:0.08292384 20:0.19490204 21:-0.08233708 22:0.09422956 23:0.1901174 24:-0.34377524 25:0.47160708 
-0 -1 0.5810777233407275 1:-0.19910144 2:-0.0132102 3:-0.02435632 4:-0.19045156 5:0.28559308 6:-0.21264092 7:-0.1723878 8:0.06237872 9:-0.14632916 10:-0.0041224 11:0.1998766 12:-0.178551 13:0.05792936 14:0.17895872 15:-0.11183404 16:-0.07352968 17:0.21124 18:0.02788804 19:-0.0987178 20:0.03593636 21:0.08294736 22:-0.28694464 23:0.07025016 24:-0.10788144 25:0.37742812 
-1 -1 1 1:-0.04159536 2:0.11077008 3:-0.43533992 4:-0.17777452 5:0.16878068 6:-0.00824192 7:0.09346592 8:-0.28673136 9:0.16738592 10:0.53817644 11:-0.01566496 12:0.40662644 13:-0.10531384 14:-0.07451372 15:0.017193 16:0.01873336 17:-0.51434064 18:0.25828792 19:-0.0324384 20:-0.0891708 21:-0.04021664 22:0.16151256 23:-0.08456836 24:-0.14440416 25:0.11866652 
-0 -1 0 1:-0.36438964 2:0.03120784 3:0.35843924 4:-0.5606278 5:0.4879922 6:-0.24560888 7:-0.68298756 8:-0.41972588 9:-0.66062008 10:0.43514376 11:0.17901864 12:-0.2395536 13:-0.06363676 14:0.16296964 15:0.16990392 16:-0.0495172 17:0.23259664 18:0.78911416 19:-0.60213976 20:-0.15420112 21:0.10505276 22:-0.50849976 23:0.15878476 24:-0.481044 25:0.86896176 
-1 -1 1 1:-0.29030976 2:-0.03425676 3:-0.0245604 4:-0.15714372 5:-0.01274892 6:-0.16499736 7:-0.15978852 8:0.2755944 9:0.01287232 10:0.05349084 11:-0.0279082 12:0.0651218 13:-0.4140072 14:-0.46129996 15:0.17315144 16:-0.13323648 17:0.01923168 18:-0.24570548 19:-0.0251732 20:-0.12890944 21:0.11265776 22:0.03872668 23:0.05089148 24:-0.1442714 25:0.12703016 
-1 -1 0 1:-0.35330652 2:-0.15130848 3:0.07337612 4:-0.3228498 5:0.66061912 6:0.32024872 7:-0.21611528 8:-0.28625156 9:0.3657264 10:1.3100884 11:0.11837132 12:0.43945028 13:0.15789684 14:0.08169136 15:0.53329808 16:0.20349284 17:-0.32174268 18:0.27842448 19:-0.1261182 20:0.13463108 21:-0.17409928 22:0.00817396 23:-0.4542754 24:-0.18255416 25:0.06765232 
-0.6318737550939838 -0.7325738600715305 1 1:0.11383628 2:-0.17684328 3:0.03054984 4:0.04545312 5:0.20186584 6:-0.0794752 7:0.04520204 8:0.16692068 9:0.25360468 10:0.08146348 11:0.0542944 12:0.10699796 13:-0.12272804 14:0.01627648 15:0.09914144 16:-0.03333988 17:-0.10685436 18:0.16628552 19:-0.13468044 20:-0.03526532 21:-0.17105676 22:0.01980736 23:0.07013816 24:-0.20913296 25:0.21321628 
-1 -1 0 1:-0.06869996 2:-0.09853608 3:0.06758596 4:-0.05454868 5:0.14723496 6:0.21045436 7:-0.05690664 8:-0.25257184 9:-0.024741 10:0.18467252 11:0.03684832 12:0.1956896 13:0.11945028 14:0.0084782 15:0.12096736 16:0.19248168 17:-0.04870304 18:-0.10424168 19:-0.03559788 20:0.15502552 21:-0.0499344 22:0.11564712 23:0.04926756 24:-0.0304124 25:0.01170752 
-0.7587654582911134 -1 1 1:0.01216212 2:0.03098016 3:-0.07713004 4:0.01335916 5:0.13485928 6:-0.04505324 7:-0.06661624 8:-0.00291528 9:0.16436716 10:0.04281948 11:-0.0739244 12:0.12233868 13:-0.07647356 14:-0.04120476 15:0.18682896 16:0.14003536 17:-0.09005124 18:0.01644356 19:-0.01650864 20:0.0898994 21:0.01853944 22:0.05108492 23:0.03316444 24:-0.05715184 25:0.0173756 
-0 -1 0 1:-0.45249372 2:0.43623172 3:-0.63657908 4:-0.08823028 5:0.42604436 6:-0.3729248 7:-0.010041 8:-0.0338642 9:-0.01939088 10:0.51241736 11:0.20695788 12:-0.01047612 13:-0.81984892 14:0.19601808 15:0.0871986 16:-0.31976172 17:-0.20622684 18:0.30164976 19:0.35159104 20:0.0385984 21:0.04482788 22:-0.10520628 23:-0.27524728 24:-0.52599636 25:0.57983504 
-0 -1 0.8526022540119826 1:-0.11558392 2:0.30823784 3:-0.158395 4:0.16793128 5:0.18120648 6:-0.184257 7:-0.13513388 8:0.01250264 9:-0.23307888 10:0.20064948 11:0.05393276 12:-0.13211552 13:-0.11911788 14:-0.12446108 15:0.06847552 16:-0.09876808 17:-0.0588186 18:0.22265352 19:-0.0757094 20:0.09669356 21:-0.05234948 22:0.04037028 23:0.19764716 24:-0.45686052 25:0.42739404 
-1 -1 0 1:-0.0081144 2:0.05584208 3:-0.10113952 4:0.0248514 5:0.06534568 6:-0.16550396 7:-0.05200188 8:-0.33428264 9:0.12619024 10:0.18480632 11:0.0488438 12:0.13584644 13:0.11660608 14:0.273639 15:0.28664804 16:0.15095112 17:0.06738412 18:0.37343524 19:-0.24389652 20:-0.00944076 21:0.15327756 22:0.06890876 23:0.16958912 24:-0.05905992 25:0.0537844 
-0 -1 0 1:-0.02048928 2:-0.00669252 3:0.24343332 4:-0.1462136 5:-0.15619896 6:-0.02809168 7:-0.31924904 8:-0.477335 9:0.34300672 10:0.38080616 11:0.1774594 12:0.3109554 13:0.19791016 14:0.00199876 15:0.37581568 16:0.14078564 17:-0.24534316 18:0.09690944 19:-0.35667392 20:0.21109908 21:-0.03129176 22:0.22562812 23:0.1067476 24:0.02731704 25:-0.04215544 
-1 -1 1 1:-0.23574264 2:0.02608628 3:0.14602644 4:0.04677728 5:0.15764028 6:0.04925008 7:-0.29560972 8:0.03648572 9:-0.02042908 10:0.3199082 11:-0.01972992 12:-0.05872588 13:0.23972932 14:-0.088293 15:0.11408912 16:-0.08808692 17:0.15302504 18:0.14625852 19:-0.09184432 20:0.12217212 21:0.04442944 22:-0.25151688 23:-0.0342778 24:-0.37242528 25:0.04287588 
-1 -0 1 1:-0.06626028 2:-0.05064364 3:-0.12618212 4:-0.29054492 5:-0.18343876 6:-0.37236492 7:-0.25259988 8:0.19149788 9:-0.13196604 10:0.1443466 11:-0.3929004 12:-0.34877996 13:-0.70594456 14:-0.03982508 15:-0.148246 16:-0.1738504 17:0.0530074 18:0.20238352 19:-0.27361628 20:0.09919908 21:-0.07251472 22:-0.09326524 23:0.53321388 24:-0.54675976 25:0.60195996 
-1 -1 1 1:-0.22606556 2:0.02644904 3:-0.39355028 4:-0.18020056 5:0.09515944 6:0.04252296 7:-0.32932556 8:-0.18409632 9:0.11646112 10:0.10363456 11:-0.00842328 12:0.14377484 13:0.15291684 14:0.01735556 15:-0.09956384 16:0.50367788 17:-0.03338812 18:0.09487596 19:0.11001312 20:-0.11742896 21:0.19939308 22:-0.02582 23:0.09375252 24:0.02636116 25:0.17558552 
-1 -1 0 1:-0.43607356 2:-0.07641164 3:-0.07007388 4:0.13583084 5:0.20033764 6:0.07345 7:-0.62041744 8:0.34230112 9:-0.1123456 10:0.14189464 11:0.03232308 12:-0.38508824 13:-0.35648584 14:0.12438916 15:-0.19905364 16:0.18358028 17:0.24228292 18:0.18671084 19:-0.03792176 20:0.00854624 21:0.49641076 22:-0.21863696 23:0.2067174 24:-0.43394596 25:0.27404148 
-1 -1 1 1:-0.07135088 2:-0.18159416 3:0.08302316 4:-0.00637228 5:0.0286858 6:-0.03957804 7:0.11107964 8:0.03999996 9:-0.04439704 10:0.4299922 11:0.04756644 12:-0.10960296 13:-0.02988576 14:-0.13827252 15:0.27810508 16:-0.11053576 17:0.18717388 18:0.14210972 19:-0.04497668 20:-0.14309716 21:-0.04253776 22:0.06052584 23:-0.07295764 24:0.04899188 25:-0.0148218 
-1 -0.4662165453756963 0.1906930370091823 1:-0.2154762 2:0.07743056 3:0.02988312 4:-0.1113826 5:0.76816032 6:-0.3238312 7:-0.17875484 8:-0.12139792 9:-0.08919388 10:0.09395268 11:0.20334344 12:0.17872088 13:0.31396972 14:0.1023482 15:-0.13043348 16:0.21760624 17:0.13509056 18:0.01336152 19:0.19489684 20:0.0118632 21:-0.26106824 22:-0.42899304 23:-0.09262796 24:-0.05202388 25:0.94976888 
-0 -0 1 1:-0.28959676 2:-0.15634316 3:0.18187056 4:-0.37549468 5:0.29200012 6:-0.39498468 7:-0.27376708 8:0.1656806 9:-0.1415362 10:0.23178072 11:0.3391966 12:0.09605272 13:-0.59063568 14:-0.18620848 15:0.3285496 16:-0.28907392 17:0.23491728 18:-0.15473464 19:0.15171408 20:0.12202656 21:-0.19406684 22:0.2192938 23:0.16972056 24:-0.02444596 25:-0.07937296 
-0 -0 1 1:0.18870444 2:0.28597496 3:-0.22354904 4:-0.03483412 5:0.1243172 6:-0.27768796 7:0.09494992 8:-0.078709 9:0.02118476 10:-0.0165804 11:0.20697092 12:0.05943488 13:0.01087624 14:-0.4583688 15:0.16691996 16:0.1096806 17:0.01393332 18:-0.01922196 19:0.07171944 20:0.0139554 21:-0.24378908 22:0.11788812 23:0.3132874 24:-0.05497552 25:0.12844584 
-0.9513113202290528 -1 0 1:-0.4333442 2:0.07295584 3:0.20387816 4:-0.32306476 5:1.2385948 6:-0.09594252 7:0.24420192 8:-0.97731072 9:0.14827848 10:1.5414396 11:-0.09671184 12:1.460492 13:0.16952784 14:-0.25395576 15:0.47623552 16:0.14918484 17:-0.66603156 18:0.88129948 19:-0.05429628 20:0.87316268 21:-0.25622288 22:0.1124416 23:-0.56509552 24:0.17288448 25:0.9941114 
-1 -1 1 1:0.04470312 2:0.07709172 3:0.13015824 4:0.12549352 5:0.379863 6:0.14384688 7:0.06094632 8:-0.1789832 9:0.08342784 10:0.26028068 11:0.02074056 12:-0.05109484 13:0.06939844 14:-0.11008596 15:0.26944404 16:0.04708284 17:0.146619 18:0.22390364 19:-0.07550888 20:-0.19146688 21:-0.00153724 22:-0.01816948 23:-0.06568932 24:-0.102576 25:0.14773964 
-0.7963196944830003 -1 0 1:-0.2066766 2:-0.50588108 3:0.06603716 4:-0.0392082 5:0.20078312 6:0.69060704 7:0.08999132 8:-0.35593088 9:0.06995192 10:0.571708 11:0.23665688 12:0.61582888 13:0.767575 14:-0.02846476 15:0.26169832 16:0.2507582 17:-0.46189108 18:-0.02816048 19:0.08822456 20:0.25490236 21:-0.29873548 22:0.11455776 23:-0.20023968 24:-0.52741384 25:0.2697824 
-1 -1 1 1:-0.29907056 2:0.01003516 3:0.31230332 4:-0.62147592 5:0.41197572 6:0.32394908 7:-0.1090654 8:-0.41556676 9:-0.3602226 10:0.80115468 11:0.1365624 12:0.89044556 13:0.68764212 14:-0.46071188 15:0.20259428 16:0.38808692 17:-0.47175236 18:0.15575904 19:0.21882044 20:0.22978112 21:-0.43033844 22:0.2803196 23:-0.11949792 24:-0.26246636 25:0.77484896 
-1 -1 0 1:-0.064579 2:-0.01657776 3:0.05657696 4:0.0559526 5:0.266242 6:0.05104852 7:-0.38628348 8:-0.17435488 9:-0.18381652 10:0.4401372 11:0.07866112 12:-0.17620976 13:-0.04599664 14:-0.05000956 15:0.10075404 16:-0.20336504 17:0.0325376 18:0.17289052 19:-0.1470604 20:-0.08399364 21:-0.0493354 22:-0.09393516 23:-0.0271918 24:-0.23557016 25:0.43146536 
-1 -1 1 1:-0.10712908 2:0.17224804 3:0.18153128 4:-0.13846024 5:0.3206226 6:-0.2654484 7:-0.31594608 8:-0.08369728 9:-0.1711038 10:0.39379204 11:0.0454132 12:-0.16257892 13:0.23414952 14:-0.17881592 15:0.05850356 16:-0.01689516 17:-0.06332132 18:0.2504156 19:0.11743804 20:0.14893976 21:-0.0817086 22:-0.25544808 23:0.09376732 24:-0.04172472 25:0.65077448 
-0 -1 0 1:-0.2791798 2:-0.23702408 3:-0.023265 4:-0.48294196 5:0.234218 6:0.10484424 7:-0.1129692 8:-0.28151144 9:-0.19485832 10:0.1860558 11:0.11175876 12:-0.15124632 13:-0.0628058 14:0.08445012 15:0.09497084 16:-0.04652488 17:0.11310192 18:0.16761012 19:-0.28627628 20:-0.11422112 21:-0.01229664 22:-0.04615176 23:0.0509852 24:-0.3454394 25:0.12425296 
-1 -1 0 1:0.10290724 2:0.14329248 3:-0.32218556 4:0.02523144 5:0.36165716 6:-0.17448696 7:-0.55227248 8:-0.07737192 9:-0.1161892 10:0.70222792 11:0.05338488 12:-0.354289 13:0.22476888 14:0.15686712 15:-0.08636884 16:0.39577596 17:0.20684328 18:-0.2849612 19:-0.16619456 20:-0.29970204 21:0.42105056 22:-0.19371676 23:-0.37233516 24:-0.02741804 25:0.49745584 
-0.9894787436984838 -0 0 1:-0.14584828 2:0.15435388 3:0.46171396 4:-0.40916916 5:0.75873252 6:0.43818052 7:-0.37433504 8:-0.17040616 9:0.418217 10:0.59430004 11:-0.131601 12:1.4448663 13:0.58330992 14:-0.20524708 15:0.74332324 16:0.42348644 17:-0.20038672 18:0.04187888 19:0.33525736 20:0.69306052 21:-0.5584996 22:-0.0196516 23:-0.18516916 24:-0.3535794 25:1.0295628 
-1 -1 0 1:-0.34587444 2:-0.09735964 3:0.4719994 4:0.11769016 5:0.32546108 6:0.1293484 7:-0.46181888 8:0.29409952 9:-0.22133568 10:0.3099108 11:0.05793808 12:-0.30033556 13:-0.43881792 14:0.12167148 15:0.11395488 16:-0.04998804 17:0.36579024 18:0.0962912 19:-0.10437024 20:0.08209824 21:0.19464932 22:-0.10076848 23:0.20821488 24:-0.42245412 25:0.37386044 
-1 -1 0 1:-0.64395268 2:0.39791324 3:-0.03800004 4:0.2613216 5:0.26943324 6:0.401134 7:-0.57129428 8:-0.23735428 9:-0.27944672 10:0.76935104 11:-0.0861756 12:-0.30661508 13:0.141929 14:-0.10427856 15:-0.13794872 16:-0.24214788 17:0.23545988 18:-0.29800064 19:0.40887008 20:0.3519388 21:-0.0181164 22:0.19574868 23:-0.02544884 24:-0.58570848 25:0.74527416 
-0 -1 1 1:-0.05748148 2:-0.05057884 3:-0.125714 4:-0.18783208 5:0.2856742 6:-0.10514636 7:0.00574948 8:0.09237304 9:0.26780664 10:0.22014908 11:0.04633284 12:0.2899664 13:-0.00706204 14:-0.0477514 15:0.26216496 16:0.1107382 17:-0.202566 18:0.0240566 19:0.01738608 20:-0.06484856 21:-0.14369348 22:0.1157738 23:-0.10396596 24:-0.18893956 25:0.12542112 
-1 -1 1 1:0.02754152 2:-0.21164324 3:-0.11606992 4:0.1651008 5:0.09397576 6:-0.0581748 7:-0.0982782 8:0.06984288 9:0.04902932 10:-0.19723512 11:0.18620608 12:-0.00050704 13:0.21241464 14:0.17115588 15:0.26796548 16:0.22748236 17:0.320828 18:-0.08280372 19:-0.10143548 20:-0.11150064 21:0.05858828 22:0.00168272 23:0.17184852 24:-0.16893964 25:-0.01921048 
-1 -1 1 1:-0.09716 2:-0.13670056 3:0.06482052 4:-0.09381008 5:0.08822208 6:0.01368432 7:-0.11617876 8:-0.24773748 9:-0.01142624 10:0.2694552 11:-0.04933744 12:0.0031298 13:-0.00976792 14:-0.05300604 15:0.10269864 16:-0.00188088 17:0.15876748 18:-0.0119658 19:0.04039144 20:0.05534252 21:-0.08431168 22:0.00453068 23:-0.02386576 24:0.0401924 25:0.0003728 
-1 -1 0 1:-0.66800656 2:-0.01115636 3:-0.29193344 4:-0.10637572 5:0.58498428 6:0.50181524 7:-0.238483 8:0.08413812 9:-0.06312244 10:0.96360188 11:0.31903656 12:0.0436148 13:-0.3980172 14:0.15710352 15:0.20131808 16:-0.1976722 17:0.18859644 18:-0.0461976 19:-0.27795852 20:0.14439668 21:0.17732636 22:-0.0658912 23:0.42822892 24:-0.61429888 25:0.69364068 
-0 -1 1 1:-0.30029036 2:-0.0678536 3:-0.02712708 4:-0.17757236 5:0.07471716 6:0.24661512 7:0.059104 8:-0.33546636 9:0.01746964 10:0.35404572 11:-0.1023492 12:0.24333144 13:0.17701536 14:-0.14857108 15:0.17380568 16:0.22118288 17:-0.29353616 18:0.1031502 19:-0.04814444 20:0.03706568 21:-0.27879864 22:0.1769162 23:-0.05532648 24:-0.22582468 25:0.1376074 
-0 -1 0 1:-0.21503348 2:0.17360048 3:0.24173564 4:-0.08806596 5:0.27444044 6:-0.04640896 7:-0.0869918 8:-0.19386428 9:0.0465068 10:0.49897088 11:0.265767 12:0.315182 13:-0.2372398 14:-0.16225968 15:0.43629856 16:-0.1774662 17:-0.27317216 18:0.6032822 19:-0.1296648 20:-0.0965148 21:-0.32803356 22:0.1598422 23:-0.05943864 24:-0.4320744 25:0.44445408 
-0.7943783602469822 -1 0.3293919356418916 1:-0.01518448 2:0.15779232 3:-0.12007316 4:-0.16211884 5:0.56966632 6:-0.19108732 7:-0.29292268 8:-0.74884644 9:-0.12910004 10:0.66570488 11:0.30875864 12:1.0510687 13:-0.12407336 14:-0.48619188 15:0.502548 16:0.15018716 17:-0.37490792 18:0.00859432 19:-0.0573638 20:-0.31274036 21:0.32774484 22:0.37067444 23:-0.29959616 24:-0.20176476 25:0.44802592 
-0.2926636024495269 -1 0.9220924666516433 1:-0.17105704 2:0.11727284 3:-0.14256348 4:-0.0815506 5:0.1050558 6:-0.07482344 7:0.04489996 8:-0.20971944 9:-0.112957 10:0.2033908 11:0.04096456 12:-0.08433984 13:-0.13892768 14:0.06892288 15:0.0399762 16:-0.01357528 17:-0.00489756 18:0.08646052 19:-0.0862492 20:-0.02057424 21:0.13744392 22:-0.05111836 23:-0.03166528 24:-0.17021156 25:0.09800344 
-0 -1 0.3601697544779243 1:-0.00589836 2:0.20378408 3:0.07810128 4:0.05462068 5:0.0916836 6:-0.30150832 7:0.04147272 8:-0.261373 9:0.20504004 10:0.21376412 11:0.15334732 12:0.1587916 13:-0.00902832 14:-0.01440208 15:0.11860696 16:0.23823476 17:-0.28896592 18:0.10013296 19:0.17426336 20:-0.03588304 21:-0.11869428 22:0.19551352 23:-0.10816896 24:-0.32227476 25:0.20280388 
-0 -1 0 1:-0.29672528 2:-0.06812544 3:0.02204164 4:-0.41537488 5:0.5582044 6:0.06624912 7:-0.00880088 8:-0.2174414 9:0.08520556 10:0.65388116 11:0.10550208 12:0.62587028 13:0.37832404 14:-0.10540604 15:0.2591886 16:0.13878272 17:-0.49572924 18:0.02837508 19:0.04820336 20:0.09281708 21:-0.60130136 22:0.18058876 23:-0.15797772 24:-0.30947372 25:0.64058008 
-1 -1 0 1:-0.263535 2:-0.01061308 3:-0.28837016 4:0.06426772 5:-0.07852332 6:-0.094766 7:-0.30973708 8:0.404132 9:-0.2013404 10:0.31310548 11:-0.12244284 12:-0.23255824 13:-0.41708684 14:-0.10531504 15:0.22484312 16:-0.05554204 17:-0.08240696 18:0.18977624 19:-0.10170108 20:0.00073264 21:0.1501462 22:0.12230652 23:0.2227294 24:-0.80595708 25:0.19640756 
-1 -1 0 1:-0.05109508 2:0.28229448 3:0.07952544 4:0.1482038 5:0.82690976 6:0.33605216 7:-0.42563608 8:-0.28837392 9:0.16864208 10:0.47478484 11:-0.45812216 12:-0.0500592 13:-0.11627564 14:-0.20003396 15:0.42857312 16:0.05581996 17:0.3020134 18:0.14665272 19:0.116489 20:0.15033868 21:0.202766 22:0.17047156 23:0.236118 24:-0.092851 25:0.66377284 
-1 -1 1 1:-0.07744252 2:-0.16439956 3:0.03645252 4:-0.09138548 5:0.21811232 6:0.23329148 7:0.04851368 8:-0.25477792 9:-0.0225902 10:0.55744212 11:-0.07380004 12:0.10495528 13:0.12441684 14:-0.03540004 15:0.31126488 16:0.03673812 17:0.0923708 18:0.02465048 19:0.06621724 20:-0.11103648 21:-0.00302808 22:0.00078696 23:-0.19951616 24:-0.0247286 25:-0.0283978 
-0.4728298463600358 -1 1 1:-0.20526488 2:-0.14309196 3:0.04660628 4:-0.17146552 5:0.09640164 6:-0.00417324 7:-0.04230364 8:0.10130968 9:0.08716876 10:0.11416452 11:-0.01181736 12:0.1555922 13:-0.04458748 14:-0.05503936 15:0.27319524 16:-0.02249456 17:0.0295012 18:0.1221494 19:-0.05480892 20:-0.03463284 21:-0.02986164 22:0.07538768 23:0.03619744 24:-0.36060624 25:0.11212172 
-1 -1 1 1:-0.04879656 2:-0.15680728 3:0.19322196 4:-0.15818128 5:0.12518928 6:0.07914464 7:-0.2929604 8:-0.12723072 9:-0.09666332 10:0.32487804 11:-0.16516716 12:-0.06399032 13:-0.12844912 14:-0.36312244 15:0.25402976 16:0.04007516 17:-0.05601508 18:-0.1107356 19:-0.06837088 20:0.0425738 21:-0.17754228 22:-0.12022652 23:0.00773312 24:-0.07963292 25:0.2719124 
-0 -1 0 1:0.17375732 2:0.18816956 3:0.23954392 4:0.09036812 5:0.51554092 6:0.29084688 7:0.17378928 8:-0.60077456 9:0.15888288 10:0.40845044 11:-0.16815388 12:0.39472892 13:0.27353944 14:-0.18193192 15:0.24275876 16:0.27020276 17:-0.25690148 18:0.14527552 19:-0.04265816 20:0.01153208 21:-0.15288184 22:-0.0086612 23:0.1824088 24:-0.11232968 25:0.40960468 
-0 -1 0 1:-0.2791798 2:-0.23702408 3:-0.023265 4:-0.48294196 5:0.234218 6:0.10484424 7:-0.1129692 8:-0.28151144 9:-0.19485832 10:0.1860558 11:0.11175876 12:-0.15124632 13:-0.0628058 14:0.08445012 15:0.09497084 16:-0.04652488 17:0.11310192 18:0.16761012 19:-0.28627628 20:-0.11422112 21:-0.01229664 22:-0.04615176 23:0.0509852 24:-0.3454394 25:0.12425296 
-1 -1 1 1:-0.13095588 2:0.04145308 3:-0.09698536 4:-0.27002216 5:-0.02034484 6:-0.02014688 7:-0.25910936 8:0.19115084 9:-0.09325432 10:-0.0487134 11:0.00368464 12:-0.04192532 13:-0.35233172 14:-0.41344876 15:0.02657672 16:0.04160472 17:-0.02912088 18:-0.21679736 19:0.01932612 20:-0.05020492 21:0.15504152 22:0.04523548 23:0.07076076 24:-0.104248 25:0.24353228 
-1 -1 0 1:-0.2492946 2:0.3824412 3:0.4118872 4:-0.24448664 5:0.54020184 6:0.48234764 7:-0.09999924 8:-0.61223148 9:0.3116448 10:0.9333718 11:0.21617884 12:0.62401552 13:-0.06859644 14:0.21793792 15:-0.16838088 16:-0.0811232 17:-0.2203398 18:0.49994388 19:0.14452368 20:0.02500268 21:-0.12687476 22:0.38589896 23:-0.42414952 24:-0.35746016 25:-0.03380516 
-1 -1 1 1:0.09683448 2:-0.0934954 3:-0.28753812 4:0.1840314 5:0.03513908 6:-0.67123432 7:0.06318284 8:-0.11083964 9:-0.16529604 10:-0.06026592 11:0.08874332 12:-0.18770512 13:-0.18583416 14:0.0318446 15:0.47769512 16:0.34273096 17:0.198653 18:0.57534936 19:-0.3359534 20:0.08178152 21:0.14086264 22:-0.05715988 23:0.44035808 24:-0.23209344 25:-0.21826116 
-1 -0 0 1:-0.26787708 2:0.0759306 3:-0.12332792 4:-0.05737432 5:-0.10598828 6:0.29443628 7:0.06144076 8:-0.2959934 9:0.46544816 10:-0.425847 11:0.45883488 12:0.42963084 13:-0.54160608 14:0.5470726 15:-0.00386048 16:0.23953756 17:0.215959 18:0.35033844 19:-0.30728668 20:0.22722696 21:0.0480966 22:0.32671716 23:0.16930464 24:0.15033612 25:0.1960786 
-1 -1 0 1:-0.409744 2:0.1014306 3:-0.05875148 4:-0.28358524 5:0.44308004 6:0.24846164 7:-0.247435 8:-0.35860124 9:-0.09469116 10:0.93743768 11:0.02192824 12:-0.06315904 13:0.2916804 14:-0.01487384 15:0.06501828 16:-0.00938888 17:-0.15809432 18:0.08169416 19:0.00887312 20:0.12081284 21:-0.16595832 22:0.13056692 23:-0.12294316 24:-0.26475344 25:0.43831524 
-1 -1 0.8293922016750055 1:-0.36731428 2:0.59852796 3:0.13155272 4:0.70389468 5:0.09523396 6:-0.25752656 7:-0.5663536 8:0.39368684 9:-0.09961576 10:0.63862028 11:-0.26700696 12:-0.08004564 13:-0.50524192 14:-0.05616212 15:0.24862892 16:-0.53720288 17:0.25024524 18:0.07602644 19:0.30125932 20:0.126782 21:0.16791116 22:0.03887792 23:0.3839072 24:-0.86086256 25:0.34433672 
-0 -1 0.9800323841756787 1:-0.15836968 2:0.05566296 3:0.11013684 4:-0.14739156 5:0.35945564 6:0.05446264 7:-0.09838668 8:-0.45466316 9:-0.1009382 10:0.33201796 11:0.03729592 12:0.18085664 13:0.23669524 14:-0.14143888 15:0.22998884 16:-0.01045296 17:-0.06468852 18:0.08267316 19:-0.130066 20:0.03245232 21:-0.22152524 22:0.10069792 23:-0.16964112 24:-0.06876268 25:0.33050896 
-1 -1 1 1:-0.06777392 2:-0.017487 3:0.03475944 4:-0.27155704 5:0.16942208 6:0.02430376 7:0.00709836 8:-0.10774316 9:-0.14368476 10:0.14230628 11:0.08220524 12:0.13862964 13:0.18629108 14:-0.03885784 15:0.09176896 16:0.03280516 17:0.01176336 18:0.04746008 19:-0.09939344 20:-0.05288808 21:-0.08680852 22:-0.02649504 23:-0.05262068 24:-0.2109398 25:0.23163468 
-0 -0.7155354698346905 0 1:-0.32912328 2:-0.43032068 3:0.25266976 4:-0.25385544 5:1.1779095 6:0.2445924 7:-0.62142632 8:-0.33859324 9:0.12825716 10:1.5210411 11:-0.0145764 12:1.1763956 13:0.66650148 14:-0.02824132 15:1.7116338 16:0.43833484 17:-0.999456 18:0.3542812 19:0.31753832 20:0.54524224 21:-0.16394072 22:0.7419148 23:-0.04826168 24:-0.5222976 25:1.0327906 
-0.2410673390996002 -0 0 1:-0.37471064 2:-0.032649 3:0.08176468 4:-0.27525448 5:0.62308996 6:-0.51989628 7:-0.411968 8:0.12388104 9:-0.32416956 10:0.59253604 11:0.0161966 12:-0.04010056 13:-0.16730284 14:-0.24363084 15:0.02610788 16:0.10789064 17:-0.133479 18:-0.10955236 19:0.14884528 20:0.17267676 21:-0.26915804 22:-0.4268398 23:-0.009675 24:-0.32121816 25:1.0894127 
-1 -1 0 1:-0.34587444 2:-0.09735964 3:0.4719994 4:0.11769016 5:0.32546108 6:0.1293484 7:-0.46181888 8:0.29409952 9:-0.22133568 10:0.3099108 11:0.05793808 12:-0.30033556 13:-0.43881792 14:0.12167148 15:0.11395488 16:-0.04998804 17:0.36579024 18:0.0962912 19:-0.10437024 20:0.08209824 21:0.19464932 22:-0.10076848 23:0.20821488 24:-0.42245412 25:0.37386044 
-0 -0.8921052780737132 0.3833588054935838 1:-0.2808496 2:-0.21656028 3:0.25566124 4:-0.32637572 5:0.00753656 6:-0.34883152 7:-0.33959128 8:0.13979664 9:-0.12078872 10:0.1499292 11:0.06484516 12:-0.27297448 13:-0.42674172 14:-0.07986428 15:0.39311708 16:-0.16204264 17:0.23337612 18:-0.10325372 19:-0.1017174 20:0.07075336 21:-0.1540118 22:0.011858 23:-0.06740352 24:-0.19876904 25:0.00370912 
-1 -1 1 1:-0.05732424 2:-0.07079592 3:0.01161956 4:0.12594716 5:0.10658692 6:-0.11753948 7:0.053266 8:-0.05833396 9:-0.06778732 10:0.33190624 11:0.21791296 12:-0.04954956 13:-0.09820916 14:0.1570378 15:0.18530804 16:0.03649 17:0.07581784 18:0.02714352 19:-0.2894622 20:-0.22043204 21:-0.01961944 22:0.0364946 23:-0.00211948 24:-0.1294212 25:0.05562136 
-0 -0.2388077222799058 0.411626606552108 1:-0.2912212 2:-0.41159844 3:-0.01175748 4:0.54440968 5:0.23046796 6:-0.19168056 7:-0.34284636 8:0.65618844 9:-0.01735456 10:0.31328396 11:-0.36053848 12:-0.047499 13:-0.76010492 14:-0.39640936 15:0.63914108 16:-0.19136976 17:-0.17728284 18:0.54400784 19:-0.10925352 20:0.09525816 21:-0.14249596 22:0.25530532 23:-0.05804648 24:-1.4594509 25:0.45634788 
-0.4507028072898508 -1 0 1:-0.73182716 2:0.2616666 3:0.02763364 4:-0.34806812 5:0.48466528 6:0.18336748 7:-0.55134448 8:0.01217424 9:-0.45377196 10:0.92791364 11:0.22138988 12:-0.7235918 13:-0.20071532 14:0.15056536 15:0.332268 16:-0.33075876 17:0.29448244 18:0.79095728 19:-0.34507072 20:-0.16652008 21:0.16247712 22:-0.2419474 23:0.13830488 24:-1.0133547 25:0.87938788 
-1 -1 1 1:0.1785556 2:-0.26162584 3:0.36389576 4:-0.13470636 5:-0.19184632 6:0.08920968 7:-0.02771964 8:-0.0187926 9:-0.0521922 10:0.0188386 11:-0.32389556 12:0.02968808 13:-0.24846668 14:-0.07346676 15:-0.06516604 16:0.25584316 17:-0.09379752 18:-0.06924512 19:-0.0077698 20:-0.08132752 21:-0.16922548 22:-0.0628978 23:0.28895816 24:-0.07568496 25:0.39747676 
-1 -0.7260416973032129 0.7221822868659705 1:-0.0676384 2:-0.02150004 3:0.00565732 4:0.23238268 5:0.06589376 6:-0.19490768 7:-0.23849628 8:0.2185844 9:-0.13946152 10:-0.07445444 11:0.0618188 12:0.0899246 13:-0.34852988 14:0.153474 15:-0.06341664 16:0.03528908 17:-0.06233672 18:0.07468812 19:-0.04776876 20:0.03363308 21:0.03431464 22:-0.40073352 23:0.3264698 24:-0.26969256 25:0.09727688 
-0.8378993281393263 -1 1 1:-0.06750212 2:0.00365192 3:-0.1296068 4:-0.18579348 5:-0.0276562 6:-0.17057812 7:0.01497 8:0.0332374 9:-0.1846524 10:-0.10508296 11:0.08493488 12:0.07558568 13:0.12941252 14:-0.25196064 15:0.2288104 16:0.18297264 17:-0.01953744 18:-0.10963376 19:0.17952044 20:0.01546032 21:-0.01106764 22:0.22893568 23:0.04376172 24:-0.123361 25:0.18606912 
-0.4032814183960599 -0 0 1:-0.13582348 2:-0.21578612 3:-0.0807184 4:-0.45071536 5:0.22243892 6:0.0234044 7:-0.48630928 8:-0.01207748 9:-0.16093916 10:0.18285104 11:0.10897292 12:-0.0507058 13:-0.04901792 14:0.10743464 15:0.12019364 16:-0.03873416 17:-0.0081188 18:0.28927684 19:-0.00144436 20:0.01775308 21:-0.01216792 22:-0.03499364 23:0.1740532 24:-0.28358344 25:0.46724016 
-0 -1 0 1:-0.07552804 2:0.02051552 3:-0.17676456 4:0.2054136 5:0.21346336 6:-0.12204352 7:-0.01412996 8:-0.11890492 9:0.04089896 10:0.38654028 11:0.25800172 12:0.04216444 13:-0.030098 14:0.02797524 15:0.1124304 16:0.04938988 17:-0.35108092 18:0.35976664 19:0.03059596 20:0.16596652 21:-0.06193684 22:0.22697624 23:0.19042724 24:-0.18611952 25:0.24649384 
-0.7034707826708916 -0 0 1:-0.51989856 2:0.16810964 3:-0.01701984 4:-0.53609952 5:0.34384612 6:-0.84510404 7:0.04171964 8:-0.65220152 9:-0.3471552 10:0.27326312 11:0.48817088 12:-0.04161584 13:-0.34601468 14:-0.07320596 15:-0.26190392 16:0.8739924 17:0.05865316 18:0.1283748 19:0.167909 20:0.511374 21:0.30782028 22:0.14125612 23:0.07555812 24:0.25099776 25:0.59398156 
-0 -1 0 1:0.28401816 2:0.189045 3:0.21760904 4:0.32515608 5:0.25745336 6:-0.18046256 7:-0.3330572 8:-0.32759752 9:-0.04578472 10:0.31530504 11:0.12259756 12:0.25585028 13:0.36102968 14:-0.1298238 15:0.28843512 16:0.3309882 17:-0.28393108 18:0.27982144 19:-0.01274324 20:0.005848 21:-0.21261788 22:0.38382928 23:0.0541466 24:-0.58292944 25:0.52037876 
-1 -1 0 1:-0.34539576 2:-0.18172948 3:-0.37932144 4:0.27221024 5:0.36664344 6:0.11373028 7:-1.1452288 8:0.29875772 9:-0.05526764 10:0.42227096 11:-0.18966792 12:0.32900588 13:0.5582 14:0.08841964 15:0.44720308 16:0.58673504 17:-0.08218548 18:-0.38510032 19:0.20464924 20:0.21877476 21:-0.48984104 22:-0.12506916 23:0.1396426 24:-0.11623424 25:0.97505872 
-0.9756375735427778 -1 1 1:0.3797976 2:-0.04734016 3:0.192669 4:0.23538464 5:0.0994218 6:-1.0767324 7:-0.08394944 8:-0.09822252 9:-0.39973664 10:0.26081916 11:0.59204096 12:0.28178688 13:-0.00667448 14:0.6555646 15:-0.16685956 16:-0.25457252 17:-0.41500564 18:0.79879236 19:0.41925072 20:0.45441952 21:0.25746248 22:-0.5712526 23:-0.08119948 24:-0.41582852 25:0.24493288 
-1 -1 0.9500067772233831 1:-0.19447488 2:-0.24254048 3:0.39147004 4:-0.1448892 5:-0.03190168 6:0.28845892 7:-0.03524676 8:0.11357288 9:-0.00949496 10:0.22670896 11:-0.06151504 12:0.17539204 13:-0.22719512 14:-0.15808024 15:0.0305458 16:0.22438668 17:-0.10984512 18:-0.25483628 19:-0.00823348 20:-0.08461048 21:-0.406051 22:-0.12103316 23:0.22790236 24:-0.40425104 25:0.60709216 
-1 -1 0 1:-0.48173208 2:-0.04826432 3:-0.08160708 4:-0.4507272 5:0.20966412 6:-0.18797324 7:-0.1393678 8:-0.24168348 9:-0.4763222 10:0.95029176 11:0.30135256 12:-0.5060682 13:0.0755006 14:0.00816048 15:0.04567104 16:0.06724384 17:-0.07218688 18:0.6087178 19:-0.22497776 20:0.1066064 21:-0.12194776 22:-0.050946 23:-0.05723388 24:-0.49041736 25:0.428678 
-1 -1 0 1:-0.15455088 2:0.04789732 3:-0.14481308 4:-0.13301988 5:0.09490044 6:-0.08964876 7:-0.23427164 8:-0.08551092 9:-0.26234008 10:0.50944164 11:0.07034936 12:0.00014588 13:0.15834028 14:0.11806044 15:0.33720552 16:0.09245704 17:0.00758008 18:0.4763636 19:-0.30412184 20:-5.46e-05 21:-0.02005384 22:0.02848208 23:0.17405104 24:-0.4034094 25:0.29444268 
-1 -1 1 1:0.12253828 2:-0.00020828 3:-0.15865976 4:0.08358412 5:0.01517092 6:-0.06821788 7:-0.0777566 8:0.05758184 9:0.0991112 10:-0.02780648 11:0.03245968 12:-0.03041544 13:-0.06049212 14:0.08642108 15:0.06433312 16:0.121552 17:0.03955756 18:-0.02494668 19:0.02891292 20:-0.03401704 21:0.00755336 22:-0.09278448 23:0.0184588 24:-0.11361164 25:-0.09089764 
-1 -1 -1 1:-0.07480256 2:0.03791048 3:-0.00289864 4:-0.04411464 5:0.11383076 6:0.00208896 7:-0.05004204 8:-0.00458776 9:0.00252936 10:0.13957808 11:0.01200584 12:-0.11325192 13:-0.02266624 14:0.04274588 15:-0.05145348 16:0.02608508 17:0.041683 18:0.01551256 19:0.008174 20:0.03370276 21:-0.00863672 22:-0.01571976 23:0.05189544 24:-0.046987 25:0.12965708 
-1 -1 -1 1:-0.03153008 2:-0.01946956 3:0.00616528 4:-0.12286392 5:-0.06641332 6:-0.00307016 7:-0.01869508 8:0.01612316 9:-0.11568688 10:0.08701868 11:0.02708556 12:0.04582428 13:0.03726416 14:-0.07205604 15:0.02565104 16:0.00418712 17:0.03716648 18:0.035215 19:0.01739424 20:-0.01608484 21:-0.03405636 22:-0.02172828 23:-0.04093088 24:-0.02863508 25:0.03533056 
-1 -1 -1 1:0.2692524 2:-0.09730256 3:0.35184716 4:-0.00211024 5:0.39535976 6:-0.31100048 7:-0.37841648 8:-0.11308772 9:-0.32962204 10:0.29223224 11:-0.03089356 12:0.19688592 13:0.23388068 14:-0.31490968 15:0.52316008 16:0.42557548 17:0.08193312 18:0.39162836 19:-0.08434972 20:0.03369592 21:-0.07118416 22:0.30371 23:0.01311968 24:-0.12872448 25:0.60960912 
-1 -1 -1 1:-0.09691072 2:-0.01866476 3:-0.01492344 4:-0.02133476 5:0.09215628 6:-0.05838972 7:0.10396552 8:-0.091781 9:-0.07096948 10:0.22015268 11:-0.0161614 12:0.08180084 13:-0.05214564 14:-0.05859692 15:0.15497992 16:-0.0284994 17:0.00155776 18:0.09768996 19:0.04097032 20:-0.20224284 21:0.04306012 22:0.19016436 23:0.00077956 24:-0.04606256 25:-0.06658724 
-1 -1 -1 1:0.09492228 2:-0.13880648 3:0.07571892 4:-0.00709188 5:0.16032888 6:-0.09394436 7:0.00759968 8:0.16465664 9:0.09393112 10:0.099033 11:-0.03446932 12:0.27468024 13:-0.08645036 14:-0.18773456 15:0.3808254 16:0.09518512 17:-0.18564508 18:0.05039096 19:0.01561724 20:-0.06675384 21:-0.11413748 22:0.13181176 23:-0.21822212 24:-0.20296052 25:0.11784064 
-1 -0 -1 1:-0.16271608 2:0.00949524 3:0.05987592 4:-0.14860068 5:-0.0107854 6:-0.09314892 7:-0.0515058 8:0.3166116 9:-0.02128536 10:0.14237104 11:-0.04911604 12:0.17626824 13:-0.36026952 14:-0.48242092 15:0.14846236 16:-0.15675608 17:0.07856352 18:-0.21431556 19:0.08905252 20:-0.28827084 21:-0.0106832 22:0.13280156 23:0.04603196 24:-0.13971008 25:0.1708178 
-1 -1 -1 1:-0.008553 2:-0.15142504 3:0.189029 4:-0.18944856 5:-0.06626564 6:-0.00114544 7:-0.15245512 8:0.00140716 9:-0.14025552 10:0.26934236 11:0.07515944 12:0.01205216 13:0.04061716 14:-0.14581104 15:0.11295096 16:0.12187528 17:-0.09944124 18:0.01854536 19:0.04098696 20:-0.02107424 21:-0.14043816 22:-0.09578432 23:-0.09043868 24:0.04909036 25:0.07341 
-0.3062271175308341 -1 -1 1:-0.09746608 2:-0.11153016 3:0.11220972 4:-0.11903592 5:-0.04768224 6:-0.09343832 7:0.06222548 8:0.04601244 9:-0.07282844 10:0.10836436 11:0.01280152 12:0.07810504 13:-0.02891768 14:-0.24750256 15:0.20840536 16:-0.11751084 17:0.05940432 18:-0.04627496 19:0.07111864 20:-0.22327436 21:-0.07345644 22:0.20648248 23:0.053314 24:-0.03039176 25:0.13346616 
-1 -1 -1 1:-0.16765836 2:0.33271256 3:-0.45673856 4:0.31566808 5:0.16662716 6:-0.1338276 7:-0.54871008 8:0.15849124 9:-0.18477924 10:0.16245624 11:-0.42069504 12:-0.40720448 13:-0.60074816 14:-0.03830644 15:0.05227232 16:-0.2692286 17:-0.16184436 18:0.1752544 19:0.41923716 20:0.43170332 21:0.15777128 22:-0.046777 23:0.22190712 24:-0.82495524 25:0.79362404 
-0 -1 -1 1:-0.1087896 2:-0.05754536 3:-0.02630144 4:-0.06119252 5:-0.0625252 6:-0.18772256 7:0.13205676 8:0.07356088 9:0.02997868 10:0.08147224 11:-0.08358252 12:0.01791976 13:-0.0898168 14:-0.19372632 15:0.10653256 16:-0.05678848 17:0.06286212 18:-0.03566504 19:0.13728948 20:-0.14963196 21:-0.03003268 22:0.19066624 23:0.0250978 24:-0.13938712 25:0.01997376 
-1 -1 -1 1:0.03342476 2:-0.2173004 3:0.01270948 4:-0.12082592 5:-0.12769656 6:-0.0522148 7:0.21146492 8:-0.12513132 9:0.04709212 10:0.2692654 11:-0.01014828 12:0.03268364 13:0.05827732 14:-0.1565926 15:0.1311202 16:-0.0988708 17:-0.03550272 18:-0.034526 19:-0.15249704 20:0.02254444 21:-0.01980672 22:-0.16957596 23:-0.183807 24:-0.06512548 25:-9.6e-05 
-0 -1 -0.4293182082039186 1:-0.20809388 2:-0.12261984 3:0.03962728 4:0.02391144 5:-0.07143976 6:-0.2584804 7:0.13194224 8:-0.00756376 9:-0.05252984 10:0.20311864 11:0.00216212 12:0.22803992 13:0.17538032 14:-0.2087464 15:0.169164 16:-0.04161576 17:0.01609384 18:-0.01005416 19:-0.11955404 20:-0.25636968 21:0.0471516 22:-0.20551776 23:-0.002075 24:0.17429836 25:-0.00987576 
-1 -1 -1 1:0.00220148 2:-0.015793 3:0.00287324 4:0.00120244 5:-0.00863872 6:0.01038676 7:-0.01538164 8:0.00053092 9:0.01073952 10:0.0070736 11:0.019909 12:0.00824944 13:-0.04174944 14:-0.01043164 15:-0.00342472 16:0.00626184 17:0.03993168 18:-0.0237554 19:-0.004182 20:0.00560168 21:0.0105314 22:-0.01950284 23:0.0155438 24:0.0012992 25:0.01223256 
-1 -1 -1 1:-0.19760732 2:0.04471396 3:-0.13324904 4:-0.21846388 5:-0.03036204 6:0.10323064 7:0.08937768 8:-0.17736976 9:-0.08903112 10:0.29216028 11:-0.06803636 12:0.03732896 13:0.13402972 14:-0.16100492 15:0.0918262 16:0.06611104 17:-0.0532438 18:-0.00413364 19:0.02424392 20:-0.10463608 21:-0.07396608 22:-0.0442068 23:-0.12194104 24:-0.20941464 25:0.12649248 
-1 -1 -1 1:-0.35826988 2:0.05793992 3:-0.14944348 4:-0.0919336 5:0.27976408 6:0.16603848 7:-0.64273352 8:0.31360012 9:-0.14836272 10:0.30437296 11:0.06681076 12:-0.09200652 13:-0.32539476 14:-0.36281488 15:-0.10052036 16:0.300159 17:0.3429978 18:0.08602464 19:-0.13758756 20:-0.19632416 21:0.27299776 22:-0.25599056 23:0.14050368 24:-0.44032964 25:0.4848676 
-1 -1 -1 1:-0.04186452 2:-0.01799104 3:0.00323352 4:-0.11020588 5:-0.07785252 6:0.00260584 7:-0.03808284 8:-0.02196736 9:-0.12061976 10:0.10560868 11:0.04746284 12:0.03758616 13:0.02783308 14:-0.04835452 15:0.02789156 16:0.02140232 17:0.07407024 18:0.03578024 19:0.02731652 20:-0.0056784 21:-0.04369032 22:-0.0408558 23:-0.029496 24:-0.03217648 25:0.0404628 
-0.3701728835121333 -0.4482229597653881 -1 1:0.00179908 2:0.00153832 3:-0.03463696 4:-0.09363036 5:-0.05588996 6:-0.13806336 7:0.09886612 8:0.12253116 9:-0.00525452 10:0.18042752 11:-0.07881888 12:0.09739384 13:-0.0676016 14:-0.15168128 15:0.16589344 16:-0.089571 17:0.05779988 18:-0.07199744 19:0.14095448 20:-0.23807496 21:-0.1879826 22:0.2246422 23:-0.00234764 24:-0.1166912 25:0.03490556 
-1 -1 -1 1:-1.0279817 2:0.50164448 3:0.40059248 4:-0.37951544 5:0.4098316 6:-0.40485796 7:0.21101984 8:-0.4982684 9:0.36284572 10:0.88717668 11:0.12613196 12:0.8861122 13:-0.10428288 14:-0.19859376 15:0.43391932 16:0.37378684 17:-0.3208052 18:0.4154044 19:0.2458482 20:0.55932376 21:0.39823216 22:-0.4064862 23:0.2946212 24:0.24844972 25:0.472943 
-1 -1 -1 1:-0.11365584 2:-0.21013884 3:0.00497584 4:-0.27644968 5:0.20367204 6:-0.02594976 7:-0.3099304 8:-0.00145784 9:-0.32060008 10:0.16755232 11:0.07044872 12:-0.32141752 13:0.00528504 14:0.0432156 15:0.20290588 16:-0.25119224 17:0.30363188 18:0.11400172 19:-0.12704736 20:-0.05281028 21:0.01147276 22:-0.29281716 23:0.00405496 24:-0.21553208 25:0.38992128 
-1 -1 -1 1:-0.19794916 2:-0.39324008 3:0.08983624 4:-0.38093148 5:0.04826476 6:0.21537608 7:-0.39189352 8:-0.24885 9:-0.36233452 10:0.35014752 11:0.23184012 12:-0.04765272 13:0.04038704 14:-0.08025756 15:0.16123296 16:-0.05686228 17:0.4108404 18:0.1144358 19:-0.3467982 20:-0.17822092 21:-0.0995498 22:-0.34237076 23:-0.00894096 24:-0.07832796 25:0.12843032 
-1 -1 -1 1:-0.05246852 2:0.03923724 3:0.14224052 4:0.04009172 5:0.30294316 6:0.025969 7:0.014512 8:-0.01749728 9:0.04270412 10:0.22706044 11:-0.03892496 12:0.25966116 13:0.00683708 14:-0.050084 15:0.09319468 16:0.0269414 17:-0.0484916 18:0.06183264 19:0.12297596 20:-0.08494092 21:0.00879268 22:0.02397384 23:-0.12859236 24:0.03689048 25:0.00664832 
-1 -1 -1 1:-0.12890044 2:0.36050904 3:-0.06851848 4:0.06189176 5:0.52757584 6:-0.65230412 7:-0.1552672 8:-0.15629204 9:-0.0981348 10:0.37870704 11:-0.26369012 12:0.18893052 13:-0.53297004 14:-0.00833552 15:-0.0547094 16:0.22020744 17:-0.53705004 18:0.70857148 19:-0.37793128 20:0.4890792 21:-0.07376416 22:-0.09347656 23:0.41777924 24:-0.71150604 25:0.5646316 
-1 -1 -1 1:0.00179908 2:0.00153832 3:-0.03463696 4:-0.09363036 5:-0.05588996 6:-0.13806336 7:0.09886612 8:0.12253116 9:-0.00525452 10:0.18042752 11:-0.07881888 12:0.09739384 13:-0.0676016 14:-0.15168128 15:0.16589344 16:-0.089571 17:0.05779988 18:-0.07199744 19:0.14095448 20:-0.23807496 21:-0.1879826 22:0.2246422 23:-0.00234764 24:-0.1166912 25:0.03490556 
-1 -1 -1 1:0.0030454 2:0.15271204 3:0.02525144 4:0.57731348 5:0.50101956 6:-0.00463248 7:-0.40734612 8:0.14702 9:0.19951904 10:0.17954628 11:0.27802944 12:0.37108344 13:-0.0055592 14:0.29044464 15:-0.2360778 16:-0.30923308 17:-0.1295398 18:0.45924008 19:0.28013244 20:0.27262076 21:-0.00565832 22:0.09752008 23:0.00041484 24:-0.75281808 25:0.18967212 
-1 -1 -1 1:-0.11874472 2:-0.47263836 3:-0.18341932 4:0.07214912 5:0.19148108 6:0.24237912 7:0.24056352 8:-0.32388932 9:0.04438876 10:0.33946228 11:-0.0360684 12:0.167348 13:0.21132308 14:0.00889008 15:0.07269832 16:0.17417472 17:0.08688368 18:0.32229168 19:-0.15756936 20:0.14909152 21:0.02777184 22:0.09046292 23:-0.13244388 24:0.05578324 25:-0.32006524 
-0.3962990192569685 -0 -0 1:0.87231068 2:-0.5526248 3:0.27831376 4:-0.34089004 5:0.27115348 6:-0.52471776 7:-0.10760392 8:0.28718836 9:-0.14023132 10:-0.48691308 11:-0.20417624 12:0.74701832 13:-0.90812148 14:-0.1268134 15:-0.32635252 16:-0.07390292 17:0.46091944 18:0.95186784 19:0.5127832 20:0.04488304 21:-0.0105522 22:-0.35777164 23:0.51307948 24:-0.56057824 25:0.72623428 
-1 -1 -1 1:-0.22163632 2:0.0554088 3:0.18702628 4:-0.54719256 5:0.64327884 6:-0.31391888 7:-0.43110124 8:-0.24795784 9:-0.28078548 10:0.62789876 11:-0.00030744 12:-0.17465848 13:-0.12565936 14:-0.40183316 15:0.19481348 16:-0.0899576 17:0.00743944 18:0.54280408 19:-0.09515484 20:0.52847432 21:-0.28842028 22:-0.45959372 23:0.0301992 24:-0.22917988 25:0.72407056 
-1 -1 -1 1:-0.18214112 2:-0.00202164 3:-0.04140676 4:-0.07000856 5:-0.05754244 6:0.05245848 7:0.15005936 8:-0.03871372 9:-0.07058408 10:0.17651108 11:0.07495496 12:0.09753104 13:0.07240892 14:-0.08338756 15:0.2079526 16:0.00719036 17:0.1649564 18:0.03204028 19:-0.09193664 20:-0.14662012 21:-0.14507832 22:0.09284496 23:-0.06006992 24:0.0545832 25:0.0580854 
-0.5622004769304815 -0.5772075684459618 -1 1:0.57925768 2:-0.42412588 3:-0.25807896 4:0.032214 5:0.60473344 6:-0.31845944 7:0.08481856 8:0.54199236 9:0.21741044 10:0.3107988 11:0.54114968 12:0.42539568 13:0.1654916 14:-0.53601544 15:0.49720524 16:0.66107576 17:0.02489336 18:0.00740088 19:-0.06156376 20:0.01823932 21:-0.02250908 22:0.15736788 23:0.12162824 24:-0.32692044 25:0.09075296 
-1 -1 -1 1:-0.05685772 2:-0.08074816 3:-0.0661946 4:0.09888596 5:-0.06374316 6:0.01085072 7:-0.03548452 8:-0.18318416 9:-0.06545484 10:0.25475344 11:-0.01517952 12:-0.1994868 13:-0.00637892 14:0.20578104 15:0.09026084 16:0.03947568 17:0.0465776 18:0.12045604 19:-0.08535032 20:-0.10793556 21:0.13819352 22:-0.00762736 23:-0.25963332 24:-0.07544724 25:-0.13887288 
-0 -1 -1 1:-0.1087896 2:-0.05754536 3:-0.02630144 4:-0.06119252 5:-0.0625252 6:-0.18772256 7:0.13205676 8:0.07356088 9:0.02997868 10:0.08147224 11:-0.08358252 12:0.01791976 13:-0.0898168 14:-0.19372632 15:0.10653256 16:-0.05678848 17:0.06286212 18:-0.03566504 19:0.13728948 20:-0.14963196 21:-0.03003268 22:0.19066624 23:0.0250978 24:-0.13938712 25:0.01997376 
-1 -0.9968189452606866 -1 1:0.00179908 2:0.00153832 3:-0.03463696 4:-0.09363036 5:-0.05588996 6:-0.13806336 7:0.09886612 8:0.12253116 9:-0.00525452 10:0.18042752 11:-0.07881888 12:0.09739384 13:-0.0676016 14:-0.15168128 15:0.16589344 16:-0.089571 17:0.05779988 18:-0.07199744 19:0.14095448 20:-0.23807496 21:-0.1879826 22:0.2246422 23:-0.00234764 24:-0.1166912 25:0.03490556 
-1 -1 -1 1:-0.10331516 2:-0.0854182 3:-0.00377452 4:-0.19036416 5:0.15064804 6:0.17123364 7:0.0276122 8:-0.16317644 9:-0.09333476 10:0.260626 11:0.02177144 12:0.17645712 13:0.23644292 14:-0.10319312 15:0.1015518 16:0.0357326 17:-0.03176864 18:-0.00338972 19:-0.0180444 20:0.00182492 21:-0.11369852 22:0.08877584 23:-0.08375388 24:-0.08482236 25:0.1678946 
-1 -1 -1 1:0.13407832 2:-0.15932428 3:-0.1062266 4:-0.02142228 5:-0.0530278 6:-0.2372912 7:-0.17147912 8:-0.13270152 9:0.15705056 10:0.31881568 11:-0.048213 12:0.45582284 13:0.13542152 14:0.04466984 15:0.08052108 16:0.23487616 17:-0.35219092 18:-0.08133636 19:0.04637172 20:-0.21133124 21:-0.33241856 22:0.4027952 23:0.2277184 24:-0.1806486 25:0.08536396 
-1 -1 -1 1:-0.06066492 2:-0.04252852 3:-0.02057408 4:-0.07729184 5:-0.01275816 6:0.01331544 7:0.0734116 8:0.04434688 9:-0.04564372 10:0.14545356 11:0.02660732 12:0.03569304 13:0.00942764 14:-0.10609372 15:0.07981096 16:-0.03420284 17:0.0746358 18:0.0548104 19:-0.0178364 20:-0.06281056 21:-0.06458396 22:0.07228052 23:0.03207364 24:0.00560296 25:0.0071646 
