svm_type c_svc
kernel_type linear
nr_class 4
total_sv 276
rho -1.01751 -0.724475 -1.2439 0.268357 -0.828962 -0.702281
label 4 3 1 2
nr_sv 48 87 82 59
SV
1 1 1 1:-0.5954004 2:-0.16412007 3:-0.1853144 4:-0.0281818 5:0.075664933 6:-0.13389687 7:-0.017586733 8:0.030789733 9:-0.0435754 10:-0.0447228 11:-0.0033618 12:-0.2152778 13:-0.21079193 14:0.24669333 15:-0.11400767 
1 1 1 1:-0.41930913 2:-0.18307947 3:0.062510933 4:0.2061672 5:0.0192104 6:0.0291268 7:-0.337855 8:0.18247307 9:0.027557733 10:0.0152186 11:-0.0072719333 12:-0.26848433 13:-0.0758238 14:-0.080185133 15:-0.045106333 
1 0 0 1:-0.021511933 2:0.049357333 3:0.20793327 4:0.0829588 5:0.011720333 6:-0.055738533 7:-0.023058533 8:-0.0233186 9:-0.0786176 10:0.015296133 11:0.063622667 12:0.10280373 13:-0.017470133 14:0.14938347 15:-0.12273667 
1 1 1 1:-0.0627684 2:0.21194293 3:0.36003213 4:0.11124513 5:-0.049383467 6:-0.2893242 7:-0.0323192 8:0.060379467 9:0.0401522 10:0.1546228 11:-0.069436733 12:-0.2274846 13:-0.13924033 14:0.4424332 15:0.037094733 
1 1 0 1:-0.0653606 2:-0.11367393 3:0.29459167 4:0.044585533 5:-0.022626733 6:-0.2549012 7:0.014303667 8:0.10837027 9:0.0581414 10:-0.0071434 11:0.22404627 12:-0.0084028667 13:-0.069484733 14:0.28374887 15:-0.3123466 
1 0 1 1:-0.16278013 2:0.026931733 3:0.3649068 4:-0.1867978 5:-0.13741807 6:0.0019336667 7:-0.14011967 8:0.030855867 9:-0.2333164 10:-0.035010867 11:0.11245313 12:0.18616407 13:0.018567733 14:0.40363753 15:-0.4920732 
1 1 1 1:0.047910333 2:-0.0015481333 3:0.19117333 4:0.23487987 5:-0.046262267 6:-0.29487167 7:-0.25735467 8:0.090948867 9:-0.17449827 10:0.094984533 11:-0.16811973 12:0.0638868 13:0.21803273 14:0.30465467 15:0.15846853 
1 1 1 1:0.15495133 2:-0.077311933 3:-0.21101747 4:0.3470574 5:0.079264467 6:-0.25740513 7:0.1088186 8:0.2456656 9:-0.1188494 10:0.17021193 11:-0.1463338 12:0.24009687 13:-0.14174287 14:0.1694778 15:-0.0088207333 
1 1 1 1:-0.39397567 2:-0.0963868 3:0.40580933 4:1.4228643 5:1.0111695 6:-0.46944053 7:-1.4052264 8:0.1441154 9:0.8712516 10:-0.4197092 11:-0.95288927 12:0.91389613 13:0.29149273 14:0.96950513 15:0.48860733 
1 1 1 1:-0.78913207 2:0.38291753 3:0.35552407 4:0.338028 5:-0.063230867 6:-0.8639628 7:0.012049733 8:-0.031206333 9:-0.65239087 10:0.21740833 11:0.086300467 12:0.5262558 13:-0.37410807 14:0.17464673 15:-0.29466627 
0 1 0 1:0.0298508 2:-0.16604407 3:0.41104513 4:0.23261307 5:-0.20559987 6:-0.13130693 7:0.32001833 8:-0.0057890667 9:0.2449412 10:-0.11806167 11:-0.02262 12:-0.085662533 13:0.11373707 14:0.32839507 15:-0.080833667 
1 1 1 1:-0.45281793 2:0.0869984 3:0.086232 4:0.79708193 5:0.0067507333 6:-0.3422658 7:0.2855124 8:0.018701 9:-0.51891653 10:0.3356372 11:0.38803647 12:0.43604207 13:-0.28662913 14:-0.054556067 15:-0.047304467 
1 1 1 1:0.22599947 2:-0.40646853 3:0.17645173 4:0.30773253 5:-0.64235393 6:-0.24879 7:-0.49403553 8:0.69888507 9:-0.083496733 10:-0.011447067 11:-0.28651413 12:0.28013227 13:0.39732927 14:0.27874553 15:-0.35482413 
1 1 1 1:-0.7904472 2:0.5861386 3:-0.21452687 4:0.7462656 5:0.23620993 6:-0.38214527 7:0.3774266 8:0.028635533 9:0.14087547 10:0.38537367 11:0.43484213 12:1.1738638 13:-0.13699113 14:0.0028203333 15:-0.9070182 
1 0.6478524702622079 0 1:-0.053195867 2:-0.018681 3:0.3511448 4:0.16629567 5:0.099525067 6:-0.21341887 7:0.032615733 8:0.052883267 9:0.047936933 10:0.060694533 11:0.2324772 12:-0.00057306667 13:-0.0078172667 14:0.22110707 15:-0.27360807 
0.01835713886403296 1 0 1:0.095128667 2:-0.1180978 3:0.54310273 4:0.18343927 5:-0.29484847 6:-0.23667593 7:0.17731567 8:-0.019682867 9:-0.065929733 10:-0.0051975333 11:-0.062088 12:0.0611432 13:0.0011509333 14:0.36492867 15:0.015728867 
0.3163318543080271 1 1 1:-0.41643553 2:-0.2576348 3:-0.32987747 4:1.1873695 5:-0.3789204 6:-0.2931202 7:0.69662753 8:0.0764194 9:0.44991667 10:0.0615636 11:0.4213778 12:0.3362692 13:0.095478667 14:0.24486233 15:-0.63106387 
1 1 0.3734492146967544 1:0.2173462 2:0.2413574 3:-0.21171433 4:0.1751724 5:-0.61573747 6:-0.84809007 7:0.060342933 8:1.7183888 9:0.12236913 10:0.24260807 11:0.30704307 12:-0.063456067 13:-0.025107067 14:0.6581614 15:-0.59911907 
0 1 0 1:-0.13107213 2:0.17193913 3:0.15509873 4:-0.26815873 5:-0.18668693 6:-0.20943527 7:-0.064058733 8:0.3077958 9:0.080868867 10:0.086855 11:-0.046589533 12:0.09868 13:0.074184467 14:-0.3785534 15:-0.22132427 
1 1 1 1:-0.070713 2:-0.0078727333 3:0.11099667 4:1.9585943 5:0.85804273 6:-0.76848207 7:-0.40594533 8:0.1951388 9:-0.28989627 10:0.067497467 11:0.61686753 12:1.22122 13:-0.28689887 14:0.26453167 15:0.2890604 
1 1 0 1:-0.0346706 2:0.1268366 3:0.26416833 4:-0.00098013333 5:0.13458647 6:-0.23577493 7:0.0393028 8:0.34264067 9:-0.074304733 10:-0.11031253 11:0.193827 12:-0.10647767 13:-0.42380327 14:0.4261824 15:0.13149293 
1 1 1 1:-0.52798733 2:-0.0013123333 3:-0.0797482 4:0.3644916 5:0.14452533 6:-0.091235733 7:-0.010909067 8:-0.12934813 9:0.016027067 10:0.1550918 11:0.1621546 12:0.35499433 13:0.1436804 14:0.14123173 15:-0.27870113 
0.6201947986269253 0.776420045533735 1 1:0.37753273 2:0.4242276 3:-1.0009605 4:2.0071537 5:1.5769059 6:-0.10249233 7:0.17315213 8:0.3602668 9:0.059855267 10:-1.0419891 11:-0.12927467 12:0.35224487 13:-0.48618787 14:-0.075813267 15:-0.34050693 
0.7062089062283251 0 1 1:-0.8081758 2:0.8811584 3:-1.1544325 4:0.48043493 5:0.88813533 6:0.12455973 7:0.718107 8:0.033696533 9:0.32839333 10:0.31904887 11:0.31768413 12:-0.10673553 13:0.068087533 14:-0.27338793 15:-1.2069959 
0 1 0 1:0.12869093 2:-0.1937418 3:0.50308453 4:0.1913006 5:-0.3554472 6:-0.1160856 7:0.18799073 8:0.113842 9:0.171989 10:0.0060862667 11:-0.023631267 12:-0.0453424 13:-0.10296633 14:0.33364987 15:-0.14412993 
1 1 0 1:-0.035740667 2:0.021789267 3:0.047336867 4:0.012865467 5:0.016226933 6:-0.0222346 7:0.0148728 8:0.071763267 9:0.027711067 10:-0.0036512667 11:-0.015796 12:-0.0046938667 13:0.021010067 14:-0.020374533 15:-0.015720067 
1 0 0 1:-0.021511933 2:0.049357333 3:0.20793327 4:0.0829588 5:0.011720333 6:-0.055738533 7:-0.023058533 8:-0.0233186 9:-0.0786176 10:0.015296133 11:0.063622667 12:0.10280373 13:-0.017470133 14:0.14938347 15:-0.12273667 
1 1 1 1:0.36097533 2:-0.24544553 3:0.1174614 4:0.81530687 5:0.26480813 6:-0.87905447 7:-0.14935273 8:0.40885607 9:-0.75189013 10:0.044606867 11:-0.15935633 12:0.43360607 13:0.020345533 14:0.46910673 15:-0.4903308 
1 1 0 1:0.28660673 2:-0.4978684 3:-0.77933893 4:1.3982791 5:0.35790653 6:-0.56126467 7:-0.11753707 8:0.91627247 9:0.046546267 10:-0.6279988 11:0.40616227 12:-0.22023933 13:-0.1679288 14:0.075087133 15:-0.5219186 
0.0773918874747852 1 0 1:0.095128667 2:-0.1180978 3:0.54310273 4:0.18343927 5:-0.29484847 6:-0.23667593 7:0.17731567 8:-0.019682867 9:-0.065929733 10:-0.0051975333 11:-0.062088 12:0.0611432 13:0.0011509333 14:0.36492867 15:0.015728867 
1 1 1 1:-0.090925067 2:-0.13865167 3:0.35514133 4:0.26799533 5:0.30569933 6:-0.087103333 7:-0.1441796 8:0.22038627 9:0.0035401333 10:0.252356 11:0.18041907 12:0.036713467 13:-0.082058 14:0.49865087 15:-0.19944847 
1 1 0.8179259708292506 1:-0.054568467 2:0.046379067 3:0.20096473 4:0.1045982 5:-0.11542387 6:-0.1293994 7:0.014951533 8:0.0025195333 9:0.068675333 10:0.057391667 11:0.0284932 12:-0.0024903333 13:-0.0182958 14:0.24293773 15:0.0090527333 
1 1 0.9264143208268766 1:-0.054568467 2:0.046379067 3:0.20096473 4:0.1045982 5:-0.11542387 6:-0.1293994 7:0.014951533 8:0.0025195333 9:0.068675333 10:0.057391667 11:0.0284932 12:-0.0024903333 13:-0.0182958 14:0.24293773 15:0.0090527333 
1 1 1 1:-0.33122873 2:-0.165051 3:0.32735527 4:1.4931967 5:-0.12376513 6:-0.36456987 7:0.42780247 8:0.0307754 9:-0.3474248 10:0.052222667 11:0.3778278 12:0.82605167 13:-0.055823933 14:0.43442767 15:-0.035755133 
1 1 1 1:-0.15185067 2:-0.19736647 3:0.18290247 4:0.11269773 5:-0.124651 6:-0.1173526 7:-0.0038762 8:0.15712887 9:0.1730796 10:-0.075756133 11:-0.036991333 12:-0.10204233 13:-0.058059867 14:0.44822573 15:0.073364667 
0 1 0.1534838936237956 1:0.016730933 2:-0.38625727 3:-0.50761687 4:1.9428634 5:0.48651093 6:0.3848644 7:0.86540127 8:0.4762586 9:0.51260313 10:0.1234722 11:0.28299093 12:0.6804604 13:0.12535373 14:-0.42791027 15:-0.51907813 
1 1 1 1:0.39642567 2:-0.1657976 3:-0.12587033 4:0.17068487 5:-0.28304933 6:-0.52355487 7:0.017842133 8:0.21833567 9:0.041964467 10:0.0013548 11:-0.0469144 12:0.18768847 13:-0.097410467 14:0.5609912 15:-0.2340126 
0 0 0.6434404315645093 1:1.4220239 2:0.2029018 3:-0.0996506 4:0.23694807 5:0.39742607 6:-0.43869733 7:1.4727352 8:1.0230734 9:0.9250906 10:-0.88549013 11:-0.21451547 12:2.0205579 13:1.0187394 14:-0.2936962 15:-0.487531 
0.3088626014887286 1 0 1:0.12869093 2:-0.1937418 3:0.50308453 4:0.1913006 5:-0.3554472 6:-0.1160856 7:0.18799073 8:0.113842 9:0.171989 10:0.0060862667 11:-0.023631267 12:-0.0453424 13:-0.10296633 14:0.33364987 15:-0.14412993 
1 1 0 1:0.1520614 2:-0.74617933 3:-0.755849 4:1.7465247 5:0.71699147 6:-0.7729868 7:-0.2098422 8:0.61255973 9:0.7920486 10:-0.52934707 11:0.56982253 12:0.854364 13:0.32909507 14:-0.11655893 15:0.19442867 
1 1 1 1:0.13556587 2:0.33876013 3:-1.1647608 4:0.9083222 5:0.089582733 6:0.11954127 7:-0.347818 8:0.49389133 9:0.1722772 10:-0.52355853 11:-0.34380093 12:0.81301847 13:-0.34772633 14:-0.10262847 15:-0.222489 
1 1 1 1:-0.091057133 2:0.063247533 3:0.2126478 4:0.11315073 5:0.038529067 6:-0.069997733 7:-0.021835533 8:0.017770667 9:-0.085116333 10:0.010425133 11:0.011470933 12:0.10856247 13:0.0025701333 14:0.10899613 15:-0.10782553 
0 0.7588184234717374 0 1:0.0298508 2:-0.16604407 3:0.41104513 4:0.23261307 5:-0.20559987 6:-0.13130693 7:0.32001833 8:-0.0057890667 9:0.2449412 10:-0.11806167 11:-0.02262 12:-0.085662533 13:0.11373707 14:0.32839507 15:-0.080833667 
1 1 1 1:-0.044166133 2:-0.17183353 3:0.24278193 4:0.1109462 5:0.079269267 6:-0.27806 7:-0.1366036 8:-0.0080369333 9:-0.33980033 10:0.062567267 11:-0.047557 12:0.35755367 13:-0.17430007 14:0.3216512 15:-0.180525 
1 1 1 1:-0.30070507 2:-0.15773233 3:-0.26918587 4:0.36316213 5:-0.24495653 6:-0.68797573 7:0.11314387 8:0.4211482 9:0.065172067 10:0.077700267 11:0.3278646 12:0.2061962 13:-0.50884233 14:0.4788758 15:0.19527727 
1 1 1 1:0.031159867 2:0.0852906 3:0.1818042 4:0.17366447 5:0.070697133 6:-0.12791407 7:-0.32348773 8:0.26160927 9:-0.25333533 10:0.3050786 11:0.047499067 12:0.17256047 13:-0.018589467 14:0.51344567 15:-0.0017568 
1 1 1 1:-0.398203 2:0.10852733 3:-0.44172533 4:-0.24186887 5:0.0872688 6:-0.30126533 7:-0.44213027 8:0.3317946 9:0.1169242 10:0.1669734 11:-0.2825334 12:-0.1984958 13:0.023135067 14:0.78924047 15:0.0320408 
1 1 1 1:-0.18720133 2:-0.026923 3:0.027237467 4:0.2682718 5:0.0632232 6:0.030601267 7:-0.037678533 8:0.040914133 9:0.056490733 10:0.16899447 11:0.052833867 12:0.174052 13:0.017268133 14:0.032915933 15:0.015432 
-1 1 1 1:-0.14176753 2:-0.24453907 3:-0.78862153 4:1.5974976 5:0.33268873 6:-0.018621667 7:0.57851627 8:0.4849322 9:-0.4997594 10:0.13066107 11:-0.43431807 12:0.35790273 13:-0.3959238 14:-0.25074507 15:-0.3583804 
-1 0 0 1:-0.13197447 2:0.11564907 3:0.28690233 4:-0.0626086 5:-0.35045713 6:-0.32947907 7:-0.20275747 8:0.23972947 9:-0.0177162 10:0.12302907 11:0.0805604 12:0.036659867 13:-0.33884727 14:0.64436547 15:-0.4994818 
-0.6943950220233487 1 0 1:0.762848 2:-0.50809047 3:0.066835533 4:0.86552487 5:0.0142524 6:-0.1032566 7:-0.91679853 8:0.76953307 9:-0.4645068 10:0.0774926 11:-0.63323607 12:0.4047562 13:0.28969413 14:0.39017027 15:0.3074648 
-1 1 0.7699723482651427 1:-1.0883663 2:-0.7683038 3:-1.3805971 4:1.1726909 5:-0.236925 6:-1.3105615 7:0.061042467 8:1.4058809 9:0.44411047 10:-0.85388853 11:0.45829627 12:-1.3965779 13:-0.12073707 14:0.1329824 15:-1.2238005 
-0 0.05867685068262239 1 1:-1.0516619 2:-0.3396938 3:0.26062513 4:-0.073697667 5:0.46608787 6:-0.4467116 7:-0.34304527 8:0.031382933 9:0.35321953 10:0.80798427 11:-0.12450647 12:-0.0098960667 13:0.011970467 14:0.26457327 15:-0.6749976 
-1 1 1 1:-0.089112467 2:0.042989933 3:0.0568736 4:0.408529 5:0.292537 6:-0.51312513 7:-0.30907087 8:0.039947667 9:0.015449333 10:-0.017997867 11:0.098253933 12:0.16736853 13:-0.17082653 14:0.27131513 15:0.0180516 
-1 1 1 1:-0.27109673 2:-0.11013967 3:0.1239178 4:-0.11807353 5:0.15978967 6:-0.17068173 7:-0.00094573333 8:0.0240408 9:0.037550733 10:-0.0073236 11:0.26990907 12:-0.125822 13:0.12886687 14:0.2120566 15:-0.23725933 
-0 0 1 1:-0.19222153 2:-0.17341447 3:0.21091013 4:0.33492047 5:0.4737352 6:-0.32569013 7:-0.38603233 8:0.3501608 9:-0.35388267 10:0.43990827 11:-0.32061313 12:0.5484842 13:-0.2411086 14:1.014954 15:-0.12344767 
-0 1 0 1:0.44016247 2:0.15113027 3:0.27829027 4:0.1762308 5:0.1837442 6:-0.40725953 7:-0.72233647 8:0.5589562 9:-0.4198416 10:0.51725027 11:-0.4536276 12:0.0758768 13:-0.34621727 14:0.634356 15:0.31277427 
-1 1 1 1:-0.50383187 2:-0.32616187 3:-0.53857 4:0.75609333 5:-0.067499467 6:-0.64911687 7:-4.3733333e-05 8:0.547558 9:0.38802067 10:-0.4164028 11:0.29612027 12:-0.34646507 13:0.084337867 14:-0.354161 15:-0.37275973 
-0 1 1 1:-0.020519 2:-0.10917727 3:0.15784287 4:0.51633867 5:0.7449968 6:-0.1511774 7:-0.5126496 8:0.35070693 9:-0.55691047 10:0.22489793 11:-0.10548447 12:0.21482033 13:-0.0696694 14:0.39362013 15:-0.10016107 
-1 1 0 1:-0.24429187 2:-0.13555433 3:0.16579207 4:-0.10489 5:-0.16134613 6:-0.18013453 7:0.14498087 8:0.36159327 9:-0.024046133 10:-0.0063036667 11:0.2600512 12:-0.1536076 13:-0.13231667 14:0.474698 15:-0.44103213 
-0 1 0 1:-1.479226 2:-0.94388367 3:-0.43608227 4:2.5288057 5:0.58042907 6:-1.374531 7:-0.62977653 8:0.35261593 9:0.6021588 10:-0.49945607 11:0.58637633 12:0.69790227 13:0.23553 14:-0.3731408 15:0.22175573 
-1 1 1 1:-0.37466013 2:0.3887278 3:-0.0229902 4:-0.062928267 5:-0.0163142 6:-0.27647493 7:0.062231067 8:-0.18037607 9:0.28979673 10:-0.117229 11:-0.3130164 12:0.51820973 13:-0.14522473 14:0.019789333 15:-0.098019733 
-0 1 0.8225017484565054 1:0.30275753 2:0.0546718 3:0.34390727 4:0.51303933 5:-0.046377267 6:-0.30391467 7:-1.2286814 8:0.7173694 9:-0.10384427 10:0.50866007 11:-0.15669593 12:0.91542153 13:-0.033047933 14:1.1117847 15:0.031943467 
-1 1 1 1:-0.30463513 2:0.14105247 3:0.5257988 4:0.2898386 5:-0.060188 6:-0.22159273 7:0.319888 8:-0.23791153 9:0.36309187 10:0.0474628 11:0.34491527 12:0.702279 13:-0.1056616 14:0.2638142 15:-0.0084924667 
-0 1 1 1:-0.642557 2:0.3247044 3:0.0046692 4:-0.25171553 5:0.2681346 6:-0.68098633 7:-0.058179867 8:0.35953273 9:0.39158853 10:-0.0628162 11:-0.113202 12:1.0423347 13:0.85867213 14:0.12374147 15:-0.22637167 
-0 1 1 1:-0.47516733 2:-0.3582552 3:-1.751423 4:2.8911969 5:0.5242108 6:-0.90939247 7:1.0872388 8:0.336122 9:-0.17172247 10:0.12316933 11:-0.10465213 12:1.309879 13:-0.76922713 14:1.1015681 15:-0.90313827 
-0 1 1 1:-0.6985934 2:0.4321532 3:0.12184993 4:1.7134081 5:0.7801144 6:0.60078173 7:0.21922667 8:0.3286422 9:-0.66813627 10:0.7556326 11:-0.23773487 12:0.5509762 13:-0.30199467 14:0.41861087 15:-0.0244742 
-0 0 1 1:-0.77340073 2:0.32405293 3:0.098255133 4:0.26934333 5:-0.22379733 6:-0.3410884 7:-0.038875733 8:-0.0075370667 9:-0.014084067 10:0.5365998 11:-0.24102087 12:0.3041054 13:-0.25624033 14:0.4232098 15:-0.14990787 
-0.2230079666819846 1 1 1:-0.57311707 2:0.630319 3:0.222957 4:-0.12922947 5:-0.93387687 6:-0.23333807 7:-0.16314193 8:0.1106134 9:-0.31910413 10:0.2141308 11:-0.40794133 12:0.9593088 13:0.0796932 14:0.142745 15:-0.14222833 
-1 1 1 1:-0.33950327 2:-0.17204747 3:-0.37686453 4:0.80515747 5:0.1525696 6:-0.042693 7:0.19933973 8:0.2439156 9:0.11262693 10:0.018912333 11:0.31049893 12:0.37941253 13:-0.1983682 14:0.1481092 15:-0.22977267 
-1 1 0.8166897214139894 1:-0.10110887 2:-0.3272492 3:0.11675853 4:0.0054959333 5:0.14251727 6:-0.19856307 7:-0.41720153 8:0.90950227 9:0.3264846 10:-0.8880132 11:0.2407478 12:-0.078402333 13:-0.46079027 14:0.50391867 15:0.099220267 
-0 0 1 1:-0.80413973 2:0.73703273 3:0.0676676 4:1.7447247 5:0.9508198 6:0.14547507 7:-0.27955613 8:0.0788464 9:-0.10439767 10:0.59902813 11:0.38630767 12:1.1556899 13:0.45502567 14:1.2687781 15:-0.5252418 
-1 1 1 1:-0.3523656 2:0.27884453 3:0.0994054 4:0.7429948 5:0.11348413 6:-0.0065115333 7:-0.40422487 8:0.099573 9:-0.407215 10:-0.27387153 11:0.1528232 12:0.9918202 13:0.031049733 14:0.10046133 15:-0.2026134 
-0 1 0 1:-0.46330053 2:-0.4587956 3:-0.18058833 4:0.6305056 5:0.20877113 6:-0.68773107 7:-0.54904853 8:0.221244 9:0.84993047 10:-0.39382227 11:0.51544013 12:0.30536873 13:-0.2528802 14:0.99485367 15:0.083798867 
-1 1 0.2964216473768196 1:-0.28071833 2:-0.1916606 3:-0.101256 4:-0.0061827333 5:0.0421108 6:-0.055861733 7:-0.0388944 8:0.13027367 9:-0.020356267 10:0.013708 11:0.13590993 12:-0.1579906 13:0.020872933 14:0.1492694 15:-0.1197826 
-1 0 1 1:-0.3338674 2:1.0368937 3:-0.20730693 4:0.916926 5:0.38180153 6:0.17409687 7:0.18661533 8:0.27672707 9:-0.306503 10:0.65005467 11:0.4395112 12:0.6849126 13:0.24914073 14:0.50717827 15:-1.2043325 
-1 1 1 1:-0.3408822 2:0.037494933 3:-0.0436466 4:0.0060092 5:0.0504928 6:-0.090385467 7:0.028749933 8:-0.067093533 9:-0.0150262 10:-0.077570667 11:-0.18309647 12:-0.039454 13:-0.2166288 14:0.096146667 15:-0.0076473333 
-0 1 0 1:-0.29678287 2:-0.035835333 3:-0.00096526667 4:0.4562582 5:0.2216088 6:-0.37510667 7:-0.23644687 8:0.1944114 9:-0.4802434 10:0.3194806 11:-0.091898067 12:0.18141233 13:-0.36661787 14:0.75765927 15:0.12165727 
-0 1 1 1:-0.22579293 2:0.2395672 3:-0.33886793 4:0.4302264 5:-0.25000713 6:-0.6002886 7:-0.27342793 8:0.41878153 9:-0.29201327 10:0.40771927 11:-0.2359666 12:0.4299754 13:-0.12888447 14:0.91158307 15:0.29312547 
-0 1 0 1:0.92727287 2:-0.72897313 3:0.19233527 4:1.2343996 5:0.12090947 6:-0.051163333 7:0.21820487 8:0.84586707 9:0.28724793 10:0.54278187 11:-0.8244686 12:0.56876247 13:-0.564007 14:1.0320271 15:-0.1684386 
-1 1 0 1:0.049824467 2:0.0183276 3:0.38808987 4:0.24716733 5:0.0316526 6:-0.36653453 7:-0.21549967 8:-0.0077450667 9:-0.1902298 10:0.1813558 11:-0.072993 12:0.2315596 13:0.12834827 14:0.5008154 15:-0.23184853 
-1 1 0 1:-0.13296687 2:-0.12613093 3:-0.23832533 4:0.7508512 5:0.010075467 6:-0.26776173 7:-0.19689167 8:0.19076887 9:-0.16587087 10:0.21608427 11:-0.11416993 12:0.22535573 13:-0.45056873 14:0.082844267 15:0.15973527 
-1 1 0 1:-0.070691067 2:0.028308267 3:0.050257467 4:0.15816227 5:0.046583667 6:-0.1756172 7:-0.150274 8:0.0956328 9:-0.1586434 10:0.1905618 11:-0.080706867 12:0.0325886 13:-0.2122588 14:0.4838976 15:0.038280467 
-0.6450179323986793 1 0 1:-0.027166733 2:-0.1075036 3:0.174277 4:0.3235568 5:0.27056293 6:-0.0607888 7:-0.27218433 8:0.26017447 9:-0.16074113 10:0.3714784 11:-0.0417276 12:0.0655728 13:-0.224426 14:0.65522427 15:-0.0019292667 
-0 0 1 1:-0.66219367 2:0.479957 3:0.4894948 4:0.66544047 5:0.20943067 6:-0.60446073 7:0.079139467 8:0.0129536 9:0.51149093 10:0.0426348 11:-0.23009753 12:1.2187646 13:-0.41919567 14:0.66031627 15:-0.29161707 
-1 1 1 1:-0.19676707 2:0.5260576 3:0.27614567 4:0.37157493 5:-0.12113167 6:-0.28814273 7:0.1435116 8:-0.2724716 9:0.12256053 10:0.041672533 11:-0.0054794667 12:0.86058547 13:-0.14782373 14:0.2943298 15:0.0043628 
-0 0 1 1:-0.16646193 2:-0.0140008 3:0.14312693 4:0.078486733 5:0.24876293 6:-0.34513813 7:-0.32943513 8:0.1521316 9:-0.2006354 10:0.2683778 11:-0.2476 12:0.3095862 13:-0.20168587 14:1.2318859 15:-0.4863498 
-0 1 0 1:0.10233033 2:-0.38060507 3:0.075255 4:1.1949855 5:-0.10333267 6:-1.204864 7:-0.55730953 8:0.38751073 9:-0.89906593 10:0.49104627 11:-0.1168628 12:0.82883587 13:-0.4319168 14:1.1892242 15:-0.53786987 
-0 1 0.5241221368603908 1:-0.82618587 2:-0.43997407 3:-0.25971707 4:1.2485317 5:0.16020073 6:-1.0300343 7:0.038560733 8:0.0016726667 9:-0.36535893 10:0.12932627 11:0.64833713 12:0.85870007 13:-0.39871813 14:0.48060473 15:-0.1917082 
-0 0 0.2042704108588085 1:-0.417785 2:0.17953393 3:0.016231667 4:0.80960367 5:0.72925907 6:-0.48062547 7:-0.3030526 8:0.11202413 9:-0.65025893 10:0.38179187 11:-0.019301933 12:0.2396834 13:-0.0340066 14:0.8721584 15:-0.071417067 
-0.4898443019537542 1 1 1:0.45324413 2:0.4382082 3:0.1423724 4:1.5601171 5:0.71602373 6:-0.52349947 7:-0.3971608 8:0.17413613 9:-0.2200036 10:0.36129127 11:-0.2206242 12:0.6451998 13:-0.27268267 14:0.82045967 15:0.1524466 
-1 1 1 1:-0.00011293333 2:-0.16941573 3:0.0205714 4:0.367184 5:0.33815387 6:-0.37702833 7:-0.45263727 8:0.066697867 9:-0.034440067 10:0.01832 11:-0.031859333 12:0.40694433 13:0.2578588 14:0.42423827 15:-0.30110293 
-1 1 0 1:0.097520267 2:0.33124427 3:0.0209854 4:0.18818607 5:-0.26301113 6:-0.0454516 7:-0.093210333 8:0.24288433 9:-0.34594253 10:0.1889016 11:-0.34738753 12:0.12933993 13:-0.17777507 14:0.56947007 15:0.215617 
-0.8570884703159958 1 1 1:-0.44102853 2:0.28331673 3:-0.0053862667 4:0.3360942 5:0.24010387 6:-0.16812293 7:0.28293247 8:0.1229416 9:-0.41776087 10:0.6736734 11:-0.10421967 12:1.2269703 13:-0.254298 14:0.093586267 15:-0.2990388 
-0.8408395132928842 1 1 1:-0.11235567 2:-0.27367727 3:0.23297027 4:0.733724 5:0.53038667 6:-0.4009596 7:-0.4321542 8:1.020714 9:0.67666973 10:-0.8030448 11:0.62243773 12:0.48807347 13:-0.18727307 14:0.44796613 15:0.014192667 
-0 0.4933150822337641 0 1:-0.54626733 2:-0.49781513 3:0.1895278 4:0.45432387 5:0.76098973 6:-0.61040633 7:-0.23917513 8:0.1900346 9:-0.32984813 10:0.063447667 11:-0.34463547 12:-0.15344007 13:-0.32225073 14:0.79209753 15:0.2651656 
-0 0 1 1:-0.64318727 2:-0.056386933 3:0.52477133 4:0.10807773 5:0.1456926 6:-0.16446613 7:-0.2219012 8:-0.281769 9:0.20744547 10:-0.32252287 11:-0.14378433 12:0.80357947 13:-0.20235593 14:0.4406458 15:-0.016481333 
-0 0 1 1:-0.17856673 2:0.032302467 3:-0.013858067 4:0.20509707 5:-0.055805733 6:-0.32568133 7:-0.12233447 8:0.2155522 9:-0.2303274 10:0.1163756 11:-0.2617208 12:0.21204387 13:-0.17520053 14:0.7339786 15:-0.0684476 
-1 1 1 1:-0.1352964 2:0.19377353 3:0.31611033 4:0.33588833 5:0.32639893 6:-0.19177613 7:-0.38195727 8:-0.050875933 9:-0.12297087 10:0.34421093 11:0.11454393 12:0.33902173 13:-0.11048227 14:0.39106507 15:-0.053264733 
-1 1 1 1:-0.22262593 2:-0.15017853 3:-0.26552367 4:0.2314076 5:-0.026009667 6:0.021469133 7:-0.26812013 8:0.49309627 9:0.32461933 10:-0.2885626 11:-0.2075348 12:0.14681653 13:-0.041933067 14:0.38570747 15:0.10282293 
-0 0 1 1:-0.14019107 2:0.18180913 3:0.42567073 4:0.5414694 5:-0.020342067 6:-0.6083062 7:-0.5846548 8:0.19644533 9:-0.8732472 10:0.35724433 11:-0.99742753 12:0.70503953 13:0.189424 14:0.76254113 15:-0.089065333 
-0 0 1 1:-0.16646193 2:-0.0140008 3:0.14312693 4:0.078486733 5:0.24876293 6:-0.34513813 7:-0.32943513 8:0.1521316 9:-0.2006354 10:0.2683778 11:-0.2476 12:0.3095862 13:-0.20168587 14:1.2318859 15:-0.4863498 
-0 1 0.8193589525402513 1:-0.0141108 2:-0.160163 3:0.12814507 4:0.39229227 5:0.4666714 6:-0.49325147 7:-0.83017 8:0.28167833 9:-0.37977773 10:0.3172194 11:-0.3480658 12:0.4785072 13:0.18135107 14:0.82172507 15:0.1766472 
-1 1 0 1:0.28852233 2:-0.5321888 3:-0.3816006 4:0.8054492 5:-0.189203 6:-0.79946913 7:-0.3189276 8:0.5824766 9:0.49774693 10:0.062219467 11:0.3144956 12:0.0599336 13:0.42714873 14:0.4565578 15:-0.40339613 
-1 1 1 1:-0.14509373 2:0.090888067 3:0.10228213 4:0.78716653 5:0.34627153 6:-0.042521333 7:0.021521067 8:0.025321133 9:-0.29914553 10:0.24882113 11:0.173123 12:0.40167013 13:0.059765867 14:0.23190813 15:-0.078142933 
-0 0 1 1:-0.43035347 2:0.025150333 3:0.0450258 4:-0.048832067 5:0.29968793 6:-0.1967274 7:-0.49029813 8:0.16994707 9:-0.38379533 10:0.19162087 11:-0.24180967 12:0.2412274 13:-0.46502733 14:0.89012907 15:-0.0020791333 
-1 1 0 1:-0.3317838 2:-0.1650256 3:0.72609207 4:1.1133125 5:-0.022696333 6:-0.6649782 7:-0.030926267 8:0.041429 9:-0.70428867 10:0.47309593 11:0.089793667 12:0.56314867 13:0.12562727 14:0.60428253 15:-0.5547266 
-0 1 0 1:0.32662707 2:-0.59111873 3:-0.26422247 4:1.3459769 5:0.4775764 6:-0.64203233 7:-0.68597827 8:0.63031933 9:-0.49514593 10:-0.1402854 11:-0.158597 12:0.31926847 13:-0.31055473 14:1.1648614 15:-0.0041214 
-1 1 1 1:-0.089112467 2:0.042989933 3:0.0568736 4:0.408529 5:0.292537 6:-0.51312513 7:-0.30907087 8:0.039947667 9:0.015449333 10:-0.017997867 11:0.098253933 12:0.16736853 13:-0.17082653 14:0.27131513 15:0.0180516 
-1 1 0 1:-0.42594633 2:-0.1548814 3:-0.0019141333 4:0.24751227 5:0.17138373 6:-0.013897667 7:-0.0959408 8:0.10000193 9:0.11862793 10:-0.061015933 11:0.16559167 12:0.0481172 13:-0.16199873 14:0.62904787 15:0.1453626 
-0 1 0 1:0.052024467 2:-0.1603766 3:0.17707627 4:0.59133693 5:0.4638024 6:-0.19550067 7:-0.45718307 8:0.3886636 9:-0.4597778 10:0.3717026 11:-0.017169 12:0.4559294 13:-0.2587204 14:0.8915078 15:-0.038681333 
-0 0 1 1:-0.47760433 2:0.17533767 3:0.1550058 4:-0.1040756 5:-0.088892467 6:0.39675153 7:-0.31654887 8:0.0094956667 9:-0.044714333 10:-0.273731 11:-0.48238453 12:0.27955013 13:-0.14535327 14:0.12838327 15:-0.1130612 
-0 0 1 1:-0.034895267 2:0.2474264 3:-0.013186267 4:0.33103413 5:-0.051313133 6:-0.14108953 7:-0.4901968 8:0.63618213 9:-0.3631268 10:0.47135473 11:-0.61033787 12:0.87694667 13:-0.695987 14:1.1044708 15:-0.0878472 
-1 1 1 1:0.033243 2:-0.2269438 3:-0.22038367 4:0.45107433 5:0.1595872 6:-0.560801 7:-0.12107187 8:0.10709927 9:-0.15880807 10:0.0032682667 11:-0.048722867 12:0.2761598 13:0.34602753 14:0.2811204 15:-0.30260193 
-1 1 1 1:-0.0523072 2:0.085760667 3:0.17685267 4:0.15030853 5:-0.030192267 6:-0.1506988 7:-0.25137913 8:0.139221 9:-0.11429813 10:0.18812427 11:-0.0012914667 12:0.20786207 13:-0.15813053 14:0.46304247 15:-0.081357267 
-1 1 1 1:-0.31021113 2:0.2305526 3:0.038957667 4:-0.15036453 5:-0.090966733 6:-0.1032716 7:0.041074133 8:-0.20225533 9:0.2964064 10:-0.10488453 11:-0.12569813 12:0.23948453 13:-0.087737533 14:-0.0830452 15:-0.0247392 
-0.731330209957357 1 1 1:-0.085055533 2:-0.6335048 3:0.18045473 4:0.63283827 5:0.77124073 6:-0.7134986 7:-0.60381567 8:0.48379273 9:0.6348544 10:0.15267013 11:0.4030008 12:0.5501588 13:-0.2256104 14:0.018646467 15:0.6539916 
-0 1 0 1:0.24592493 2:-0.38673667 3:0.012010533 4:1.0514355 5:0.17934567 6:-0.9583786 7:-0.39548913 8:0.4010094 9:0.20260587 10:-0.27918993 11:-0.040182067 12:0.72579807 13:-0.33350887 14:0.9379198 15:0.14604627 
-0 1 1 1:-0.47516733 2:-0.3582552 3:-1.751423 4:2.8911969 5:0.5242108 6:-0.90939247 7:1.0872388 8:0.336122 9:-0.17172247 10:0.12316933 11:-0.10465213 12:1.309879 13:-0.76922713 14:1.1015681 15:-0.90313827 
-0 0.8339353029865569 0 1:-0.4325974 2:-0.14518613 3:0.21239867 4:1.2181293 5:0.6231468 6:0.066085 7:-1.3705749 8:0.025642133 9:0.66254553 10:-0.65572733 11:-0.50848847 12:1.0797379 13:-0.1795706 14:0.95973587 15:0.4823844 
-0 1 1 1:0.73917933 2:-0.19729767 3:0.30807127 4:1.1686874 5:-0.076000533 6:-1.7943629 7:-0.0037415333 8:1.0443521 9:-0.65366393 10:0.33670067 11:-0.5469206 12:0.785355 13:-0.24728293 14:1.7286438 15:-0.053203 
-0 1 0 1:-0.056945333 2:-0.30408993 3:-0.016264133 4:0.92082533 5:0.85910553 6:-0.45283233 7:-0.4122142 8:0.27521193 9:-0.36343507 10:0.16972007 11:0.11781567 12:0.38657913 13:-0.22124193 14:0.75861873 15:-0.3481662 
-0 1 0 1:-0.3838588 2:-0.22279727 3:-0.10164087 4:-0.0852126 5:-0.036218 6:-0.11648407 7:-0.31315447 8:0.21407013 9:0.032728133 10:-0.020988867 11:0.0726106 12:-0.033001467 13:-0.0047607333 14:0.50314287 15:-0.1827462 
-0 0 1 1:0.0259748 2:0.2338204 3:0.042018467 4:0.0446648 5:0.00093253333 6:-0.2336556 7:-0.30831593 8:0.3160464 9:-0.6788226 10:0.52273253 11:-0.9988266 12:0.5129806 13:-0.4618094 14:0.5778138 15:0.1135068 
-0.5658237703668204 1 1 1:0.015788467 2:-0.0024711333 3:-0.24167513 4:-0.027677333 5:0.13595073 6:-0.15045273 7:-0.31542067 8:0.31939673 9:-0.16779053 10:0.054342067 11:-0.40398067 12:-0.03482 13:-0.1882614 14:0.54948073 15:0.045310333 
-1 1 0 1:0.5037978 2:-0.2252572 3:0.033017867 4:0.95525853 5:0.40026313 6:-0.64607207 7:-0.0454782 8:0.44835407 9:-0.0090278667 10:0.015311 11:-0.090467333 12:0.233471 13:-0.11624493 14:0.74683927 15:-0.3753164 
-0 0.3661518897188762 1 1:-0.046106133 2:0.34195787 3:-0.5267522 4:0.6657736 5:-0.4384804 6:-0.14947407 7:-0.9787416 8:0.78683973 9:-0.78393687 10:0.36605853 11:-1.9188215 12:0.032560333 13:0.11829953 14:-0.011151 15:-0.60359567 
-1 1 1 1:-0.25821 2:0.043404933 3:0.1068168 4:0.3331506 5:0.1592616 6:-0.2987902 7:0.055723667 8:0.1665434 9:-0.36693467 10:0.17343287 11:-0.15976507 12:0.6408984 13:-0.1808916 14:-0.01893 15:-0.0055789333 
-0 0 1 1:-0.43035347 2:0.025150333 3:0.0450258 4:-0.048832067 5:0.29968793 6:-0.1967274 7:-0.49029813 8:0.16994707 9:-0.38379533 10:0.19162087 11:-0.24180967 12:0.2412274 13:-0.46502733 14:0.89012907 15:-0.0020791333 
-0 1 1 1:0.140657 2:-0.040458067 3:0.45948867 4:1.5031095 5:0.6519162 6:0.23490413 7:-0.8854466 8:1.2431127 9:-1.0797686 10:1.5117035 11:-0.15862627 12:1.266146 13:-0.0139974 14:1.1633079 15:-0.35992547 
-0 0 0.3341027675953105 1:-0.93807967 2:-0.33446433 3:0.17218893 4:-0.081132867 5:0.13666787 6:-0.57981207 7:-0.41844547 8:0.21079813 9:-0.6341814 10:-0.1312748 11:0.0082512 12:-0.1194436 13:0.4410222 14:0.40154727 15:-0.795198 
-0 0 0.06544692724731521 1:-0.16738333 2:-0.12183507 3:0.4233888 4:1.1258654 5:0.6698896 6:-0.80867607 7:-1.2609554 8:0.30912247 9:0.0756692 10:0.49318787 11:-0.35180767 12:1.2390502 13:-0.4090324 14:1.6399011 15:-0.024384467 
-0 1 1 1:-0.67415847 2:-0.092252267 3:-0.1472446 4:2.3226575 5:1.1064965 6:-0.12112307 7:-0.85950527 8:1.1980131 9:0.1558288 10:1.1772712 11:0.16244247 12:0.52000073 13:0.6700142 14:0.36809067 15:-0.2142132 
-0 1 0.1984577055515725 1:-0.67811887 2:-0.5663938 3:0.41844947 4:0.6251994 5:0.6956242 6:0.0052116667 7:-0.48469673 8:0.3095926 9:0.0181832 10:0.8772328 11:-0.046034333 12:0.2743914 13:0.019316133 14:0.2679734 15:-0.33523247 
-0 1 0 1:-0.4874168 2:-0.1843352 3:0.086263867 4:1.0614855 5:0.4438084 6:0.017853733 7:-0.59656887 8:0.48207327 9:-0.39851567 10:0.6698838 11:0.084148533 12:0.5654938 13:-0.315441 14:0.9873372 15:0.14757133 
-1 -1 1 1:-0.36853827 2:-0.2684066 3:-0.48916407 4:-0.10521347 5:0.015252467 6:-0.2424316 7:-0.0754422 8:0.23752253 9:0.2984896 10:-0.30498767 11:0.045639067 12:0.060175133 13:-0.13311793 14:0.1210582 15:-0.28647547 
-0.8523534958581084 -1 1 1:-0.35177947 2:-0.0089988667 3:0.047374133 4:0.18551307 5:0.1906664 6:-0.22374013 7:-0.15861327 8:0.4160898 9:-0.17220773 10:0.31579033 11:-0.18867927 12:0.0084039333 13:-0.47359973 14:0.8924734 15:0.069305867 
-0 -1 0 1:0.52076247 2:-0.70618507 3:-0.15310793 4:0.73786527 5:0.44584947 6:-0.64602513 7:-0.3698464 8:0.8173708 9:-0.5698818 10:-0.093722933 11:-0.35055907 12:0.35749113 13:0.037073667 14:0.46078253 15:-0.552105 
-0.4463057234017636 -1 0.327423621477868 1:0.0957696 2:-0.36437527 3:0.21869133 4:0.68881813 5:0.24760413 6:-0.50657047 7:-0.70485893 8:0.090490333 9:0.15621327 10:0.16846027 11:0.0905882 12:0.48797987 13:-0.13400813 14:0.836171 15:-0.15795347 
-0 -1 1 1:1.4833341 2:0.46064187 3:-0.2363588 4:1.2570527 5:0.7623898 6:-0.78709687 7:-1.1442267 8:1.0220875 9:-0.7426698 10:0.94209733 11:-1.0705151 12:1.3401778 13:0.3178788 14:1.2689594 15:-0.12143047 
-0 -1 0.8009160608157431 1:-0.38997293 2:-0.27781893 3:-0.11869693 4:0.99962607 5:0.076372 6:-0.56849207 7:-0.26881487 8:0.26841227 9:-0.1607288 10:0.1066846 11:0.2026192 12:0.2001498 13:-0.005745 14:0.42815133 15:-0.34829247 
-0 -0.07135467708098632 0 1:0.044023267 2:-0.1271336 3:-0.42025973 4:1.0902975 5:0.68872953 6:-0.033173733 7:0.25446467 8:0.57744593 9:-0.12571647 10:0.74571167 11:-0.42940047 12:0.59392753 13:-0.2985642 14:0.39568433 15:0.29671347 
-0 -1 0 1:-0.072627133 2:-0.23256207 3:0.017332467 4:1.1155668 5:0.67289587 6:-0.84275953 7:-0.82520047 8:0.55834707 9:0.023096467 10:-0.22401393 11:0.33095633 12:0.50033893 13:0.29835327 14:0.89177753 15:0.5889768 
-1 -1 1 1:-0.22775933 2:0.12793813 3:-0.1568088 4:-0.13019387 5:-0.25562693 6:-0.54133373 7:0.0946826 8:0.3346588 9:-0.17203727 10:0.28859787 11:-0.3006704 12:-0.37269487 13:0.0060544 14:-0.41218567 15:-0.33969053 
-0 -1 0 1:-1.4004045 2:-0.27336947 3:-0.27449133 4:2.2930833 5:0.3939968 6:-0.74325553 7:0.32015767 8:-0.088298067 9:-0.28415807 10:0.5882004 11:0.93548153 12:1.1768553 13:-0.4118184 14:0.71425647 15:-0.19039033 
-0 -1 0 1:-0.0064045333 2:-0.22613093 3:0.15916313 4:1.0565526 5:0.60698553 6:-0.088427933 7:-0.27482927 8:0.10789353 9:-0.456005 10:0.13869273 11:0.053530667 12:0.63650653 13:-0.36242767 14:0.0463164 15:-0.046007 
-0 -0.6362850500088651 1 1:-0.084464533 2:0.25244647 3:-0.73647127 4:-0.45408073 5:-0.56055867 6:-0.798642 7:-0.30164827 8:0.94132053 9:0.35970767 10:-0.079351867 11:-1.0403305 12:1.1818141 13:0.064459867 14:-0.040116133 15:0.27620833 
-1 -1 0 1:0.1915656 2:-0.1152784 3:-0.34408227 4:0.25156487 5:-0.1817448 6:-0.46259407 7:0.104068 8:0.30025967 9:0.14631587 10:0.0339192 11:-0.0154926 12:0.28627813 13:-0.14048667 14:0.14242807 15:0.055916133 
-1 -1 0.5963045781601102 1:0.3783364 2:-0.1905948 3:-1.0079718 4:1.9562768 5:-0.632135 6:-1.3224302 7:1.358391 8:0.18879033 9:0.5937336 10:-0.15507747 11:0.25473633 12:0.7059576 13:-0.15854733 14:0.8646132 15:-0.9486164 
-0.9473734057193631 -1 1 1:-0.22997447 2:-0.075274667 3:0.30579373 4:0.26764647 5:0.12575987 6:-0.1346092 7:-0.66451147 8:0.11138067 9:-0.103682 10:0.019801933 11:-0.64875953 12:0.53285627 13:-0.21602607 14:0.48827353 15:-0.057820067 
-0 -1 0 1:-0.15091533 2:-0.3094456 3:-0.20088507 4:0.34495867 5:-0.064286467 6:-0.5809966 7:-0.99712913 8:0.41592293 9:-0.3980248 10:-0.24792673 11:-0.42488127 12:-0.057244133 13:0.40293447 14:0.48319667 15:0.2226586 
-1 -1 1 1:-0.19896887 2:0.026063733 3:0.22836367 4:0.6876098 5:0.2539512 6:-0.2073432 7:-0.067442733 8:0.25879133 9:-0.1570292 10:0.19040233 11:0.26830027 12:0.31817727 13:0.22037507 14:0.4563258 15:-0.073188867 
-0 -1 1 1:-0.44331913 2:0.0067562 3:-0.2137276 4:0.84224393 5:0.19325947 6:-0.31122813 7:0.056131333 8:0.32308033 9:-0.46103787 10:0.1008008 11:0.24332393 12:0.54148367 13:-0.41756453 14:0.2875434 15:0.090544467 
-0 -1 0 1:-0.43704907 2:-0.2932964 3:-0.2206676 4:0.47333373 5:0.25605933 6:-0.43364953 7:-0.0647468 8:-0.13147833 9:0.44734153 10:-0.0023630667 11:0.038695067 12:0.024985733 13:-0.14280733 14:0.0781544 15:0.0555804 
-1 -1 0 1:-0.4035376 2:-0.13677633 3:0.4774586 4:0.82888353 5:-0.32080447 6:-0.9013242 7:0.39032633 8:-0.4208438 9:-0.097991 10:-0.00068273333 11:0.1003882 12:0.23751153 13:-0.4048564 14:-0.1429312 15:-0.0214822 
-1 -0 1 1:-0.1400894 2:0.0098728667 3:-0.38125153 4:0.3286736 5:-0.055114533 6:-0.2173866 7:0.2183054 8:0.0969824 9:0.32867007 10:-0.34658807 11:-0.10588213 12:0.55460027 13:-0.096160733 14:-0.57318113 15:-0.29165427 
-0 -1 0 1:-0.5069612 2:-0.41434213 3:0.42809473 4:0.82680953 5:0.5169314 6:-0.1398238 7:-0.46352287 8:0.34735647 9:-0.10052607 10:0.96731573 11:0.307619 12:0.29004093 13:-0.3739424 14:0.76265713 15:-0.27819793 
-0 -1 1 1:0.042382467 2:-0.17426407 3:0.3206206 4:1.45263 5:0.97881 6:-0.34100033 7:-0.54843993 8:0.6845748 9:-0.3760668 10:0.26019393 11:0.043669933 12:0.55476153 13:-0.6047234 14:1.3140218 15:0.109809 
-0 -1 0 1:-0.071231933 2:-0.25846993 3:-0.24506233 4:0.75838727 5:-0.013637533 6:-0.312935 7:-0.49449 8:0.54630487 9:0.37877067 10:-0.1323636 11:-0.20408227 12:0.16569513 13:0.0044094667 14:0.3638658 15:0.081109267 
-1 -1 0.867314573112775 1:-0.45045147 2:-0.15463853 3:0.013567533 4:0.18282453 5:-0.17658947 6:-0.5812458 7:0.11097253 8:0.3197328 9:-0.010290133 10:-0.074196467 11:0.0044168667 12:-0.030580333 13:-0.23671033 14:0.28044693 15:0.034934933 
-0.9570308918201145 -1 1 1:-0.33589487 2:-0.16301307 3:-0.32063587 4:0.39268513 5:0.0554094 6:-0.41387127 7:-0.44577813 8:0.41184653 9:0.049736933 10:-0.1818036 11:-0.1380808 12:-0.17888413 13:0.27372827 14:0.13945707 15:-0.043999933 
-1 -0 0 1:0.3553616 2:-0.25830733 3:0.2517378 4:-0.12911107 5:0.17258073 6:-0.36192627 7:0.5277724 8:0.10749453 9:-0.1805236 10:0.2887748 11:-0.11674 12:0.7613548 13:0.36851247 14:-0.11954787 15:-0.0479236 
-1 -1 1 1:-0.1351938 2:-0.036514133 3:0.1910382 4:0.2374424 5:-0.069068 6:-0.32693067 7:0.0837176 8:0.0099352667 9:-0.017856867 10:0.0374966 11:0.1651382 12:0.078583733 13:-0.090177667 14:0.26364213 15:-0.018591733 
-0.5877500306411951 -1 1 1:0.6378562 2:-0.13577513 3:0.8283836 4:0.84167993 5:0.6394766 6:-0.3604378 7:-1.3314085 8:0.67712693 9:-0.81356407 10:0.58681407 11:-0.234471 12:1.1967549 13:0.12654973 14:1.5712843 15:-0.18858947 
-1 -1 1 1:-0.092693933 2:0.066068133 3:0.4033434 4:0.29409947 5:-0.085619933 6:-0.077520667 7:0.29542267 8:-0.059672133 9:0.2937804 10:0.14582107 11:0.4387706 12:0.54836553 13:0.0656386 14:-0.12512253 15:-0.2221184 
-1 -1 0 1:-0.018391867 2:-0.27930907 3:0.0034506667 4:0.38624287 5:0.0190522 6:0.00381 7:-0.65658173 8:0.90751787 9:0.52204833 10:-0.1393048 11:0.32029347 12:0.29772867 13:-0.051765733 14:0.811386 15:0.048039933 
-0 -1 0.3006731030432733 1:0.30400893 2:-0.12077113 3:-0.0561792 4:1.1506398 5:0.58206207 6:0.13248373 7:-0.92508267 8:0.6537992 9:-1.0789521 10:0.5225326 11:-0.31893793 12:0.87200233 13:-0.22221953 14:0.24577967 15:-0.2312344 
-1 -1 1 1:0.0035720667 2:-0.0470124 3:0.1756614 4:0.25925953 5:0.1246732 6:-0.2611852 7:-0.17560973 8:0.2232468 9:-0.28872233 10:0.20499667 11:0.23921053 12:0.23287 13:0.011750933 14:0.30220573 15:-0.054446 
-0 -0.6499754107763789 0 1:-0.51725513 2:-0.2462238 3:0.057602133 4:0.48057387 5:0.065820467 6:-0.58578853 7:-0.098523533 8:0.16297813 9:-0.21023513 10:0.412105 11:0.4166902 12:0.3905496 13:0.0082751333 14:0.2354356 15:0.11149827 
-1 -1 1 1:-0.30148473 2:0.090460867 3:0.163261 4:0.3099018 5:0.057036067 6:-0.24423413 7:-0.14390013 8:0.14720353 9:-0.161785 10:0.044910133 11:-0.17224487 12:0.1214576 13:-0.0970592 14:0.22145613 15:0.098729267 
-1 -0 0 1:-0.43594833 2:0.0942792 3:0.0044291333 4:0.49821033 5:0.20727907 6:-0.16112627 7:-0.0242748 8:-0.0064112667 9:-0.2488564 10:0.18880087 11:0.2959368 12:0.35430073 13:-0.1818998 14:-0.42043127 15:0.024160467 
-0.3186908742719853 -1 1 1:-0.17310493 2:-0.41649627 3:0.41288907 4:0.4854398 5:0.2915308 6:-0.6289292 7:-1.0177337 8:1.5244928 9:-0.1462336 10:-0.83588073 11:0.037194 12:0.78656627 13:-0.027130933 14:1.4236315 15:-0.1913716 
-1 -0 0 1:-0.508553 2:0.32038847 3:-0.3331312 4:1.3656661 5:0.2613364 6:0.43936533 7:0.061474533 8:0.427045 9:0.46414053 10:-0.29039807 11:0.48958547 12:0.51233327 13:0.27590347 14:-0.38123047 15:0.2024812 
-1 -1 0 1:0.10784547 2:-0.39297933 3:0.15813553 4:0.3619688 5:0.37533827 6:-0.3638466 7:-0.46531807 8:0.56374727 9:0.151549 10:-0.24387253 11:-0.11156913 12:0.14174807 13:0.13981647 14:0.34560933 15:-0.13141327 
-0 -1 1 1:-0.69784233 2:-0.32536613 3:-0.58695047 4:0.7500912 5:0.15996807 6:-0.75039693 7:-1.1621603 8:0.71432833 9:-0.086372733 10:0.4518458 11:-0.3388954 12:0.63028993 13:-0.608449 14:1.823854 15:0.083720867 
-1 -1 1 1:-0.0896888 2:-0.032572267 3:-0.070776733 4:0.10570773 5:0.0160278 6:-0.1607266 7:-0.386117 8:0.27970567 9:-0.13539853 10:0.34838267 11:-0.30102907 12:0.0901546 13:0.25709653 14:0.29967413 15:0.0138518 
-1 -1 1 1:-0.019613 2:-0.1662462 3:-0.13810993 4:0.17606513 5:0.3678136 6:-0.3798766 7:0.0143094 8:0.2869406 9:-0.067131133 10:0.15826287 11:-0.14236733 12:0.022896667 13:-0.44104653 14:0.49721773 15:0.057787267 
-1 -1 1 1:-0.47326587 2:-0.19705833 3:-0.0064254 4:0.35869567 5:0.2161098 6:-0.13719953 7:-0.0461788 8:0.18431527 9:0.1660732 10:-0.022838267 11:0.23994827 12:0.0528468 13:0.0033190667 14:0.16434227 15:0.0260936 
-0 -1 0 1:0.57451693 2:-0.4133538 3:0.1720736 4:1.1798023 5:0.95323847 6:-0.58572593 7:-0.866925 8:0.19491127 9:-0.11929067 10:-0.3912054 11:-0.88280867 12:0.52454773 13:-0.15694047 14:0.45197553 15:0.25845187 
-0.03556798205016544 -0 0 1:0.2008452 2:-0.058847333 3:-0.35667087 4:0.9573442 5:0.0035654667 6:-0.19271487 7:0.2574566 8:0.48331147 9:0.677608 10:0.20650593 11:0.6331188 12:0.73147927 13:0.51515647 14:-0.17464947 15:-0.0947514 
-1 -1 1 1:-0.4071466 2:0.038041267 3:-0.059302267 4:0.25592633 5:0.3228802 6:0.057068067 7:-0.50591867 8:0.47723707 9:0.080367133 10:0.500663 11:-0.0288712 12:0.1071016 13:0.4093922 14:-0.020813067 15:-0.6074926 
-0 -0 0.4375200356456899 1:-1.2232057 2:-0.5856754 3:1.022893 4:0.9579956 5:1.0809113 6:-0.5891568 7:-0.9242438 8:0.40110453 9:0.49267747 10:-0.098793 11:0.077356733 12:0.55392727 13:1.0849675 14:-0.28195787 15:-0.155063 
-0 -1 0 1:-0.33122873 2:-0.165051 3:0.32735527 4:1.4931967 5:-0.12376513 6:-0.36456987 7:0.42780247 8:0.0307754 9:-0.3474248 10:0.052222667 11:0.3778278 12:0.82605167 13:-0.055823933 14:0.43442767 15:-0.035755133 
-0 -1 1 1:-0.6985934 2:0.4321532 3:0.12184993 4:1.7134081 5:0.7801144 6:0.60078173 7:0.21922667 8:0.3286422 9:-0.66813627 10:0.7556326 11:-0.23773487 12:0.5509762 13:-0.30199467 14:0.41861087 15:-0.0244742 
-1 -1 1 1:0.021288133 2:-0.063829667 3:-0.0472622 4:0.49035913 5:-0.2495106 6:-0.4219272 7:0.059428133 8:0.0332708 9:0.086830667 10:0.1553652 11:-0.010111333 12:0.27837567 13:0.13941153 14:0.40136533 15:-0.1621194 
-1 -1 0.9280251240246324 1:-0.41643553 2:-0.2576348 3:-0.32987747 4:1.1873695 5:-0.3789204 6:-0.2931202 7:0.69662753 8:0.0764194 9:0.44991667 10:0.0615636 11:0.4213778 12:0.3362692 13:0.095478667 14:0.24486233 15:-0.63106387 
-0 -1 1 1:-0.69977813 2:-0.011684867 3:-0.39760913 4:0.9058928 5:0.022377933 6:-0.60747847 7:0.87319807 8:-0.34164347 9:-0.17222273 10:0.36487987 11:-0.18518853 12:0.9060348 13:-0.3375186 14:0.0358308 15:-0.041848867 
-1 -1 1 1:-0.27545033 2:0.0362256 3:-0.3150712 4:0.72117227 5:0.307787 6:-0.087503333 7:0.17032013 8:-0.16953313 9:-0.3725432 10:0.066660333 11:-0.1069286 12:0.2082824 13:-0.32760453 14:0.25904573 15:-0.2376062 
-0 -0 0.2193467102274052 1:0.28684393 2:-0.18885173 3:0.50391927 4:0.28816587 5:0.18218353 6:-0.59803393 7:0.3579474 8:0.24481807 9:-0.13102993 10:0.81029287 11:-0.22815353 12:1.1814255 13:0.072644933 14:0.27378693 15:-0.157602 
-1 -0 0 1:-0.049276467 2:-0.16057267 3:-0.0398552 4:1.0692652 5:0.26794267 6:-0.1588472 7:0.12665827 8:0.26228493 9:0.097454133 10:-0.0681538 11:0.31138187 12:0.24691967 13:-0.062905133 14:-0.038427733 15:-0.1347882 
-0 -0 0.6801397374328952 1:-0.063710467 2:-0.1218126 3:-0.65289093 4:0.6877694 5:0.16362987 6:-0.22323347 7:0.29936013 8:0.28065053 9:-0.36040587 10:1.3405031 11:-0.81608073 12:0.063755733 13:-0.279036 14:-0.68873887 15:-1.0315444 
-1 -1 1 1:-0.39548293 2:-0.0062319333 3:0.217579 4:0.24606487 5:-0.17539287 6:-0.32273473 7:0.20923207 8:0.019577267 9:0.0474264 10:-0.0018476 11:-0.0709298 12:-0.094600333 13:-0.38710113 14:0.59279333 15:0.10694947 
-1 -1 1 1:-0.2577004 2:-0.21918327 3:-0.012457 4:0.31806747 5:0.2070602 6:-0.2780252 7:-0.085061467 8:0.11592193 9:-0.1533096 10:0.1386162 11:0.10934607 12:0.12610707 13:-0.19149147 14:0.44056427 15:0.043460133 
-0 -1 1 1:-1.1105544 2:0.1371038 3:-0.6501328 4:0.7848582 5:0.069271 6:-0.16071833 7:0.5745994 8:-0.31299413 9:0.11290867 10:0.31644353 11:-0.010953 12:0.72163393 13:-0.021790733 14:-0.42484647 15:-0.48653347 
-1 -0.2334587232076417 0 1:0.45530467 2:0.0868488 3:0.53987393 4:0.4327828 5:0.0332962 6:-0.051758933 7:-0.026423867 8:0.81374467 9:0.1459524 10:-0.10817947 11:0.20773853 12:-0.27813093 13:0.11922867 14:-0.0167846 15:0.051147733 
-0 -1 1 1:0.4366468 2:0.272166 3:-0.3889316 4:1.7691804 5:1.3751975 6:-0.8924112 7:-2.1912223 8:1.4570962 9:0.31712967 10:-0.19155413 11:-0.35310833 12:1.4563339 13:-0.21087107 14:2.4632792 15:1.0754942 
-1 -0 0 1:0.3153282 2:-0.1455204 3:0.62014093 4:1.0168359 5:0.37737553 6:-0.19215373 7:0.10298387 8:0.54925647 9:-0.35588967 10:0.23210833 11:0.3571708 12:0.81356347 13:-0.010140933 14:0.6365188 15:0.1815172 
-0 -0.2228167204877764 0 1:0.3361626 2:0.28395593 3:-0.51734887 4:1.5249955 5:0.060702467 6:-0.21862027 7:-0.64409847 8:0.872898 9:-0.98764867 10:1.5305166 11:-0.8595924 12:0.5536428 13:-0.16918747 14:-0.3666892 15:-1.1896253 
-1 -1 0 1:0.1641094 2:-0.095669067 3:-0.0698322 4:0.33790013 5:-0.28557013 6:-0.34822207 7:-0.39523073 8:0.473792 9:0.15499407 10:0.1743382 11:0.10833713 12:0.27301407 13:-0.0495476 14:0.47248507 15:-0.15678973 
-0 -1 1 1:-0.1414536 2:-0.24592113 3:-0.311873 4:0.80507307 5:1.0752325 6:-0.131187 7:-0.6518456 8:0.71792853 9:0.14671727 10:0.15347367 11:0.1874688 12:0.47346713 13:0.21923313 14:-0.056915 15:-0.94121813 
-0 -1 0 1:0.56511733 2:-0.6042666 3:-0.062240733 4:0.1631396 5:0.75665967 6:-0.2524172 7:-0.539961 8:0.9067892 9:-0.14184453 10:0.2691018 11:-0.4883562 12:0.4590278 13:-0.19546453 14:0.62566107 15:0.2982712 
-0 -1 1 1:-1.2532356 2:0.11364313 3:-0.24419533 4:0.4650448 5:0.3944576 6:0.13213867 7:-0.1991868 8:0.79259107 9:-0.81927833 10:0.493438 11:0.63303873 12:0.1442822 13:-0.43936353 14:0.0086084 15:-0.69412 
-0.4607176294389258 -0.4989531215097592 0 1:-0.4204164 2:-0.48926347 3:-0.3413366 4:0.68810173 5:0.0357936 6:-1.0630794 7:0.094986933 8:0.3254754 9:0.633762 10:-0.51293867 11:0.078218867 12:-0.72257447 13:0.2682558 14:-0.39758853 15:-0.50835013 
-0 -1 0.780256516821875 1:-0.035037933 2:0.043498533 3:0.051106133 4:1.1554654 5:0.035296733 6:-0.3982842 7:-0.519015 8:0.2960214 9:-0.46432953 10:0.23002493 11:-0.069926533 12:1.1802875 13:0.3587016 14:0.62664793 15:0.34521467 
-0.5773009060660592 -0 0 1:-0.3294196 2:-0.397499 3:0.053060733 4:0.57004013 5:0.3135634 6:-0.529345 7:-0.0064842667 8:0.31772927 9:0.33394453 10:-0.45568367 11:0.10022713 12:-0.0600596 13:0.2134122 14:-0.21460953 15:-0.0043308 
-1 -1 1 1:-0.2577004 2:-0.21918327 3:-0.012457 4:0.31806747 5:0.2070602 6:-0.2780252 7:-0.085061467 8:0.11592193 9:-0.1533096 10:0.1386162 11:0.10934607 12:0.12610707 13:-0.19149147 14:0.44056427 15:0.043460133 
-0 -1 0.9436534090135967 1:-1.0577773 2:-0.52497807 3:0.32152253 4:1.4018763 5:0.56364227 6:-0.68580413 7:-0.55661773 8:0.014553 9:0.023615 10:0.34046673 11:0.574603 12:0.6335038 13:-0.46073513 14:0.68789453 15:-0.361899 
-0 -1 0 1:0.24592493 2:-0.38673667 3:0.012010533 4:1.0514355 5:0.17934567 6:-0.9583786 7:-0.39548913 8:0.4010094 9:0.20260587 10:-0.27918993 11:-0.040182067 12:0.72579807 13:-0.33350887 14:0.9379198 15:0.14604627 
-0 -0.252998565895645 0 1:-0.65175733 2:-0.021532133 3:0.0947106 4:1.6297817 5:0.23733433 6:-0.0242928 7:-0.055607067 8:0.9055838 9:1.0957363 10:-0.1845168 11:0.5085102 12:0.5913734 13:-0.48178613 14:0.17090147 15:0.0793566 
-1 -1 0 1:0.095876667 2:-0.18286793 3:0.1553082 4:0.54006787 5:0.16131213 6:-0.38764387 7:0.1670566 8:0.17941813 9:-0.34744787 10:0.26415927 11:-0.0474874 12:0.50472033 13:-0.1875896 14:0.29681293 15:0.011451333 
-1 -1 1 1:-0.018985667 2:-0.10979093 3:0.1879674 4:0.44881487 5:0.33538947 6:-0.13408853 7:-0.3691654 8:0.28005513 9:-0.35744253 10:0.43067553 11:-0.0891288 12:0.12050393 13:-0.1969842 14:0.67527373 15:-0.0070145333 
-1 -1 1 1:-0.24538393 2:0.0088238 3:-0.4286638 4:2.0423101 5:-0.10577573 6:0.18035307 7:1.1459088 8:0.014854133 9:0.32234693 10:-0.52895153 11:-0.3452894 12:0.51115033 13:-0.32597513 14:0.0322022 15:-0.29236507 
-1 -1 1 1:-0.0413214 2:-0.15614707 3:-0.2211232 4:0.0013163333 5:-0.024479933 6:-0.072692533 7:0.1238228 8:0.28244453 9:0.17544933 10:-0.018040267 11:-0.094366667 12:-0.10855633 13:-0.078077267 14:-0.146591 15:-0.30788593 
-1 -0.1862368566547668 0 1:-0.41588153 2:0.1586158 3:0.8296794 4:0.7991736 5:-0.62971873 6:-0.8040782 7:-0.0913874 8:-0.16711727 9:0.27933393 10:-0.1920476 11:-0.0805314 12:0.594485 13:-0.56349087 14:-0.2293044 15:0.19411913 
-1 -1 1 1:0.17212733 2:-0.23799013 3:0.15792467 4:0.39828313 5:0.21910193 6:-0.30172587 7:-0.58210807 8:0.34084667 9:-0.0584376 10:0.35608973 11:-0.1131972 12:0.1695366 13:0.12244813 14:0.81477133 15:-0.059389933 
-0 -1 1 1:-0.69977813 2:-0.011684867 3:-0.39760913 4:0.9058928 5:0.022377933 6:-0.60747847 7:0.87319807 8:-0.34164347 9:-0.17222273 10:0.36487987 11:-0.18518853 12:0.9060348 13:-0.3375186 14:0.0358308 15:-0.041848867 
-0 -1 0 1:0.58722487 2:-0.1761848 3:0.31095807 4:0.92081787 5:0.17769187 6:-0.50601973 7:-1.0473139 8:0.81833167 9:-0.3447678 10:0.62504733 11:-0.0818282 12:0.85565793 13:-0.1770846 14:1.1566648 15:0.069749133 
-1 -1 -1 1:-0.42192347 2:0.31653987 3:0.25148307 4:0.018657133 5:0.1556726 6:0.0610104 7:-0.0730718 8:-0.0825296 9:-0.17091007 10:0.24451673 11:-0.2389232 12:0.38029933 13:-0.14088607 14:-0.12089593 15:-0.11065047 
-1 -1 -1 1:-0.6490232 2:-0.14430293 3:-0.10316313 4:0.2632294 5:0.065994 6:-0.3559192 7:-0.021063933 8:-0.19416627 9:-0.083735067 10:-0.28835547 11:0.24349513 12:0.2982862 13:-0.19315867 14:0.272733 15:-0.036329267 
-1 -1 -1 1:0.029496733 2:0.13503213 3:0.21625607 4:0.59185187 5:0.468193 6:-0.24826987 7:-0.87279893 8:0.3348886 9:-0.1875874 10:0.2078346 11:-0.1159148 12:0.25459347 13:-0.037284733 14:0.6610706 15:-0.11629087 
-1 -1 -1 1:0.49069367 2:-0.014434267 3:-0.23213653 4:1.4402575 5:0.24874827 6:-0.083951733 7:0.6464612 8:0.52021 9:0.061473133 10:0.062657267 11:-0.081528267 12:1.0455325 13:0.54998813 14:-0.11230713 15:-0.72610813 
-1 -1 -1 1:-0.019287467 2:0.022650533 3:0.34264713 4:0.18061173 5:-0.039635067 6:-0.25856667 7:0.031473867 8:0.054912733 9:0.0091476 10:0.034087533 11:0.19512487 12:0.028331333 13:-0.0880276 14:0.31611807 15:-0.24807953 
-1 -1 -1 1:-0.34512293 2:-0.2149178 3:0.2370368 4:0.44262693 5:0.11473773 6:-0.24956513 7:-0.16186753 8:0.531037 9:-0.3938244 10:0.6424978 11:0.43832847 12:0.4155684 13:-0.0053696 14:0.90006727 15:-0.43352907 
-1 -1 -1 1:-0.26823513 2:-0.185341 3:-0.3059498 4:0.35709587 5:-0.3599624 6:-0.2793448 7:0.071335267 8:0.32850027 9:-0.061745133 10:0.0886518 11:-0.26076387 12:0.025310333 13:-0.060851733 14:0.35795947 15:0.1145064 
-0.3723097171399573 -1 -1 1:-0.91981233 2:-0.40322273 3:-0.98300993 4:0.3053188 5:0.1543962 6:-1.8604947 7:0.105426 8:-0.16872947 9:0.74897507 10:0.50725073 11:0.39435727 12:0.026811667 13:0.64848787 14:0.71099373 15:-1.0313767 
-1 -1 -1 1:-0.2973592 2:0.091333533 3:0.11941707 4:-0.1732122 5:-0.087588667 6:-0.4110814 7:-0.097526867 8:0.55231813 9:-0.088666133 10:0.53988413 11:0.17592433 12:0.10141653 13:-0.3472846 14:0.0164152 15:-0.45054073 
-1 -1 -1 1:-0.57563573 2:-0.16303667 3:-0.2327938 4:0.1853096 5:-0.049641 6:-0.37798467 7:-0.0612418 8:0.1465208 9:0.10463093 10:-0.231835 11:0.3051414 12:0.15834967 13:-0.25083967 14:0.37962453 15:-0.0069363333 
-1 -0.9534029724277272 -1 1:1.164976 2:0.036258133 3:-0.27573067 4:1.0861759 5:0.50041573 6:-0.34655233 7:1.0879246 8:0.62383073 9:0.681095 10:0.37426833 11:-0.129624 12:0.7538912 13:0.97516747 14:0.4852894 15:-0.47810447 
-0 -1 -0.09540081137955465 1:-1.2593267 2:0.042279733 3:0.11357047 4:0.3508174 5:0.16141887 6:0.37312327 7:-0.41831633 8:-0.072252733 9:0.3713528 10:0.3201788 11:-0.34609873 12:0.90874093 13:0.11025493 14:-0.42363987 15:-0.65578047 
-1 -1 -1 1:-0.58117607 2:0.023383467 3:0.064962533 4:-0.29165667 5:-0.24111893 6:0.1824808 7:-0.1546232 8:-0.065696867 9:0.10639633 10:-0.4288656 11:-0.59323367 12:0.10448827 13:-0.082467667 14:-0.027533067 15:-0.095076467 
-1 -1 -1 1:-0.027166733 2:-0.1075036 3:0.174277 4:0.3235568 5:0.27056293 6:-0.0607888 7:-0.27218433 8:0.26017447 9:-0.16074113 10:0.3714784 11:-0.0417276 12:0.0655728 13:-0.224426 14:0.65522427 15:-0.0019292667 
-1 -1 -1 1:-0.209737 2:-0.045711533 3:0.0488682 4:0.24399647 5:0.15515967 6:-0.242661 7:-0.52188153 8:0.218438 9:0.089598333 10:-0.24040207 11:-0.27077707 12:-0.20932187 13:0.202515 14:0.056123 15:0.069158667 
-0.8550533237436979 -1 -0 1:-0.71467253 2:0.61012547 3:0.6155756 4:0.093489333 5:-0.084207267 6:-0.31263573 7:0.1603062 8:-0.12333187 9:0.42718267 10:0.04037 11:0.1084198 12:0.77454293 13:-0.0372128 14:0.2235902 15:-0.46582547 
-1 -1 -1 1:-0.378455 2:-0.13934407 3:-0.054193133 4:0.1259542 5:0.010041467 6:-0.3254276 7:0.046753333 8:0.093311333 9:0.034487867 10:-0.13361033 11:0.19567127 12:0.097801 13:-0.0719322 14:0.13573733 15:0.075932 
-1 -0.3123215972154118 -1 1:-0.63384313 2:0.44561267 3:-0.1661882 4:0.82549727 5:0.2131996 6:-0.65989267 7:0.5124318 8:-0.3388646 9:0.3593944 10:-0.068261867 11:0.27209067 12:1.1773749 13:-0.4275284 14:-0.22391367 15:-0.17845953 
-0 -0.4784813589086818 -0 1:-0.032007133 2:0.66994987 3:-0.81111087 4:0.95589547 5:0.44761667 6:-1.8528984 7:-0.40544687 8:0.067041267 9:-0.33982513 10:1.1853193 11:-0.8024964 12:0.9071588 13:0.61650567 14:1.4247045 15:-0.068233133 
-0 -1 -1 1:0.065677 2:0.0318334 3:-0.079441533 4:0.29900153 5:0.40313313 6:-0.0269194 7:-0.14238473 8:0.35059247 9:-0.51491993 10:0.84348907 11:-0.74134087 12:0.40451493 13:-0.1676466 14:0.29293553 15:-0.42591947 
-0 -0.1071384376142851 -0 1:-0.33770267 2:0.89943853 3:0.17959373 4:0.85551907 5:0.46064573 6:0.71049853 7:-0.12364487 8:0.053879333 9:-0.3249356 10:0.48455887 11:-0.33200407 12:1.4683725 13:-0.33079127 14:-0.21638 15:-0.4391982 
-0 -1 -0 1:-0.2565928 2:0.76657613 3:0.0159814 4:0.1297578 5:-0.16133533 6:-0.356011 7:-0.8516164 8:0.51145753 9:-0.19143653 10:0.26526807 11:-0.82566227 12:0.2192392 13:-0.076069333 14:1.1956088 15:0.20427313 
-0 -1 -1 1:0.065677 2:0.0318334 3:-0.079441533 4:0.29900153 5:0.40313313 6:-0.0269194 7:-0.14238473 8:0.35059247 9:-0.51491993 10:0.84348907 11:-0.74134087 12:0.40451493 13:-0.1676466 14:0.29293553 15:-0.42591947 
-0 -1 -1 1:-0.5673394 2:-0.15837287 3:-0.90294273 4:0.57755453 5:0.79925127 6:-1.4548416 7:0.60114427 8:0.050485467 9:-0.038045467 10:0.300764 11:0.071161 12:0.048859867 13:-0.0843224 14:1.1121899 15:-0.083371533 
-1 -1 -1 1:-0.064523733 2:0.047832933 3:0.26580487 4:0.46243373 5:0.65961167 6:-0.42868067 7:-0.45375913 8:0.051665067 9:-0.23222627 10:-0.18496347 11:-0.27886767 12:0.088995533 13:-0.17067613 14:0.49413313 15:0.051252067 
-1 -1 -1 1:-0.19959727 2:-0.17256827 3:-0.24002773 4:0.29420693 5:0.025263133 6:0.055043667 7:0.016448533 8:0.064446667 9:-0.25825347 10:-0.62685167 11:-0.15931933 12:-0.0954962 13:0.1786924 14:0.065472333 15:-0.35223013 
-1 -1 -1 1:-0.0651446 2:-0.23364387 3:0.1730276 4:0.63104567 5:0.4625876 6:-0.1017702 7:-0.68056053 8:0.42379313 9:-0.40098033 10:0.48589073 11:0.0817496 12:0.34422907 13:-0.10909387 14:0.9802144 15:-0.21926807 
-0 -1 -0.09788293102337833 1:-0.6465996 2:0.86744227 3:-0.29407647 4:1.0943103 5:0.32274393 6:-0.4526294 7:0.44720487 8:0.058772533 9:-0.33897847 10:0.31692427 11:-0.39996233 12:0.90924153 13:-0.49688653 14:0.071549067 15:0.12051107 
-0 -1 -0.2865523182524707 1:-0.64004347 2:0.5281052 3:-0.32665067 4:0.43028913 5:-0.2251252 6:-0.11452713 7:0.0673382 8:0.31120547 9:-0.1217792 10:-0.020934333 11:0.0130728 12:0.62348373 13:-0.30532007 14:0.36310187 15:-0.1794626 
-0.1480648514708303 -1 -1 1:-1.0230192 2:0.463886 3:-0.28292107 4:0.9723112 5:0.16106153 6:0.50291353 7:-0.3564142 8:0.35588287 9:-0.53435673 10:1.1101238 11:0.2369184 12:0.3997102 13:-0.30986907 14:-0.40724753 15:-0.95780553 
-0 -1 -0 1:0.71497307 2:-0.367748 3:0.152042 4:-0.029671 5:1.2969571 6:-0.52828507 7:-0.91804813 8:-0.22391007 9:-0.46621847 10:0.13436507 11:-0.38890093 12:1.7080337 13:-0.18030953 14:1.2898097 15:-0.59014347 
-1 -1 -1 1:0.16589307 2:0.030239333 3:0.13560107 4:0.61692867 5:-0.16659087 6:-0.19997033 7:-0.37406087 8:0.27608813 9:0.55265633 10:-0.90347047 11:-0.33985387 12:0.86359667 13:-0.40093713 14:0.37947567 15:0.64557933 
-0 -1 -0.2990749516133771 1:-0.15588287 2:0.2254506 3:0.23128153 4:0.5253858 5:0.431551 6:0.0071391333 7:-0.34432153 8:0.81782553 9:-0.7075384 10:0.50402473 11:-0.8903262 12:0.50179547 13:-0.11749833 14:0.58411893 15:-0.15545073 
-0.6425494325141642 -1 -0 1:-0.0985062 2:0.396077 3:0.70287233 4:0.3371778 5:-0.1755702 6:-0.83943907 7:-0.065730467 8:0.3663606 9:-0.63360127 10:0.5251894 11:-0.052710067 12:0.4314308 13:-0.37808553 14:1.130541 15:-0.42103067 
-0.1862451414160717 -1 -1 1:0.45132913 2:-0.21320167 3:0.2443858 4:0.7819926 5:0.4888586 6:-0.23244467 7:-0.66162427 8:0.36510407 9:-0.17367893 10:0.1748028 11:-0.059965867 12:0.8519482 13:-0.2156622 14:1.2566595 15:-0.0488032 
-0.2151350194802823 -1 -1 1:-1.2532356 2:0.11364313 3:-0.24419533 4:0.4650448 5:0.3944576 6:0.13213867 7:-0.1991868 8:0.79259107 9:-0.81927833 10:0.493438 11:0.63303873 12:0.1442822 13:-0.43936353 14:0.0086084 15:-0.69412 
-0 -1 -1 1:-0.55120027 2:-0.062860467 3:-0.11975833 4:0.018187067 5:-0.1010572 6:-0.72259847 7:-0.87644247 8:0.6083488 9:0.61258713 10:0.16641393 11:-0.95179567 12:0.3555602 13:-0.14989193 14:1.5794929 15:0.86618633 
-1 -1 -1 1:-0.2235658 2:0.2440374 3:0.1944112 4:0.2886306 5:0.176724 6:0.22128573 7:-0.31754247 8:-0.0561802 9:0.11050113 10:0.076517067 11:-0.33200693 12:0.098461533 13:-0.26043533 14:0.62661353 15:-0.083734267 
-1 -1 -1 1:-0.14176753 2:-0.24453907 3:-0.78862153 4:1.5974976 5:0.33268873 6:-0.018621667 7:0.57851627 8:0.4849322 9:-0.4997594 10:0.13066107 11:-0.43431807 12:0.35790273 13:-0.3959238 14:-0.25074507 15:-0.3583804 
-0 -1 -1 1:0.33865167 2:-0.20829673 3:0.32595373 4:1.4187465 5:0.79204367 6:-0.17464853 7:-0.5980122 8:0.45203647 9:-0.44299607 10:0.47577333 11:0.15834373 12:1.1356897 13:-0.0443622 14:1.1325717 15:-0.19229767 
-0 -1 -0 1:0.36908553 2:0.15973287 3:0.27194733 4:0.9546168 5:0.56733807 6:-0.074919333 7:-0.76523373 8:0.4207456 9:-0.6504902 10:0.3980058 11:-0.28313887 12:1.3125666 13:-0.32866427 14:1.1425426 15:-0.7253654 
-0 -1 -0.1026624575070842 1:-0.6465996 2:0.86744227 3:-0.29407647 4:1.0943103 5:0.32274393 6:-0.4526294 7:0.44720487 8:0.058772533 9:-0.33897847 10:0.31692427 11:-0.39996233 12:0.90924153 13:-0.49688653 14:0.071549067 15:0.12051107 
-1 -1 -1 1:-0.13296687 2:-0.12613093 3:-0.23832533 4:0.7508512 5:0.010075467 6:-0.26776173 7:-0.19689167 8:0.19076887 9:-0.16587087 10:0.21608427 11:-0.11416993 12:0.22535573 13:-0.45056873 14:0.082844267 15:0.15973527 
-1 -1 -1 1:-0.47144253 2:-0.63770907 3:0.2899974 4:0.50535307 5:-0.2647312 6:-1.0544965 7:0.29135987 8:0.6721416 9:-0.140114 10:-0.1870086 11:0.5608764 12:0.4118538 13:0.26109133 14:0.5295956 15:-0.57277207 
-0 -1 -1 1:0.526595 2:-0.31815 3:0.095517933 4:0.90036587 5:0.82178893 6:-0.090085667 7:-0.6901788 8:0.8152436 9:-0.48410373 10:0.3630516 11:-1.3238544 12:0.68807533 13:-0.43036727 14:1.0795962 15:-0.038412667 
-1 -1 -1 1:-0.86433913 2:0.061346333 3:-0.2491518 4:0.3721884 5:0.33815907 6:-0.27577033 7:-0.25178267 8:0.2091494 9:-0.1882396 10:0.054878267 11:0.2120692 12:0.024953133 13:-0.17209913 14:0.34817667 15:-0.051935067 
-0 -1 -1 1:-0.49465053 2:0.090404933 3:-0.785419 4:0.7919454 5:0.6713306 6:-0.77726027 7:0.5654196 8:-0.15893327 9:0.3047434 10:0.36895507 11:0.067243867 12:0.58450793 13:0.16798087 14:0.45366427 15:-0.2635552 
-0 -1 -0 1:-1.4511213 2:0.33883033 3:0.64532467 4:-0.064428733 5:0.4908998 6:-0.4202838 7:-0.200034 8:0.6850778 9:0.32861113 10:0.22174353 11:0.5672514 12:0.79282567 13:-0.356916 14:0.61031327 15:-0.25311333 
-0 -1 -1 1:-0.3418472 2:0.10516813 3:0.43395133 4:0.046731133 5:0.22813013 6:-0.2036552 7:-1.1823735 8:0.63098453 9:0.16181073 10:-0.399806 11:-0.3612016 12:0.36834607 13:0.46984913 14:0.69335693 15:0.24141767 
-1 -1 -1 1:-0.0213326 2:0.475048 3:-0.891211 4:2.1574507 5:0.56133987 6:0.39122107 7:0.307439 8:0.36833347 9:-0.0506992 10:-0.61506527 11:0.012663733 12:0.79519507 13:0.46085027 14:-0.4006818 15:-0.7553996 
-0.787731739263776 -0 -0 1:-0.081730733 2:0.59506667 3:-1.2391406 4:0.55469847 5:0.88721653 6:-0.5444718 7:0.8952526 8:-0.081573733 9:0.49897187 10:0.3658768 11:-0.2431388 12:0.5308486 13:0.39354547 14:0.29201733 15:-0.28899867 
-1 -1 -1 1:-0.50819847 2:0.22147387 3:0.031989533 4:0.26544427 5:0.062844333 6:-0.37365473 7:0.24080533 8:-0.3036058 9:0.27432427 10:-0.072637267 11:-0.11486593 12:0.624485 13:-0.2122972 14:-0.035617333 15:-0.17409453 
-0 -1 -0 1:-0.41999887 2:0.72992987 3:0.055706333 4:-0.0292978 5:-0.30356073 6:-0.42506227 7:-0.015865933 8:-0.261948 9:0.32103653 10:-0.21067493 11:-0.4511018 12:0.72602087 13:-0.27233733 14:0.072016133 15:-0.2414042 
-0 -1 -1 1:-0.6354074 2:-0.14398007 3:0.25750533 4:1.8677591 5:0.39144253 6:-1.2397942 7:-1.1713351 8:0.87979673 9:-0.445322 10:0.43146473 11:-0.010339133 12:0.6529512 13:-0.30648433 14:0.62354907 15:-0.298617 
-0 -1 -1 1:-0.65900367 2:-0.58623013 3:0.069167933 4:2.7046939 5:0.54871593 6:-0.83617273 7:-0.2745896 8:0.70899353 9:-0.6452736 10:0.95056107 11:0.64764107 12:1.6922169 13:-0.7500646 14:1.2741059 15:-0.6848398 
-1 -1 -1 1:0.411859 2:-0.0780352 3:0.12214673 4:0.2710152 5:-0.28290913 6:-0.550557 7:-0.26637187 8:0.43663567 9:-0.2918716 10:0.026702 11:-0.11752193 12:0.61585333 13:0.0907172 14:0.90641867 15:-0.12575507 
-0 -1 -1 1:-0.24013907 2:-0.2888714 3:-0.3394224 4:0.80472647 5:0.40011613 6:-0.44878833 7:-0.35345733 8:0.6736478 9:-0.5338686 10:0.50778953 11:-0.3204282 12:0.55239333 13:-0.3891332 14:0.94090553 15:0.51361347 
-0.6351532703921989 -1 -1 1:-0.2079266 2:0.21611287 3:-0.088117733 4:0.60376167 5:-0.1037782 6:-0.16253327 7:-0.54467973 8:0.395652 9:0.084330267 10:0.11490633 11:-0.22798233 12:0.53359587 13:-0.24243 14:0.54869827 15:0.5726974 
-0.07247133612020715 -1 -1 1:-0.45397287 2:0.11614227 3:-0.0548754 4:0.1189764 5:-0.16632147 6:-0.0907664 7:-0.2987494 8:0.4826398 9:0.11345013 10:-0.16148327 11:-0.098263533 12:0.061878667 13:-0.013873 14:0.7479624 15:-0.023142 
