svm_type c_svc
kernel_type linear
nr_class 4
total_sv 310
rho -0.909148 -0.996317 -0.968503 -0.426 0.706939 0.990817
label 3 4 2 1
nr_sv 104 50 60 96
SV
0 1 1 1:0.0103693 2:-0.00846692 3:-0.00240944 4:0.04498824 5:-0.07329128 6:0.00676894 7:0.07895314 8:-0.1000566 9:-0.1124533 10:0.02451704 11:0.01339272 12:0.02724672 13:-0.075215 14:-0.01064922 15:-0.1509869 16:-0.10399062 17:0.19286976 18:-0.08080404 19:-0.00703084 20:0.01610946 21:-0.03418542 22:0.1753662 23:0.09126326 24:-0.00189704 25:-0.08434082 26:-0.04506782 27:0.18267644 28:-0.16795964 29:-0.07218244 30:0.0411283 31:0.14108472 32:-0.14100016 33:-0.12390998 34:0.12445838 35:-0.00643474 36:0.00766474 37:0.0614622 38:-0.02097522 39:0.05448916 40:-0.0675136 41:0.11498152 42:-0.08129694 43:0.1014431 44:0.02798074 45:0.07343772 46:0.01258448 47:-0.24330162 48:-0.03580404 49:0.00924186 50:-0.1199403 
1 0 1 1:0.01529458 2:0.00350818 3:-0.00672684 4:-0.00099686 5:-0.01766764 6:0.01165484 7:0.01581966 8:-0.01195348 9:-0.0259383 10:-0.00084324 11:0.00075782 12:0.0054175 13:-0.01387294 14:0.01214368 15:-0.0236187 16:-0.0119407 17:0.02917258 18:-0.00516028 19:0.00541104 20:0.00244504 21:-0.00339322 22:0.0153721 23:0.02076062 24:-0.007065 25:-0.01192744 26:-0.00410536 27:0.02872068 28:-0.00404268 29:-0.02746584 30:0.01153352 31:0.01326434 32:-0.01714478 33:-0.02254536 34:0.02364868 35:0.00470694 36:-0.01127224 37:0.00237858 38:0.0079727 39:0.01445564 40:-0.02982086 41:0.018601 42:-0.00257556 43:0.00634472 44:4.432e-05 45:0.0083204 46:-0.00827346 47:-0.04123076 48:0.00083176 49:0.00249698 50:-0.02020414 
1 1 0 1:-0.00659954 2:0.00544784 3:0.0005645 4:0.00576128 5:-0.00987586 6:0.00961224 7:0.00718226 8:-0.00323464 9:-0.03094022 10:-0.00718884 11:-0.00261642 12:0.00648366 13:-0.01270616 14:0.01171834 15:-0.03855006 16:-0.0098483 17:0.01981646 18:-0.00889356 19:-0.01383088 20:0.00512152 21:-0.00013212 22:0.0270019 23:0.01059524 24:-0.00325388 25:-0.01795996 26:-0.00282216 27:0.0356151 28:-0.01973156 29:-0.01438458 30:0.00265172 31:0.0072392 32:-0.00226448 33:-0.02056072 34:0.02278258 35:0.00124564 36:-0.01370914 37:0.02574758 38:0.0079708 39:-0.0091481 40:-0.04060288 41:0.01319914 42:-0.007715 43:-0.0006546 44:0.01601206 45:0.00824096 46:-0.01027498 47:-0.03262152 48:0.00242886 49:0.00854622 50:-0.02918102 
0 1 1 1:-0.00121978 2:0.01170758 3:0.03339276 4:-0.00573784 5:-0.05538528 6:0.02126904 7:0.1235337 8:-0.0633587 9:-0.13034852 10:-0.00294656 11:0.0308145 12:0.03334386 13:-0.08700152 14:-0.01270342 15:-0.1364398 16:-0.06625258 17:0.13049456 18:-0.03858876 19:0.01098944 20:-0.02076914 21:-0.0336682 22:0.12973392 23:0.1119412 24:0.00289386 25:-0.0599426 26:-0.0494666 27:0.11554392 28:-0.08967512 29:-0.05429982 30:0.0001571 31:0.11041222 32:-0.04872544 33:-0.08613722 34:0.1409735 35:0.0100722 36:-0.06848716 37:0.01847492 38:0.02330694 39:0.04400338 40:-0.09164704 41:0.0942217 42:-0.02166454 43:0.04725086 44:0.01209722 45:0.10507588 46:-0.0056772 47:-0.19477968 48:-0.00633958 49:0.03613556 50:-0.10079582 
0.7833764088527702 1 1 1:-0.01058086 2:0.0219805 3:-0.00533448 4:-0.00633594 5:-0.01569358 6:-0.0001721 7:0.02859196 8:-0.02827526 9:-0.04802574 10:-0.00073438 11:0.0082504 12:0.00785234 13:-0.02755586 14:0.01579174 15:-0.0425617 16:-0.0317788 17:0.04990224 18:-0.01244658 19:-0.00556898 20:0.00265696 21:-0.0253343 22:0.03960524 23:0.03910208 24:-0.00101838 25:-0.02236624 26:-0.02023558 27:0.04816582 28:-0.01732582 29:-0.02157376 30:0.00018934 31:0.01960646 32:-0.04361498 33:-0.03710152 34:0.04072756 35:0.01371446 36:-0.03391722 37:0.03331094 38:-0.001516 39:0.0208365 40:-0.05343664 41:0.02625824 42:-0.01731726 43:0.01995956 44:0.00997718 45:0.0253345 46:-0.00557816 47:-0.0867543 48:0.00578048 49:-0.00781026 50:-0.03888404 
0 0 1 1:0.00213056 2:0.02377502 3:-0.00044072 4:-0.0081511 5:-0.02477214 6:0.00942704 7:0.04351362 8:-0.03568624 9:-0.07280136 10:0.0095303 11:0.0140231 12:0.02074954 13:-0.02234468 14:-0.00371684 15:-0.05985356 16:-0.05767936 17:0.07569808 18:-0.00987918 19:-0.00665274 20:0.01393794 21:-0.00978086 22:0.06820792 23:0.04153922 24:-0.01895726 25:-0.02909746 26:-0.01549494 27:0.06577704 28:-0.0484287 29:-0.01805648 30:0.01428712 31:0.0406186 32:-0.04464398 33:-0.05051652 34:0.05252334 35:0.0241447 36:-0.0531181 37:0.0177551 38:0.01529976 39:0.02897642 40:-0.05979952 41:0.03453702 42:-0.01301588 43:0.01462264 44:0.00221748 45:0.05027298 46:-0.01993846 47:-0.10319388 48:-0.0017665 49:0.0149597 50:-0.04267094 
1 0.2683518745711838 1 1:0.01709722 2:-0.00526708 3:0.00686722 4:0.0071397 5:-0.01655434 6:0.0086691 7:0.0211364 8:-0.02523198 9:-0.03903338 10:0.0026643 11:0.01717808 12:0.00725156 13:-0.02792758 14:0.00971224 15:-0.03172186 16:-0.01454614 17:0.0631226 18:-0.02135804 19:0.00193382 20:-0.00341268 21:-0.0066348 22:0.044239 23:0.04232994 24:-0.00584428 25:-0.02287182 26:-0.0233173 27:0.03905448 28:-0.03876356 29:-0.01488262 30:0.00933686 31:0.03698206 32:-0.02937964 33:-0.03287524 34:0.0276578 35:-0.0149885 36:0.01520588 37:0.0203886 38:0.00597138 39:0.01124672 40:-0.01732144 41:0.03820556 42:-0.02027874 43:0.02278446 44:0.01136104 45:0.02088438 46:-0.00819132 47:-0.06628546 48:0.00713908 49:-0.00484522 50:-0.02392904 
0 0 1 1:0.0036264 2:0.00650192 3:0.0273666 4:-0.0062874 5:-0.0228242 6:0.00271724 7:0.05801368 8:-0.05355646 9:-0.0638065 10:-0.0102206 11:0.03603476 12:0.03678658 13:-0.0485605 14:0.00961354 15:-0.06454932 16:-0.03594548 17:0.09823578 18:-0.02755816 19:0.0114576 20:0.02421734 21:-0.00675408 22:0.06912624 23:0.07362118 24:-0.026214 25:-0.04734794 26:-0.03200902 27:0.08391236 28:-0.05144472 29:-0.03450442 30:0.02440632 31:0.0555002 32:-0.0515466 33:-0.06148936 34:0.06391134 35:0.00235646 36:-0.01362428 37:0.02031022 38:0.01315116 39:0.03429942 40:-0.05120504 41:0.062342 42:-0.03110236 43:0.03757228 44:-0.01309106 45:0.04046424 46:-0.00919638 47:-0.1019547 48:0.01502504 49:0.00409854 50:-0.02617518 
1 0.3016789413502033 1 1:-0.0023815 2:0.00242242 3:0.01528332 4:-0.00141406 5:-0.03246456 6:0.00771652 7:0.01477724 8:-0.0326947 9:-0.05330474 10:-0.00583848 11:0.01243124 12:0.00496888 13:-0.03040174 14:-0.0014132 15:-0.05230328 16:-0.02939436 17:0.05691276 18:-0.01520782 19:-0.01347576 20:-0.00866132 21:-0.03123658 22:0.04055504 23:0.0365755 24:-0.01036686 25:-0.03060186 26:-0.01869804 27:0.03901774 28:-0.04551576 29:-0.02497784 30:0.0233153 31:0.03190962 32:-0.02727252 33:-0.03557504 34:0.04589364 35:-1.148e-05 36:-0.02425658 37:0.0005167 38:0.00501016 39:0.01813768 40:-0.01687506 41:0.02826238 42:-0.02099236 43:0.02098334 44:0.00230774 45:0.02645926 46:-0.0019267 47:-0.07250304 48:0.0008684 49:-0.0190162 50:-0.03676246 
1 0.3391572648137011 1 1:0.01240932 2:0.0121713 3:0.01619026 4:0.00089448 5:-0.01351798 6:0.0128922 7:0.00983498 8:-0.01513986 9:-0.0289725 10:0.00563384 11:0.01407916 12:0.00800922 13:-0.01724978 14:0.00399202 15:-0.03460574 16:-0.03330938 17:0.0296683 18:-0.00853786 19:-0.00932002 20:0.00500586 21:-0.00293292 22:0.04042394 23:0.02887916 24:-0.01347414 25:-0.01392164 26:-0.0086412 27:0.02629148 28:-0.02289456 29:-0.02146676 30:0.01299796 31:0.02944984 32:-0.0242517 33:-0.03099408 34:0.02758094 35:-0.00645426 36:-0.0038953 37:0.01343492 38:-0.01205608 39:0.01422632 40:-0.02395422 41:0.02463476 42:-0.00615164 43:0.01365384 44:-0.00045062 45:0.00809652 46:-0.01482346 47:-0.04282178 48:0.00780636 49:-0.0065166 50:-0.0168166 
1 0 1 1:0.00410958 2:0.00742128 3:-0.00058176 4:0.00264024 5:-0.02772116 6:0.01251198 7:0.01603148 8:-0.00085964 9:-0.03054682 10:-0.00089686 11:0.00362748 12:0.00668882 13:-0.0144567 14:-0.0027618 15:-0.03522004 16:-0.03061222 17:0.04026474 18:-0.00268972 19:-0.0045061 20:-0.00535352 21:-0.00103002 22:0.03008292 23:0.03245442 24:-0.00333534 25:-0.0229396 26:-0.00386474 27:0.03267878 28:-0.02628364 29:-0.024418 30:0.00129628 31:0.01258114 32:-0.02682828 33:-0.03398676 34:0.02617122 35:0.00497426 36:-0.0088817 37:0.01985522 38:0.00871958 39:-0.00179052 40:-0.02416478 41:0.01567106 42:0.0055183 43:0.0126842 44:0.00984232 45:0.01706018 46:-0.01141272 47:-0.04339336 48:-0.00075858 49:-0.00096646 50:-0.02231362 
1 0 1 1:-0.01540466 2:0.00782374 3:-0.00997278 4:-0.00965746 5:-0.00035304 6:0.00360522 7:0.00582266 8:-0.02853542 9:-0.0296048 10:-0.01431604 11:0.00221418 12:-0.00443734 13:-0.02357088 14:0.00526588 15:-0.03327162 16:-0.0240187 17:0.02007992 18:-0.02244382 19:-0.00657362 20:0.00361874 21:-0.00804146 22:0.02494284 23:0.04028094 24:0.00236374 25:-0.01837154 26:0.0090106 27:0.03867106 28:-0.01513678 29:-0.01585466 30:0.0056927 31:0.01937296 32:-0.0268948 33:-0.03212736 34:0.0318292 35:0.00360234 36:-0.02830354 37:0.00491108 38:0.00559062 39:0.0136433 40:-0.022242 41:0.02838604 42:-0.02597838 43:0.013013 44:-0.00338138 45:0.01264134 46:-0.02163944 47:-0.03591726 48:0.00103804 49:-0.01464368 50:-0.0222457 
0 1 1 1:0.02331356 2:0.01056326 3:-0.01858752 4:0.00257434 5:-0.10446718 6:-0.00560628 7:0.06410098 8:-0.10182562 9:-0.10735638 10:-0.00701852 11:0.0205539 12:0.0315931 13:-0.07127394 14:0.00691194 15:-0.18504904 16:-0.07578774 17:0.14942574 18:-0.08093042 19:-0.018472 20:-0.02713246 21:-0.02596688 22:0.15007632 23:0.11788786 24:0.00534828 25:-0.1028627 26:-0.06250602 27:0.14067884 28:-0.11137844 29:-0.07165456 30:0.01544388 31:0.09965974 32:-0.07275562 33:-0.13146342 34:0.16871878 35:0.02273646 36:-0.08568576 37:0.0214836 38:0.0100938 39:0.03858038 40:-0.11885206 41:0.12290528 42:-0.03834092 43:0.03811194 44:-0.02751354 45:0.06839674 46:-0.0186032 47:-0.20951938 48:-0.00419932 49:-0.01484168 50:-0.09436102 
1 1 1 1:-0.0008936 2:-0.00368516 3:-0.00381902 4:-0.00218086 5:-0.00696404 6:0.00651582 7:0.02029206 8:-0.00470322 9:-0.01955436 10:-0.00338244 11:-0.00679244 12:0.00791204 13:-0.00341262 14:-0.00484302 15:-0.01371304 16:-0.0181826 17:0.01375558 18:-0.00349488 19:-0.00651718 20:-0.00047556 21:-0.0023801 22:0.0151432 23:0.00751838 24:0.00326812 25:-0.00936504 26:-0.00419452 27:0.0177499 28:-0.0128731 29:-0.00872978 30:0.00305544 31:0.01482604 32:-0.00918882 33:-0.0141156 34:0.01884926 35:0.00326428 36:-0.01405232 37:0.01004616 38:0.00575608 39:0.00347682 40:-0.01611172 41:-0.00392262 42:-0.00416934 43:0.00369288 44:0.00101936 45:0.002158 46:-0.0037848 47:-0.02500216 48:-0.00514998 49:-0.0003895 50:-0.01698046 
1 0.9442102857260612 1 1:0.00299318 2:0.01120338 3:0.0001984 4:0.00187432 5:0.00041234 6:0.00468558 7:0.02285542 8:-0.00119586 9:-0.01413224 10:-0.0042484 11:0.00152018 12:0.00746052 13:-0.00572488 14:-0.000382 15:-0.0173842 16:-0.00852444 17:0.02000776 18:-0.0031942 19:0.00372106 20:0.00412752 21:0.00192562 22:0.01007296 23:0.01505276 24:-0.00466752 25:-0.00630002 26:-0.00574654 27:0.0231288 28:-0.01350908 29:-0.0018013 30:0.00452434 31:0.01148606 32:-0.0080937 33:-0.0199392 34:0.0197211 35:0.00293098 36:-0.01240588 37:0.0039828 38:0.00250264 39:0.01383072 40:-0.01639714 41:0.00937406 42:-0.00210482 43:0.00252952 44:0.00233878 45:0.01535074 46:-0.00463816 47:-0.0264149 48:0.00251298 49:0.00423848 50:-0.0054202 
1 1 1 1:-0.00148606 2:-0.00512382 3:0.00717564 4:-0.00706174 5:-0.0041673 6:-0.00231064 7:0.03126104 8:5.358e-05 9:-0.01875838 10:0.00060162 11:0.00138238 12:0.01272276 13:-0.00374668 14:-0.00225816 15:-0.03044656 16:-0.01668438 17:0.02622996 18:-0.01672654 19:0.0059946 20:-0.00752828 21:-0.00163828 22:0.01459202 23:0.02817224 24:-0.00583144 25:-0.02182744 26:-0.00386984 27:0.02125734 28:-0.02016118 29:-0.00094492 30:0.0052109 31:0.0295577 32:-0.01167124 33:-0.01724834 34:0.0267828 35:-0.00236088 36:-0.01758742 37:0.00485588 38:0.00394472 39:0.01712734 40:-0.03820442 41:0.01225642 42:0.00158108 43:0.00115074 44:0.00348624 45:0.01855864 46:-0.0084187 47:-0.03993258 48:0.00961626 49:0.00348388 50:-0.00710172 
0.9191210497323121 1 1 1:0.0001686 2:-0.0117482 3:0.0263832 4:-0.0062813 5:-0.03575882 6:0.00802984 7:0.0612273 8:-0.04677128 9:-0.06713654 10:0.01273546 11:-0.00221256 12:0.01890036 13:-0.03316332 14:-0.00764646 15:-0.06276994 16:-0.03566484 17:0.08536506 18:-0.004561 19:-0.00081762 20:0.01004246 21:-0.00069416 22:0.0691552 23:0.0496307 24:0.00738868 25:-0.03486662 26:-0.01357152 27:0.05939756 28:-0.05907204 29:-0.0285063 30:-0.02098114 31:0.070568 32:-0.06364414 33:-0.06100714 34:0.04826684 35:-0.01113472 36:-0.03084626 37:0.01618684 38:0.00294216 39:0.02629106 40:-0.02772218 41:0.04474632 42:-0.02999496 43:0.00047264 44:-0.00198304 45:0.02863192 46:0.00443098 47:-0.11358262 48:0.00808362 49:-0.00921356 50:-0.0393199 
0.06015743009048167 1 1 1:0.00740704 2:-0.00851558 3:0.0135553 4:-0.00076106 5:-0.01990584 6:0.0100663 7:0.05124526 8:-0.0267219 9:-0.05333916 10:0.00298612 11:0.01702076 12:0.02394702 13:-0.0358143 14:0.00523052 15:-0.04710256 16:-0.03228464 17:0.05576602 18:-0.02722698 19:0.00356164 20:0.0003489 21:-0.00807798 22:0.04775238 23:0.05532038 24:-0.00853584 25:-0.02652614 26:-0.0196233 27:0.06621384 28:-0.04709382 29:-0.02772498 30:-0.00417286 31:0.04261204 32:-0.03185674 33:-0.04089762 34:0.04778262 35:0.00848734 36:-0.01956174 37:0.00897534 38:0.00032194 39:0.02652758 40:-0.04240548 41:0.04877314 42:-0.01227712 43:0.020016 44:0.00700724 45:0.04369774 46:-0.0059122 47:-0.0903592 48:-0.00186884 49:0.01125356 50:-0.04122254 
0 0.6831701446201544 1 1:0.0056215 2:-0.0093955 3:-0.00488684 4:0.01605906 5:-0.04629376 6:0.00929646 7:0.06195152 8:-0.05358924 9:-0.0887097 10:-0.02696484 11:0.00907632 12:0.0301458 13:-0.051462 14:-0.00626102 15:-0.07340868 16:-0.05118034 17:0.12236466 18:-0.01144396 19:0.00153172 20:0.00264732 21:-0.02942964 22:0.1056987 23:0.07696572 24:-0.00878828 25:-0.06044108 26:-0.03353008 27:0.09986826 28:-0.081291 29:-0.07860944 30:0.0062985 31:0.08070788 32:-0.07957004 33:-0.09175516 34:0.10034756 35:-0.00979444 36:-0.05479438 37:0.04007964 38:0.012209 39:0.02827022 40:-0.0655242 41:0.06946724 42:-0.02976062 43:0.01859556 44:-0.01545028 45:0.06637204 46:0.00168248 47:-0.15119264 48:0.01355318 49:0.01015496 50:-0.05649938 
1 1 1 1:0.01867808 2:0.02371078 3:0.00674632 4:0.00160288 5:0.00626194 6:-0.02170758 7:-0.00557542 8:-0.0176693 9:-0.0207514 10:-0.00994008 11:0.00250554 12:0.02602684 13:-0.02719224 14:0.00384106 15:-0.00010186 16:-0.02038676 17:-0.00820286 18:-0.00940744 19:-0.0070958 20:0.00718006 21:-0.00729124 22:-0.00461108 23:0.0174697 24:0.02490306 25:-0.0190599 26:0.01903304 27:0.00504936 28:-0.0299045 29:-0.02113286 30:-0.0138478 31:0.0228954 32:-0.01039758 33:-0.00353254 34:0.03377132 35:0.00868086 36:0.00279012 37:0.00877258 38:-0.01204222 39:0.01846654 40:-0.02089394 41:0.0111998 42:-0.02070192 43:0.01177126 44:-0.00394698 45:0.00111178 46:-0.00706264 47:-0.0215736 48:0.00901496 49:-0.0176772 50:-0.00055362 
1 1 1 1:0.03773428 2:0.0191042 3:-0.00510468 4:-0.0075614 5:-0.00920626 6:0.0057159 7:0.05792848 8:-0.02428562 9:-0.0477332 10:-0.0144534 11:0.01237634 12:0.03445934 13:-0.05736748 14:-0.00302346 15:-0.05086108 16:-0.0281531 17:0.04795134 18:-0.0245457 19:-0.01380886 20:-0.000846 21:-0.01301562 22:0.03210478 23:0.0263367 24:-0.01450654 25:-0.03868438 26:0.01908366 27:0.03843346 28:-0.03607358 29:-0.04467008 30:0.0029152 31:0.03232086 32:-0.03107316 33:-0.03006516 34:0.06241526 35:0.01104424 36:0.00057552 37:0.00288314 38:-0.01236204 39:0.02770802 40:-0.0229108 41:0.02715488 42:-0.01560566 43:0.03411298 44:0.00532214 45:0.02090034 46:-0.00723194 47:-0.07936 48:0.01106044 49:-0.01603058 50:-0.03125594 
0 0 1 1:-0.00863142 2:0.0013461 3:0.00153724 4:0.01602488 5:-0.08121598 6:0.00753974 7:0.12812932 8:-0.05497832 9:-0.10948486 10:-0.01814148 11:-0.0087709 12:0.02899016 13:-0.06030968 14:0.00397616 15:-0.1242588 16:-0.08978968 17:0.14584944 18:-0.02705664 19:-0.03615826 20:0.00655908 21:0.00218666 22:0.11781444 23:0.10202744 24:-0.0122562 25:-0.07397848 26:0.00535392 27:0.1224339 28:-0.0937751 29:-0.04595872 30:0.023186 31:0.12206288 32:-0.08638736 33:-0.11658632 34:0.09368566 35:0.01102138 36:-0.06223698 37:0.02269172 38:-0.0048901 39:0.04588534 40:-0.0741836 41:0.0948144 42:-0.02316202 43:0.04574608 44:-0.01576524 45:0.07863182 46:-0.01705874 47:-0.19257702 48:-0.02292716 49:0.0009514 50:-0.05887632 
1 0.9099550186239252 1 1:0.00131962 2:-0.02569184 3:0.00313946 4:0.0035106 5:-0.01676334 6:-0.00553884 7:0.03436908 8:-0.0124339 9:-0.03237956 10:-0.00394008 11:0.00767366 12:-0.00818782 13:-0.06951822 14:-0.0005026 15:-0.05672944 16:-0.05916678 17:0.0467907 18:-0.0336283 19:0.0075592 20:-0.00520402 21:-0.04412462 22:0.08016142 23:0.0540936 24:0.01363728 25:-0.04022626 26:-0.01709554 27:0.05145884 28:-0.01864418 29:-0.00590822 30:0.0163017 31:0.01824528 32:-0.03485114 33:-0.07521216 34:0.0118861 35:-0.0193123 36:-0.0189722 37:0.00364098 38:-0.02542792 39:-0.00057654 40:-0.00634282 41:0.05305092 42:-0.01449326 43:0.00217702 44:-0.00121838 45:0.03379406 46:-0.0316788 47:-0.05178168 48:0.03518068 49:-0.00636402 50:-0.01586406 
0 0 1 1:0.01067894 2:0.00490058 3:0.00432256 4:0.01188148 5:-0.04677884 6:0.02613644 7:0.05689106 8:-0.02975938 9:-0.0651637 10:0.00684326 11:0.02618006 12:0.03667428 13:-0.0425772 14:0.01091932 15:-0.09301758 16:-0.03531886 17:0.09962106 18:-0.02583802 19:-0.0099419 20:-0.00439218 21:-0.02578334 22:0.0771471 23:0.0656071 24:-0.00183868 25:-0.04479738 26:-0.0151679 27:0.07318364 28:-0.08090202 29:-0.03018268 30:-0.00082296 31:0.05660236 32:-0.05165368 33:-0.07512018 34:0.08151596 35:0.01707222 36:-0.02735118 37:0.02353572 38:0.01985274 39:0.01972124 40:-0.06619184 41:0.06102896 42:-0.01732614 43:0.04503158 44:0.02663774 45:0.05046488 46:0.01700604 47:-0.129751 48:-0.00749056 49:0.0202724 50:-0.0351395 
1 1 1 1:0.0046661 2:-0.00538086 3:0.01270928 4:0.00048998 5:-0.02470956 6:-0.00553384 7:0.02958252 8:-0.03958538 9:-0.04356108 10:-0.0091831 11:0.00045192 12:0.0126979 13:-0.0368164 14:-0.00398872 15:-0.04764986 16:-0.04210702 17:0.04055222 18:-0.022507 19:-0.01657108 20:0.01471962 21:-0.00510234 22:0.0449838 23:0.02446182 24:0.0011592 25:-0.01771522 26:-0.02732388 27:0.04714866 28:-0.0415324 29:-0.02865436 30:0.01424172 31:0.042398 32:-0.03720586 33:-0.01728716 34:0.0639652 35:0.00881154 36:-0.01744826 37:0.01470378 38:0.00871498 39:0.02141728 40:-0.0261797 41:0.01711518 42:-0.02993118 43:0.0290475 44:-0.00058052 45:0.03143576 46:0.00716428 47:-0.06999546 48:0.01186988 49:-0.01409848 50:-0.03612278 
0 0 1 1:0.01811812 2:-0.02076872 3:0.00493454 4:0.00490108 5:-0.02624238 6:0.00335906 7:0.03782084 8:-0.0309549 9:-0.07385142 10:0.00360856 11:0.0006982 12:0.01656966 13:-0.03622494 14:0.01427952 15:-0.06766648 16:-0.03473526 17:0.07439112 18:-0.03413412 19:-0.00203608 20:7.14e-05 21:-0.0155553 22:0.05113416 23:0.05470092 24:-0.01451062 25:-0.01685018 26:-0.01515292 27:0.06221812 28:-0.03849304 29:-0.04633622 30:0.00881876 31:0.04509014 32:-0.04127188 33:-0.06282748 34:0.0575411 35:0.0164212 36:-0.0355872 37:0.00661286 38:0.02525912 39:0.03559988 40:-0.06158168 41:0.04860182 42:-0.01678176 43:0.00336888 44:-0.00884982 45:0.0382982 46:-0.0124354 47:-0.11405974 48:-0.01732956 49:-0.00431428 50:-0.02990366 
0 1 1 1:0.01591184 2:-0.00509254 3:0.03232988 4:-0.01311832 5:-0.08818152 6:-0.0073023 7:0.05216714 8:-0.04890604 9:-0.11258782 10:-0.01360062 11:0.03108776 12:0.0187594 13:-0.08707196 14:-0.02002024 15:-0.09862584 16:-0.10088172 17:0.10611166 18:-0.07596712 19:-0.03754872 20:-0.01616132 21:-0.04982872 22:0.0826139 23:0.1031473 24:0.0317654 25:-0.07633256 26:-0.01986016 27:0.09172272 28:-0.10805052 29:-0.07385452 30:-0.00597156 31:0.09517392 32:-0.06517682 33:-0.06890032 34:0.12076872 35:0.02354306 36:-0.04114426 37:0.0007819 38:-0.00971674 39:0.02685446 40:-0.08924076 41:0.08960456 42:-0.01490276 43:0.06837846 44:0.01185516 45:0.07784056 46:-0.02766962 47:-0.19504378 48:0.00415256 49:-0.03332994 50:-0.09035396 
0 1 1 1:-0.00926976 2:0.0309531 3:0.01130326 4:-0.00463868 5:-0.09192714 6:0.03941064 7:0.07036476 8:-0.0712658 9:-0.11280424 10:-0.00081582 11:-0.00409148 12:0.03230176 13:-0.07838558 14:-0.02857572 15:-0.13446576 16:-0.08944724 17:0.13868222 18:-0.09804418 19:-0.00120012 20:-0.03385184 21:-0.09408124 22:0.16694036 23:0.07904302 24:0.02774048 25:-0.03974556 26:-0.02837528 27:0.07392314 28:-0.13275094 29:-0.01307098 30:-0.00781664 31:0.08245478 32:-0.0708559 33:-0.12563012 34:0.12434986 35:0.0512911 36:-0.05748062 37:0.0318074 38:0.03850904 39:0.037127 40:-0.10133796 41:0.0545359 42:-0.0279284 43:0.07250406 44:0.00616428 45:0.08218058 46:-0.01666194 47:-0.20147368 48:-0.02122378 49:0.02709634 50:-0.06213548 
0 1 1 1:0.02555416 2:-0.02160622 3:-0.00783166 4:0.00781732 5:-0.05236806 6:-0.00393054 7:0.09903226 8:-0.05510068 9:-0.08247672 10:-0.00449586 11:7.566e-05 12:0.01539912 13:-0.0654373 14:0.00917524 15:-0.08280222 16:-0.05508754 17:0.11081122 18:-0.03192204 19:-0.01645036 20:-0.01819412 21:-0.015448 22:0.06168476 23:0.05636118 24:-0.01398398 25:-0.07014106 26:-0.02225878 27:0.07480704 28:-0.05167856 29:-0.0561669 30:0.00112614 31:0.08207154 32:-0.07543798 33:-0.05436536 34:0.10349058 35:0.02370716 36:-0.05209316 37:0.03840358 38:0.02860422 39:0.03557806 40:-0.06218128 41:0.04233766 42:-0.02735076 43:0.0044187 44:0.00081422 45:0.05436782 46:0.00159486 47:-0.15225448 48:-0.00397868 49:0.00658064 50:-0.06761496 
0 1 1 1:0.00170876 2:0.00492248 3:0.01666412 4:0.02119078 5:-0.05351494 6:0.01916252 7:0.07881574 8:-0.03449122 9:-0.09343542 10:-0.0202784 11:0.0063795 12:-0.00517856 13:-0.0485243 14:-0.02084886 15:-0.10968504 16:-0.0625536 17:0.08909884 18:-0.03908976 19:-0.02792864 20:-0.00339322 21:-0.04880994 22:0.09414398 23:0.07905614 24:-0.01697726 25:-0.0323097 26:-0.01732182 27:0.0850768 28:-0.1015847 29:-0.0810655 30:0.00622442 31:0.08599984 32:-0.0640553 33:-0.0867762 34:0.12337646 35:0.02104902 36:-0.0592581 37:0.02759486 38:0.02685168 39:0.04621672 40:-0.10556108 41:0.07045242 42:-0.02010114 43:0.03437956 44:0.01557374 45:0.05568616 46:-0.01593536 47:-0.15949054 48:0.02375382 49:-0.02183972 50:-0.08488384 
1 0.4371188701496344 1 1:-0.01284478 2:0.00277302 3:0.00883762 4:-0.00093254 5:-0.0266304 6:0.00215152 7:0.0326649 8:-0.02914648 9:-0.0395048 10:-0.0037168 11:0.01992722 12:0.00739712 13:-0.02855312 14:-0.01158274 15:-0.05647922 16:-0.00799584 17:0.05925584 18:-0.0179372 19:0.00369464 20:-0.01014004 21:-0.01539832 22:0.04064502 23:0.0226025 24:-0.00544558 25:-0.01322542 26:-0.01116376 27:0.03543914 28:-0.0209659 29:-0.02065652 30:-0.00217134 31:0.02738924 32:-0.02656276 33:-0.03056226 34:0.03961114 35:0.02337988 36:-0.0253053 37:0.00431174 38:0.00178002 39:0.0316361 40:-0.0153044 41:0.02774048 42:-0.00113106 43:0.01003384 44:-0.00213246 45:0.02334562 46:0.00508138 47:-0.06195656 48:0.00925172 49:-0.00901742 50:-0.03197976 
0 0 1 1:-0.01380936 2:-0.00279512 3:0.00321322 4:-0.0052504 5:-0.06910522 6:0.03838822 7:0.04352058 8:-0.0579545 9:-0.10351406 10:-0.01250524 11:0.0564906 12:0.05530128 13:-0.06447908 14:-0.00894588 15:-0.12254506 16:-0.08652128 17:0.16932018 18:-0.02991448 19:-0.01283046 20:0.01932174 21:-0.05238674 22:0.12513962 23:0.09445922 24:-0.02054838 25:-0.05497704 26:-0.02960946 27:0.09874484 28:-0.11803042 29:-0.06551698 30:0.02892398 31:0.08402278 32:-0.1055973 33:-0.1049455 34:0.10854602 35:-0.0059777 36:-0.0235756 37:0.05983562 38:-0.00461704 39:0.03046874 40:-0.0686019 41:0.05587714 42:-0.03248226 43:0.05687244 44:-0.00767256 45:0.05145636 46:-0.03218328 47:-0.18169346 48:0.02292812 49:-0.0298917 50:-0.08414348 
0.1690195549745744 1 1 1:0.01700054 2:0.016173 3:0.01784132 4:0.000407 5:-0.06769024 6:0.00947094 7:0.06076678 8:-0.04556568 9:-0.07861718 10:-0.0181949 11:-0.00782966 12:0.00064112 13:-0.07226174 14:-0.00563258 15:-0.0621425 16:-0.0517682 17:0.08007162 18:-0.0237544 19:0.01106902 20:-0.00683018 21:-0.00157284 22:0.05043588 23:0.07260168 24:-0.00291892 25:-0.03560116 26:-0.01067918 27:0.08146796 28:-0.08727378 29:-0.05154746 30:-0.00022288 31:0.0776869 32:-0.04079664 33:-0.05855916 34:0.05397484 35:-0.01958328 36:-0.02881378 37:0.0033541 38:-0.01426412 39:0.00930394 40:-0.06557914 41:0.03906636 42:-0.05327506 43:0.04356298 44:0.0136145 45:0.06042534 46:-0.024158 47:-0.13800314 48:0.00489898 49:0.00891412 50:-0.06867668 
1 0 1 1:0.00227724 2:0.00867036 3:0.00231676 4:-0.00100496 5:-0.0083884 6:0.00165678 7:0.02755868 8:-0.01398824 9:-0.02488096 10:0.0057884 11:0.00548646 12:0.00705496 13:-0.0066206 14:0.00589802 15:-0.0287963 16:-0.013534 17:0.03380138 18:-0.0029043 19:0.00412214 20:-0.00101546 21:-0.0008599 22:0.02195152 23:0.0246188 24:-0.00708978 25:-0.0090806 26:-0.00952852 27:0.02781162 28:-0.0168467 29:-0.00894302 30:0.00029988 31:0.01824046 32:-0.01431272 33:-0.01892286 34:0.02294366 35:0.00545256 36:-0.01396598 37:0.00384128 38:0.0092407 39:0.0154704 40:-0.02580492 41:0.01271562 42:0.00088306 43:-8.212e-05 44:-0.00347194 45:0.02053072 46:-0.00264826 47:-0.03739462 48:-0.00159754 49:0.00227876 50:-0.01188164 
0.5973531100852334 1 0 1:0.00614426 2:5.324e-05 3:-0.0069838 4:-0.0078958 5:-0.00459436 6:0.00771416 7:0.03411818 8:-0.01662052 9:-0.05181792 10:0.00090184 11:0.00859794 12:0.00638324 13:-0.01221878 14:0.00154896 15:-0.05356786 16:-0.02427342 17:0.06693102 18:-0.0107748 19:-0.00650892 20:0.0115343 21:-0.0086411 22:0.03267982 23:0.01904072 24:-0.00735318 25:-0.03561076 26:-0.01544724 27:0.02697732 28:-0.03543096 29:-0.00825782 30:-0.01835784 31:0.02555862 32:-0.02033134 33:-0.03493858 34:0.05033282 35:0.02255848 36:-0.0126252 37:0.01504576 38:0.0074263 39:0.0151318 40:-0.04737286 41:0.01255368 42:0.01268748 43:0.02890008 44:0.00137288 45:0.03347504 46:-0.01695616 47:-0.05727312 48:0.00015434 49:-0.0075308 50:-0.0239336 
1 0.9197069606931393 1 1:0.00308352 2:-0.00729902 3:0.00249052 4:-0.00451826 5:-0.02488462 6:0.00440522 7:0.02921842 8:-0.0072451 9:-0.03414852 10:-0.00274596 11:0.00149916 12:0.00558704 13:-0.01817218 14:-0.01415752 15:-0.03566838 16:-0.01947356 17:0.03367318 18:-0.00980972 19:-0.00832844 20:-0.0031113 21:-0.00620502 22:0.0279708 23:0.02611436 24:0.00106808 25:-0.02484952 26:-0.0052424 27:0.03353896 28:-0.02849396 29:-0.02324036 30:0.01642496 31:0.0240851 32:-0.02236596 33:-0.024598 34:0.02738376 35:0.00561224 36:-0.01600812 37:0.0122523 38:0.006823 39:0.01196986 40:-0.01842414 41:0.00860732 42:-0.00273446 43:0.0086253 44:-0.00663294 45:0.02265676 46:-0.00832604 47:-0.0505073 48:-0.002558 49:0.00570446 50:-0.0185393 
1 0 1 1:-0.00524342 2:-0.00622324 3:0.01290134 4:0.0147054 5:-0.03210776 6:0.01004452 7:0.04504756 8:-0.02359802 9:-0.06407264 10:-0.0018103 11:0.01596816 12:0.00190108 13:-0.03596002 14:-0.00057016 15:-0.07792016 16:-0.0281398 17:0.07278558 18:-0.042393 19:-0.00666206 20:-0.02876736 21:-0.03988358 22:0.05346112 23:0.03875278 24:-0.00016454 25:-0.00012528 26:-0.01716394 27:0.06019798 28:-0.02238844 29:-0.03024114 30:0.00979324 31:0.05696698 32:-0.0276635 33:-0.06007264 34:0.07720708 35:0.01863784 36:-0.02022196 37:-1.286e-05 38:0.01315636 39:0.0227853 40:-0.01939484 41:0.0480096 42:0.00183194 43:0.005446 44:0.00658482 45:0.03065474 46:0.0159971 47:-0.0785992 48:-0.00665992 49:0.00612598 50:-0.02857402 
0 0 1 1:-0.02212224 2:-0.00991738 3:-0.0045944 4:0.00899452 5:-0.02102762 6:0.00819494 7:0.05843582 8:-0.04042612 9:-0.06900872 10:-0.00902468 11:0.02875622 12:0.01403482 13:-0.03253578 14:0.01366648 15:-0.08951432 16:-0.03109562 17:0.11311394 18:-0.02502644 19:-0.00433202 20:-0.0005309 21:-0.01784632 22:0.075206 23:0.05237866 24:-0.01439124 25:-0.03902694 26:-0.0096974 27:0.09377954 28:-0.0641446 29:-0.03376166 30:0.015131 31:0.0606296 32:-0.04745872 33:-0.06763776 34:0.06554778 35:0.0094234 36:-0.02582948 37:0.02599826 38:0.01122932 39:0.0239577 40:-0.0378741 41:0.05381004 42:-0.0197345 43:0.02225948 44:-0.03027944 45:0.01485994 46:-0.0005251 47:-0.1181796 48:-0.00748438 49:-0.00883486 50:-0.0386835 
1 1 1 1:0.00456564 2:0.01416584 3:0.02097582 4:-0.0012653 5:-0.01843378 6:0.0060967 7:0.02904316 8:-0.04023232 9:-0.05549186 10:-0.01546548 11:0.00806548 12:0.03542504 13:-0.05562376 14:-0.02806594 15:-0.01818526 16:-0.02549614 17:0.02936464 18:-0.02798388 19:-0.02970366 20:0.01103548 21:-0.01374814 22:0.05855806 23:0.05226026 24:0.0104833 25:-0.0378143 26:-0.01764002 27:0.04270026 28:-0.05972728 29:-0.0406363 30:-0.0006033 31:0.05414806 32:-0.03095732 33:-0.01959116 34:0.06882194 35:0.00157616 36:-0.02637402 37:0.04135316 38:-0.00559128 39:0.0086998 40:-0.06073986 41:0.05218348 42:-0.0332756 43:0.02597078 44:-0.0180761 45:0.02998694 46:-0.00932954 47:-0.0823225 48:-0.00950438 49:-0.01104876 50:-0.02737332 
0 1 1 1:-0.00036078 2:0.00723952 3:-0.00844952 4:0.01171108 5:-0.01798658 6:0.02046104 7:0.04360404 8:-0.00177422 9:-0.03842934 10:-0.00540916 11:-0.00280864 12:0.00422802 13:-0.05241826 14:-0.00876264 15:-0.07475094 16:-0.0283227 17:0.0797643 18:-0.03943338 19:-0.00339978 20:-0.01630698 21:-0.01280004 22:0.07750946 23:0.04978894 24:0.00378372 25:-0.04069754 26:-0.00219654 27:0.06640692 28:-0.06991392 29:-0.02227916 30:-0.01200092 31:0.03528182 32:-0.02667312 33:-0.0526714 34:0.08896658 35:0.0201125 36:-0.04742596 37:0.01355122 38:0.02282822 39:0.02374156 40:-0.0708749 41:0.02172316 42:-0.01877146 43:0.0285796 44:0.0022247 45:0.04913358 46:0.002937 47:-0.09446466 48:0.01295062 49:0.01587262 50:-0.03378864 
0 1 0.7582820180815775 1:0.03399808 2:0.0165322 3:0.03991142 4:-0.00712516 5:-0.03574146 6:0.00483174 7:0.01526086 8:-0.01707268 9:-0.11035138 10:-0.04717226 11:-0.00876852 12:0.01827788 13:-0.07955648 14:-0.00288724 15:-0.0427582 16:-0.06473218 17:-0.00166682 18:-0.04820822 19:-0.01353248 20:-0.01812218 21:-0.02942672 22:0.05066898 23:0.06225056 24:0.0243155 25:-0.0651285 26:-0.0109795 27:0.05638304 28:-0.0714039 29:-0.06574046 30:-0.0140098 31:0.05417036 32:-0.04319638 33:-0.04524304 34:0.1058395 35:0.01847588 36:-0.01156338 37:0.03144714 38:0.00471188 39:-0.01117236 40:-0.05945008 41:0.04925252 42:-0.00307238 43:0.0153797 44:-0.00971288 45:0.07615686 46:-0.02397182 47:-0.098129 48:0.01845202 49:-0.00206038 50:-0.05685656 
1 1 1 1:0.02173912 2:-0.00696236 3:0.02893954 4:-0.0251364 5:-0.02305516 6:0.00106964 7:0.05085762 8:-0.06167936 9:-0.06820148 10:-0.00134068 11:0.04634224 12:0.03259146 13:-0.09040798 14:-0.01760162 15:-0.04957774 16:-0.049835 17:0.04531058 18:-0.06254794 19:-0.01898352 20:0.00083654 21:-0.00774204 22:0.04252372 23:0.05695108 24:0.01165518 25:-0.03050924 26:-0.04032894 27:0.0480876 28:-0.05728756 29:-0.04919894 30:-0.00806898 31:0.05094978 32:-0.0554701 33:-0.0280844 34:0.03800404 35:0.00688946 36:-0.0045233 37:0.00714712 38:-0.0060449 39:-0.01139548 40:-0.0569171 41:0.04922778 42:-0.01477526 43:0.0123559 44:-0.00267422 45:0.02724432 46:-0.00962234 47:-0.0929044 48:-0.00247326 49:-0.0056951 50:-0.046711 
0 1 1 1:0.01789864 2:0.01196874 3:0.00483012 4:-0.01989552 5:-0.03535278 6:0.00079754 7:0.04066952 8:-0.0436585 9:-0.05150862 10:0.00450576 11:0.0156229 12:0.02552958 13:-0.04934158 14:-0.00263102 15:-0.06557798 16:-0.04324524 17:0.08267518 18:-0.0167659 19:0.00242542 20:0.00017432 21:-0.00729578 22:0.0746816 23:0.06972816 24:-0.00204954 25:-0.03186842 26:-0.01919186 27:0.06756814 28:-0.04731222 29:-0.03111874 30:0.01052382 31:0.05494132 32:-0.05919628 33:-0.03409434 34:0.0731913 35:0.0173272 36:-0.04032466 37:0.01185646 38:0.02571376 39:0.02798952 40:-0.07540176 41:0.04929516 42:-0.0059292 43:0.0313128 44:-0.00340292 45:0.07132 46:-0.00011254 47:-0.11211174 48:-0.00322624 49:0.00030358 50:-0.04544686 
1 1 1 1:0.00719844 2:0.00767612 3:0.01984382 4:0.03232466 5:-0.0238193 6:0.01111052 7:0.04555902 8:-0.03048852 9:-0.04837202 10:0.02276392 11:0.02600662 12:0.00010962 13:-0.04038964 14:-0.01156256 15:-0.04632686 16:-0.05350776 17:0.06008336 18:-0.02458272 19:-0.00101722 20:0.01333376 21:-0.01553706 22:0.05628914 23:0.03565656 24:0.00392428 25:-0.02379446 26:-0.03215008 27:0.0249728 28:-0.025093 29:-0.02226202 30:0.01066314 31:0.03136822 32:-0.03108462 33:-0.0475449 34:0.0236791 35:0.02258046 36:-0.01315858 37:0.02800492 38:0.00421168 39:0.02946154 40:-0.04045526 41:0.02745466 42:-0.02621066 43:0.03354016 44:0.00094306 45:0.01238104 46:-0.0152014 47:-0.06366566 48:0.01171938 49:-0.00698482 50:-0.01940546 
1 0 1 1:0.00343482 2:-0.00048626 3:4.906e-05 4:0.00473256 5:-0.02528914 6:0.01399254 7:0.01649744 8:-0.010763 9:-0.01634444 10:0.00303566 11:0.00677618 12:0.00738306 13:-0.01675298 14:-0.00042054 15:-0.02150794 16:-0.02726644 17:0.02923112 18:0.00057328 19:0.00191112 20:4.514e-05 21:-0.0033199 22:0.02159342 23:0.0189764 24:-0.00317286 25:-0.01999528 26:0.00230826 27:0.01958104 28:-0.01875782 29:-0.01595378 30:-0.00511726 31:0.0044209 32:-0.02966202 33:-0.03189766 34:0.01170758 35:-0.00276236 36:-0.00511428 37:0.01184462 38:0.00273994 39:-0.00569556 40:-0.01353516 41:0.02474434 42:0.00274134 43:0.0087033 44:0.01062854 45:0.01543358 46:-0.01299546 47:-0.03155704 48:-0.00563656 49:-0.00725136 50:-0.01714748 
1 0 0 1:-0.00653578 2:0.0314323 3:-0.0082869 4:-0.01100252 5:-0.02640464 6:0.00757314 7:0.04394322 8:-0.0066066 9:-0.05485274 10:-0.0052461 11:-0.02327418 12:0.01213604 13:-0.00750016 14:0.00927412 15:-0.06477558 16:-0.0359633 17:0.04020736 18:-0.02377014 19:-0.02876844 20:-0.00134436 21:-0.00907576 22:0.041099 23:0.02671532 24:0.00186106 25:-0.03257934 26:0.00321238 27:0.03218164 28:-0.02246902 29:-0.0197227 30:-0.01350858 31:0.00479616 32:-0.02263238 33:-0.04470594 34:0.04146776 35:0.01960992 36:-0.01113264 37:0.01094786 38:0.00930862 39:0.00733488 40:-0.05482946 41:0.00623306 42:0.00142128 43:0.03430572 44:-0.00280704 45:0.00134518 46:-0.02810382 47:-0.05036264 48:-0.01826306 49:0.00793348 50:-0.04128456 
0 0 1 1:0.00608884 2:0.00531176 3:-0.00171462 4:-0.00025636 5:-0.02688428 6:0.01660752 7:0.0353628 8:-0.02800882 9:-0.0629001 10:-0.00413744 11:0.01604896 12:0.01578118 13:-0.03426794 14:-0.00232192 15:-0.05909784 16:-0.04553126 17:0.06891292 18:-0.02555358 19:-0.01133976 20:0.00066996 21:-0.01587096 22:0.05714726 23:0.05127464 24:-0.01037752 25:-0.0257024 26:-0.00856246 27:0.0489266 28:-0.02711242 29:-0.03220958 30:0.0139069 31:0.0289228 32:-0.03374854 33:-0.05031776 34:0.04555814 35:0.00866652 36:-0.02432446 37:0.00880376 38:0.0084426 39:0.0180945 40:-0.03691516 41:0.03642326 42:-0.00158024 43:0.02631402 44:0.00056322 45:0.04030364 46:-0.01814772 47:-0.08112956 48:-0.00262628 49:-0.0099233 50:-0.0252831 
0 0.425687672880634 1 1:0.00333608 2:-0.00105926 3:0.00371332 4:-0.00450394 5:-0.03818122 6:0.00349926 7:0.05844506 8:-0.03760552 9:-0.06720054 10:-0.01944564 11:0.00820842 12:-0.0049383 13:-0.02987284 14:0.0025017 15:-0.10126812 16:-0.04053266 17:0.0838253 18:-0.03658894 19:-0.00181774 20:-0.01103376 21:-0.00060282 22:0.06014018 23:0.04819944 24:-0.0124006 25:-0.02577746 26:-0.03500784 27:0.08556692 28:-0.05238406 29:-0.04896588 30:0.0100127 31:0.0796693 32:-0.0375905 33:-0.0441198 34:0.06492206 35:0.00499978 36:-0.0309157 37:0.01327854 38:-0.00218454 39:0.03973476 40:-0.06240526 41:0.05603912 42:-0.0110553 43:0.01535664 44:0.00298688 45:0.0402914 46:0.00236592 47:-0.12413894 48:-0.0030737 49:-0.00703668 50:-0.04568732 
1 1 1 1:0.00378464 2:0.00654824 3:0.01256342 4:-0.01103798 5:-0.02921538 6:0.02753298 7:0.02663426 8:-0.04483548 9:-0.03180624 10:-0.00988856 11:0.00618164 12:0.01010104 13:-0.05140602 14:-0.00183494 15:-0.0427404 16:-0.01641094 17:0.04122824 18:-0.012946 19:-0.00759474 20:-0.01886324 21:0.00566908 22:0.0528505 23:0.03495364 24:0.0022666 25:-0.04389602 26:-0.00692878 27:0.05328466 28:-0.03442564 29:-0.02232634 30:-0.00485232 31:0.02713426 32:-0.01411628 33:-0.02528912 34:0.05028484 35:0.01958754 36:-0.02635532 37:0.01981868 38:0.00198022 39:-0.0056334 40:-0.02066678 41:0.03682366 42:-0.01255646 43:0.02261392 44:0.01453226 45:0.04331196 46:-0.00548246 47:-0.08065884 48:-0.00104054 49:-0.01510602 50:-0.04160024 
0 1 1 1:0.01148448 2:0.01053234 3:0.00038056 4:-0.00340104 5:-0.01123398 6:-0.02237546 7:0.09820908 8:-0.04129368 9:-0.10294312 10:0.00314874 11:0.02501986 12:0.05195118 13:-0.1110582 14:-0.00074704 15:-0.10837702 16:-0.06022658 17:0.11851196 18:-0.06312636 19:-0.02524258 20:0.00637528 21:-0.01731322 22:0.08345492 23:0.04648224 24:-0.0149593 25:-0.05203972 26:-0.02253808 27:0.06752154 28:-0.0693732 29:-0.03114232 30:0.00227132 31:0.06342202 32:-0.04288532 33:-0.05984562 34:0.08521282 35:0.0605632 36:-0.00101836 37:0.01957396 38:-0.00371676 39:0.07361698 40:-0.03851808 41:0.03207754 42:-0.01799684 43:0.03064776 44:0.01515142 45:0.0063087 46:-0.00133218 47:-0.15744148 48:0.02235772 49:-0.02520476 50:-0.04819998 
0 0 1 1:0.01356404 2:-0.01575818 3:-0.00337398 4:-0.04570612 5:-0.01710366 6:0.02845604 7:0.03791554 8:-0.04114302 9:-0.07113034 10:-0.00540692 11:0.02324226 12:-0.00464484 13:-0.05357894 14:0.0137459 15:-0.07736774 16:-0.0412949 17:0.06136068 18:-0.0286346 19:0.0015233 20:0.02767934 21:0.00639364 22:0.06321944 23:0.04883274 24:0.00011446 25:-0.04350644 26:-0.0020881 27:0.04603988 28:-0.03586306 29:-0.02992694 30:0.03368386 31:0.04701396 32:-0.03916258 33:-0.05468712 34:0.06179378 35:0.00581366 36:-0.01167244 37:0.01305592 38:0.0203084 39:0.0043587 40:-0.05002414 41:0.06925002 42:-0.01942278 43:0.00900238 44:0.01999202 45:0.0493659 46:-0.01424152 47:-0.10149406 48:-0.00085356 49:-0.00755104 50:-0.03970604 
1 1 1 1:0.00403502 2:0.00820536 3:0.0019147 4:0.00232046 5:0.00540738 6:-0.00012658 7:0.01527362 8:-0.01504188 9:-0.0351646 10:0.01065182 11:0.013944 12:0.00496588 13:-0.00638332 14:0.01101698 15:-0.02069308 16:-0.00900422 17:0.03308598 18:-0.00706716 19:-0.01293698 20:0.00201384 21:0.00217754 22:0.02368926 23:0.02678368 24:0.00034232 25:-0.02336052 26:0.0040895 27:0.02292194 28:-0.02161812 29:-0.00093042 30:-0.00812264 31:0.01603844 32:-0.02075394 33:-0.03421788 34:0.01995942 35:0.00976004 36:-0.00582754 37:0.00817158 38:0.0022903 39:0.00598576 40:-0.01088028 41:0.0309078 42:0.00704858 43:0.00817914 44:-0.01058178 45:0.00735382 46:-0.00747178 47:-0.03745024 48:0.00487616 49:-0.00660962 50:-0.01188352 
0.7237445637084901 0 1 1:-0.00258208 2:0.01670516 3:-0.01289624 4:0.01106846 5:-0.04021844 6:0.01879082 7:0.02270848 8:-0.0192992 9:-0.0294183 10:0.01311262 11:0.0331563 12:0.00997992 13:-0.01941214 14:0.02446006 15:-0.05283448 16:-0.04357698 17:0.07572172 18:-0.02626768 19:-0.00025502 20:-0.00219822 21:-0.01513072 22:0.03758864 23:0.03463698 24:-0.00149582 25:-0.0256046 26:-0.00613228 27:0.0428696 28:-0.0346314 29:-0.0182562 30:0.00846932 31:0.03677302 32:-0.03412234 33:-0.0626968 34:0.04746828 35:-0.01203828 36:-0.0090075 37:0.02369338 38:-0.00533288 39:0.02445328 40:-0.041125 41:0.02037512 42:-0.01099862 43:0.02594264 44:0.00037202 45:0.0183597 46:-0.0186261 47:-0.07838882 48:0.02060378 49:-0.00847802 50:-0.0185203 
1 0.3714978766209011 1 1:0.00123476 2:0.00476912 3:0.0059136 4:-0.00287992 5:0.00283456 6:0.00467046 7:0.00594092 8:-0.01358172 9:-0.009584 10:0.00415006 11:0.00832744 12:-0.00111524 13:5.338e-05 14:0.00675392 15:-0.00397378 16:-0.00784052 17:0.01049776 18:0.0010726 19:-0.0049641 20:0.0042072 21:0.0005508 22:0.00977648 23:0.00958404 24:-0.00300262 25:-0.00486922 26:-4.978e-05 27:0.00523112 28:-0.0060461 29:-0.00512502 30:0.00018888 31:0.00244614 32:-0.01397036 33:-0.01445372 34:-0.000443 35:0.0034251 36:-0.0005453 37:0.00540866 38:-0.00272796 39:0.00660928 40:-0.0018882 41:0.01025338 42:0.00046224 43:0.00344298 44:-0.00341462 45:0.00588942 46:-0.00552476 47:-0.01239716 48:0.00016562 49:0.00153142 50:-2.674e-05 
0 0 1 1:0.00681824 2:0.01290554 3:0.01185262 4:0.00145212 5:-0.03410096 6:0.01469762 7:0.03319932 8:-0.03677724 9:-0.05014436 10:-0.00376896 11:0.02773982 12:0.0126997 13:-0.04272784 14:0.01662524 15:-0.08547676 16:-0.0744498 17:0.07341696 18:-0.01825898 19:-0.00130442 20:0.00256684 21:-0.00843032 22:0.05909328 23:0.06820076 24:0.00967896 25:-0.03406116 26:-0.00555002 27:0.05405084 28:-0.05057254 29:-0.0279259 30:0.01236382 31:0.03387168 32:-0.05292116 33:-0.05385844 34:0.05291012 35:0.00343072 36:-0.02470936 37:0.0161595 38:0.0071853 39:0.0099045 40:-0.03629878 41:0.01402578 42:-0.00042844 43:0.03368198 44:-0.00970248 45:0.04322134 46:-0.01750284 47:-0.0896112 48:0.0166807 49:-0.00186046 50:-0.054456 
0.05347002655710135 0 1 1:0.00975762 2:0.00968572 3:0.00908854 4:0.02157568 5:-0.04632354 6:0.01545384 7:0.065942 8:-0.04657656 9:-0.06904716 10:0.01686286 11:0.01118962 12:0.0367691 13:-0.02875918 14:-0.00851976 15:-0.09223178 16:-0.03568594 17:0.0905626 18:-0.01049816 19:0.01842076 20:-0.01449396 21:-0.01618042 22:0.0771447 23:0.0770628 24:-0.00098596 25:-0.05267698 26:-0.0147678 27:0.0876655 28:-0.05176816 29:-0.0367533 30:-0.00366446 31:0.05538252 32:-0.0344126 33:-0.04547944 34:0.08001994 35:0.02253404 36:-0.0073553 37:0.0117867 38:0.01657362 39:-0.00246896 40:-0.0608137 41:0.04381368 42:0.00498318 43:0.01290032 44:-0.00828248 45:0.04382042 46:-0.00640138 47:-0.10533732 48:0.0029455 49:0.0128117 50:-0.06166536 
0 0 1 1:0.00858 2:0.00503074 3:0.01068954 4:0.00343388 5:-0.01221968 6:0.00135438 7:0.05136152 8:-0.02945168 9:-0.044367 10:-0.00552486 11:0.01102218 12:0.01067844 13:-0.01784408 14:0.009135 15:-0.05429884 16:-0.02589426 17:0.05928766 18:-0.00595224 19:0.00650146 20:0.00256578 21:-0.00090358 22:0.0417222 23:0.04212916 24:-0.01150746 25:-0.01970542 26:-0.01832414 27:0.05101478 28:-0.02892972 29:-0.02880608 30:0.00747984 31:0.04434868 32:-0.03406246 33:-0.03490108 34:0.05634212 35:0.00899438 36:-0.02605424 37:0.01300938 38:0.01490804 39:0.0274204 40:-0.04859842 41:0.02746372 42:-0.00369906 43:0.00523756 44:-0.00843004 45:0.03911488 46:-0.0009803 47:-0.0810612 48:0.00435438 49:0.01120598 50:-0.03022362 
0 1 1 1:0.01626888 2:0.02348664 3:0.014622 4:0.00199738 5:-0.0553958 6:-0.00640118 7:0.0493231 8:-0.03778508 9:-0.07272762 10:0.00814534 11:0.00883516 12:0.0380479 13:-0.05654552 14:-0.00770784 15:-0.09503402 16:-0.05986126 17:0.09493896 18:-0.02157804 19:-0.00241192 20:-0.00471456 21:-0.0121458 22:0.09234284 23:0.0877729 24:0.00802394 25:-0.03490348 26:-0.0242249 27:0.08416164 28:-0.07241298 29:-0.0375128 30:0.00909024 31:0.07303752 32:-0.0530509 33:-0.0501908 34:0.09960622 35:0.00508566 36:-0.0359983 37:0.0294735 38:0.0246799 39:0.01842892 40:-0.0900128 41:0.048583 42:0.00101788 43:0.04604278 44:-0.00241682 45:0.08748664 46:0.01038132 47:-0.12264596 48:-0.00120736 49:0.01437944 50:-0.05343668 
0 1 0 1:0.0198793 2:0.01576432 3:-0.00084658 4:0.00206056 5:-0.04946214 6:0.01055358 7:0.05026294 8:-0.02493392 9:-0.05929672 10:0.0113148 11:0.00725012 12:0.00386386 13:-0.02139182 14:0.01584274 15:-0.05078546 16:-0.04119858 17:0.07192088 18:-0.01429966 19:-0.0096806 20:-0.0111195 21:-0.00120614 22:0.05208436 23:0.04764914 24:-0.009819 25:-0.03554836 26:0.00238206 27:0.05561314 28:-0.04124648 29:-0.02757556 30:0.00132016 31:0.03816204 32:-0.04679772 33:-0.04911052 34:0.05756846 35:0.01058644 36:-0.0302041 37:0.01979866 38:0.01252454 39:0.02083008 40:-0.06096108 41:0.0198164 42:-0.00399498 43:0.02251216 44:0.00845642 45:0.03271742 46:-0.01163246 47:-0.09757802 48:0.00820122 49:0.00140756 50:-0.00284488 
0 0 1 1:0.0023106 2:-0.00188678 3:0.01728418 4:0.00093094 5:-0.01623554 6:0.00152934 7:0.05469174 8:-0.03572164 9:-0.04631204 10:-0.01164684 11:0.02702796 12:0.04027964 13:-0.03336854 14:-0.0030036 15:-0.05935934 16:-0.04235478 17:0.07977024 18:-0.0288152 19:-0.00411546 20:0.02608874 21:-0.032862 22:0.06350472 23:0.06316046 24:-0.01210984 25:-0.06710422 26:-0.05967974 27:0.07082146 28:-0.06210452 29:-0.05485246 30:0.02174276 31:0.0629427 32:-0.07395798 33:-0.05906828 34:0.06700332 35:-0.00964722 36:-0.01854496 37:0.03081844 38:0.0038694 39:0.0363236 40:-0.04854158 41:0.04403776 42:-0.04309214 43:0.04120532 44:-0.01004546 45:0.02691658 46:-0.0125665 47:-0.10763314 48:-0.00675998 49:0.00099866 50:-0.0546144 
0 0 1 1:0.00764684 2:0.00486304 3:0.01030756 4:-0.00971624 5:-0.02395952 6:0.00661944 7:0.05294936 8:-0.02689234 9:-0.0626128 10:-0.00325464 11:0.00826572 12:0.00742574 13:-0.03027766 14:0.00124494 15:-0.07407666 16:-0.04177736 17:0.06422754 18:-0.02459222 19:-0.00356898 20:-0.0028129 21:-0.00849294 22:0.05112082 23:0.05775978 24:-0.02336844 25:-0.02435982 26:-0.02361084 27:0.06784638 28:-0.05813772 29:-0.03065262 30:0.00841722 31:0.04672904 32:-0.05430178 33:-0.04475326 34:0.0601617 35:-0.00564694 36:-0.0306205 37:-0.0101288 38:0.0078869 39:0.0408708 40:-0.0582204 41:0.03835856 42:-0.00405276 43:0.02978562 44:-0.00780144 45:0.0418944 46:-0.00790368 47:-0.11158512 48:-0.01282844 49:4.722e-05 50:-0.03973154 
0.08756130025324182 1 1 1:0.0044155 2:0.01253754 3:-0.00767434 4:-9.202e-05 5:-0.01629504 6:-0.00471966 7:0.03456934 8:-0.02422966 9:-0.05767854 10:0.00526224 11:0.00794678 12:0.00877514 13:-0.01429232 14:0.01311212 15:-0.05085816 16:-0.03218328 17:0.06142374 18:-0.00398776 19:0.00047844 20:0.0029673 21:-0.00734132 22:0.0544259 23:0.0474291 24:-0.01302936 25:-0.01980458 26:-0.01159264 27:0.04746032 28:-0.0271436 29:-0.02821688 30:0.00239936 31:0.04098704 32:-0.03266856 33:-0.03347574 34:0.04718882 35:0.00582432 36:-0.02521402 37:0.02046688 38:0.01134708 39:0.01846816 40:-0.04065446 41:0.02302798 42:-0.01723166 43:0.01614304 44:-0.00408452 45:0.02935754 46:-0.00239756 47:-0.08131668 48:-0.00376646 49:0.00597558 50:-0.03061034 
1 1 1 1:0.00958176 2:-0.00217142 3:0.005897 4:-0.009039 5:-0.04369796 6:0.01140716 7:0.03780538 8:-0.03210966 9:-0.0371152 10:-0.01592336 11:0.00790234 12:0.01629096 13:-0.02484884 14:0.00349478 15:-0.04673114 16:-0.03447182 17:0.05868528 18:-0.03294036 19:-0.000631 20:0.03112364 21:-0.00135642 22:0.0511531 23:0.04360626 24:-0.0164805 25:-0.0189759 26:-0.03062988 27:0.04906378 28:-0.05452898 29:-0.01767364 30:0.0109533 31:0.05604194 32:-0.04222354 33:-0.04404348 34:0.03998892 35:-0.0098844 36:-0.01068612 37:0.00874708 38:-0.00550908 39:0.03245518 40:-0.02035462 41:0.03284664 42:-0.02849788 43:0.03201176 44:0.00928074 45:0.03449786 46:0.00567492 47:-0.05802464 48:0.01095836 49:0.00768462 50:-0.020862 
0 0 1 1:0.00056876 2:-0.00023204 3:0.00976642 4:0.01360322 5:-0.02939514 6:-0.00237654 7:0.0590794 8:-0.03362736 9:-0.054696 10:0.00787262 11:0.00464364 12:0.01204776 13:-0.03287764 14:0.01039348 15:-0.06635282 16:-0.02738754 17:0.07680074 18:-0.01126778 19:0.00775812 20:-0.0007761 21:-0.0078568 22:0.0540024 23:0.0404048 24:-0.00994676 25:-0.02820142 26:-0.01982092 27:0.05345272 28:-0.0348599 29:-0.03214628 30:0.01285794 31:0.05324546 32:-0.03407224 33:-0.03703908 34:0.06108924 35:0.00456068 36:-0.034867 37:0.01511976 38:0.0194067 39:0.0246717 40:-0.04393216 41:0.03196892 42:-0.00104688 43:0.00725118 44:-0.00340592 45:0.03592068 46:-0.0011772 47:-0.0961378 48:0.00602158 49:-0.00135484 50:-0.02938538 
1 0 1 1:-0.00758214 2:0.00171334 3:-0.00749384 4:0.01544558 5:-0.01410542 6:-0.0005047 7:0.02938662 8:-0.01921274 9:-0.03575156 10:0.00259038 11:-0.00196942 12:0.00645944 13:-0.03346954 14:0.0017781 15:-0.05962856 16:-0.026088 17:0.05966798 18:-0.00984752 19:0.00737134 20:-0.005962 21:-0.00900586 22:0.04368286 23:0.02231168 24:0.00585596 25:-0.01218266 26:-0.0177194 27:0.03862498 28:-0.01846082 29:-0.03015022 30:0.00124676 31:0.02653674 32:-0.01909786 33:-0.03885926 34:0.04991378 35:0.01401676 36:-0.03848394 37:-0.0013932 38:0.01068322 39:0.0266159 40:-0.04269966 41:0.02048058 42:-0.00476078 43:0.00773452 44:-0.00169938 45:0.03517796 46:0.00266218 47:-0.04592514 48:-0.00340248 49:0.00310262 50:-0.02564986 
0 0.0761675716578985 1 1:0.02017778 2:-0.0161233 3:0.01066498 4:0.01277426 5:-0.02497514 6:0.00949026 7:0.09097988 8:-0.0478199 9:-0.0546476 10:-0.01563802 11:0.0191708 12:0.0086828 13:-0.08804634 14:0.02033002 15:-0.0798154 16:-0.03726554 17:0.06258596 18:-0.05815716 19:0.0088357 20:0.02811476 21:0.00785378 22:0.05788342 23:0.0447198 24:-0.01128192 25:-0.05604402 26:-0.0172274 27:0.06555148 28:-0.06204332 29:-0.0569509 30:0.01715348 31:0.03450102 32:-0.02444608 33:-0.03092588 34:0.06213396 35:0.02548488 36:-0.0207073 37:0.0249282 38:0.00118 39:0.02623866 40:-0.05861178 41:0.04308186 42:-0.00934332 43:0.04564966 44:0.02693578 45:0.01756388 46:-0.00919158 47:-0.0799984 48:0.00024962 49:0.01629682 50:-0.02135994 
0 0.6132980531405778 1 1:0.00788294 2:0.01747618 3:0.0011421 4:-0.05246468 5:-0.03257792 6:0.04901966 7:0.01403486 8:-0.02461234 9:-0.0890504 10:-0.00744732 11:0.01939338 12:-0.00945766 13:-0.04703334 14:-0.00533528 15:-0.07874058 16:-0.05013944 17:0.05060484 18:-0.03272606 19:-0.00665934 20:0.00885988 21:-0.01650364 22:0.05639384 23:0.07417476 24:0.00531788 25:-0.05440116 26:-0.0042459 27:0.02819944 28:-0.0456304 29:-0.03238762 30:-0.00958394 31:0.04363744 32:-0.06799844 33:-0.04110686 34:0.06558992 35:0.005001 36:-0.02121158 37:0.01841272 38:-0.00020072 39:0.02197584 40:-0.04673706 41:0.05214928 42:-0.0220924 43:0.01345378 44:0.02331134 45:0.03872708 46:-0.02780236 47:-0.08520024 48:-0.01946102 49:0.00343978 50:-0.03300234 
1 0 1 1:-0.01048556 2:-0.00148188 3:-0.00512226 4:-0.01264242 5:0.00415558 6:0.0078339 7:0.03342232 8:-0.01327768 9:-0.02612312 10:0.00595824 11:0.00565308 12:0.01329514 13:-0.00803278 14:-0.00614634 15:-0.02999236 16:-0.0232159 17:0.04306144 18:-0.01936428 19:-0.01298866 20:0.00326206 21:-0.00869288 22:0.02198056 23:0.03325554 24:0.0011421 25:-0.0151101 26:-0.02583072 27:0.03251288 28:-0.03043174 29:-0.017159 30:0.00023494 31:0.040822 32:-0.02872972 33:-0.02679864 34:0.02296658 35:-0.00239146 36:-0.01771376 37:-0.00172476 38:0.00650862 39:0.01239134 40:-0.02471302 41:0.01959056 42:-0.00389714 43:-0.00278142 44:-0.00720778 45:0.01312838 46:-0.01180136 47:-0.05325588 48:0.00454722 49:-0.01703626 50:-0.01697158 
0 0 1 1:0.00655902 2:0.00978028 3:0.0099568 4:0.00777226 5:-0.01107108 6:0.01137388 7:0.05746172 8:-0.02172056 9:-0.06495286 10:0.00480504 11:0.02925012 12:0.03233812 13:-0.03088554 14:0.01113562 15:-0.06401498 16:-0.03813126 17:0.08268352 18:-0.02358944 19:0.00745066 20:0.00560408 21:-0.00906948 22:0.06258116 23:0.05644532 24:-0.01509836 25:-0.02309044 26:-0.0239839 27:0.0764674 28:-0.04835488 29:-0.02715838 30:0.0093791 31:0.05291732 32:-0.03006594 33:-0.04701656 34:0.06055828 35:0.01296226 36:-0.02487652 37:0.00842494 38:0.00448306 39:0.02707618 40:-0.04995848 41:0.0563998 42:-0.006472 43:0.01904888 44:0.0054681 45:0.04796538 46:-0.01538608 47:-0.10280184 48:-0.00171704 49:0.01027026 50:-0.03761904 
0 1 1 1:0.00080268 2:0.02551582 3:0.02042476 4:-0.01125136 5:-0.04457978 6:0.00282564 7:0.04613076 8:-0.0208961 9:-0.07095078 10:0.0091515 11:0.0111202 12:0.02607234 13:-0.0669176 14:-0.00778144 15:-0.07875112 16:-0.04829344 17:0.0867935 18:-0.03326838 19:-0.01729082 20:-0.00802332 21:-0.00882982 22:0.08331568 23:0.04809434 24:-0.00780946 25:-0.041659 26:-0.0325779 27:0.06926352 28:-0.06939446 29:-0.0294297 30:0.00037034 31:0.06323814 32:-0.0538176 33:-0.04223902 34:0.08522362 35:0.02198632 36:-0.03059268 37:0.01172026 38:0.02881774 39:0.02724942 40:-0.0653834 41:0.06173632 42:-0.03813052 43:0.04806766 44:-0.00268552 45:0.05158106 46:-0.0030783 47:-0.11742422 48:-0.00068504 49:-0.00191968 50:-0.05396912 
1 0 1 1:-0.00272638 2:0.0012478 3:-0.0023489 4:0.00448672 5:-0.01264862 6:0.0052607 7:0.03560262 8:-0.0121642 9:-0.0345933 10:-0.00508076 11:0.00946814 12:0.00637862 13:-0.0134534 14:-0.00295044 15:-0.0435601 16:-0.0270047 17:0.05460728 18:-0.00940588 19:-0.00142978 20:0.00932302 21:-0.01200188 22:0.0396116 23:0.03381322 24:-0.01060628 25:-0.02087558 26:-0.01569594 27:0.04640038 28:-0.03524734 29:-0.01934576 30:0.0024096 31:0.02288052 32:-0.02961122 33:-0.03584272 34:0.03960088 35:0.00043984 36:-0.02050724 37:0.00968776 38:0.01335626 39:0.02215534 40:-0.04178822 41:0.02390442 42:-0.00872366 43:0.0114771 44:0.00159948 45:0.02592216 46:-0.0042852 47:-0.06055894 48:0.00195652 49:0.00360904 50:-0.02008054 
0 0 1 1:0.00209962 2:-0.0065954 3:-0.02247738 4:-0.00399974 5:-0.01625852 6:-0.00433452 7:0.05385258 8:-0.02696628 9:-0.04639396 10:1.4e-06 11:0.0190974 12:0.02939484 13:-0.03153484 14:0.00332916 15:-0.06483594 16:-0.04589556 17:0.0651469 18:-0.01459834 19:-0.02037222 20:0.01028362 21:-0.00630578 22:0.06310296 23:0.04682466 24:-0.01438472 25:-0.0174114 26:-0.01349418 27:0.0512577 28:-0.04566444 29:-0.02510952 30:0.00390148 31:0.0298353 32:-0.05024146 33:-0.05149922 34:0.05685818 35:0.0063275 36:-0.02368824 37:-0.00097124 38:0.00087162 39:0.02197532 40:-0.04842504 41:0.0400317 42:-0.02291282 43:0.0185581 44:-0.01155896 45:0.02389042 46:-0.00745516 47:-0.08989536 48:-0.01933298 49:-0.01523068 50:-0.01369566 
0 0 0.9513183053607683 1:0.01719306 2:0.02981864 3:0.01757404 4:-0.01960808 5:-0.07937304 6:0.00319624 7:0.11000434 8:-0.0719522 9:-0.1657031 10:-0.00581298 11:-0.02420918 12:0.07059922 13:-0.09404296 14:-0.01732326 15:-0.15891936 16:-0.09299058 17:0.1500044 18:-0.0922285 19:-0.0059162 20:0.00938142 21:-0.02638416 22:0.13962964 23:0.16410412 24:0.00347486 25:-0.10767286 26:-0.01753132 27:0.1420475 28:-0.12042888 29:-0.0958239 30:0.00383936 31:0.09390822 32:-0.09557382 33:-0.13137712 34:0.14758822 35:0.02132732 36:-0.07953032 37:0.04669378 38:0.06132218 39:0.0885094 40:-0.11342336 41:0.10386524 42:-0.03033728 43:0.0565985 44:0.03384618 45:0.1098431 46:-0.05856456 47:-0.26870188 48:-0.01211844 49:0.00505114 50:-0.10669246 
1 0 1 1:0.00890912 2:0.00489546 3:-0.00516096 4:0.0066981 5:-0.02339014 6:0.0238714 7:0.01802868 8:0.01213612 9:-0.02644706 10:-0.01565104 11:0.01192012 12:0.0197554 13:-0.01869532 14:0.00505856 15:-0.04540114 16:-0.0164209 17:0.03415658 18:-0.00701284 19:-0.00348318 20:0.0065394 21:-0.00484262 22:0.03279878 23:0.01757716 24:-0.01822384 25:-0.012368 26:0.00268398 27:0.05097578 28:-0.0119741 29:-0.0188276 30:-0.0001543 31:0.02164252 32:-0.02908426 33:-0.02843538 34:0.04495798 35:0.00206878 36:-0.0181534 37:0.0142912 38:-0.00149806 39:-0.004892 40:-0.03755098 41:0.01674488 42:0.01070464 43:0.00427522 44:-0.00415136 45:0.02079414 46:-0.00438226 47:-0.05263286 48:0.00908012 49:0.00091206 50:-0.01268264 
0 0.8443591338689889 1 1:0.00961422 2:-0.01572572 3:0.0229662 4:-0.02651288 5:-0.06612492 6:0.01514928 7:0.07927558 8:-0.09207928 9:-0.1626622 10:-0.03507712 11:0.09814058 12:0.09002934 13:-0.12781156 14:-0.03266832 15:-0.1271546 16:-0.11833406 17:0.18599442 18:-0.13075454 19:-0.02794786 20:0.04868424 21:-0.05609978 22:0.12514594 23:0.1478122 24:-0.01275542 25:-0.06484836 26:-0.08966412 27:0.10709948 28:-0.1330692 29:-0.10066834 30:0.04918214 31:0.1302711 32:-0.11142984 33:-0.09612246 34:0.12254676 35:-0.00347686 36:-0.04211214 37:0.04426218 38:0.01143186 39:0.06595288 40:-0.07064838 41:0.10339526 42:-0.06641568 43:0.07117328 44:0.0064395 45:0.0311638 46:-0.0109398 47:-0.22899526 48:0.01555086 49:-0.02694542 50:-0.06512684 
1 0 1 1:0.00682144 2:0.00834036 3:0.01762672 4:-0.0017793 5:-0.02302046 6:-0.00421992 7:0.02287666 8:-0.03630376 9:-0.0473482 10:0.01184048 11:0.02874714 12:0.04125164 13:-0.02510874 14:0.0070237 15:-0.0511658 16:-0.02353704 17:0.09217324 18:-0.02298016 19:0.00055528 20:0.00666782 21:-0.01284034 22:0.04070672 23:0.0589741 24:0.00387346 25:-0.0256987 26:0.0022442 27:0.03471418 28:-0.04571452 29:-0.02684152 30:0.0097179 31:0.04650186 32:-0.04717136 33:-0.04030192 34:0.04207588 35:0.00133582 36:-0.00639194 37:0.02153574 38:0.00373676 39:0.01801586 40:-0.03482314 41:0.02295634 42:-0.01956082 43:0.00407298 44:-0.00930558 45:-0.01385498 46:-0.0116956 47:-0.06676366 48:0.00498558 49:-0.01903592 50:-0.0173928 
0.2570196923881297 1 1 1:-0.01216192 2:0.00485082 3:0.00047166 4:0.00938196 5:-0.00970096 6:0.01940496 7:0.02051968 8:-0.01673272 9:-0.03698776 10:-0.00654242 11:0.02458668 12:2.712e-05 13:-0.03731458 14:-5.344e-05 15:-0.0454698 16:-0.03813992 17:0.05354234 18:-0.034889 19:-0.00766168 20:0.00318352 21:0.01983778 22:0.06141208 23:0.04646736 24:-0.00831742 25:-0.01538068 26:-0.02518002 27:0.0407377 28:-0.03231786 29:-0.03785338 30:-0.0170807 31:0.012404 32:-0.02041884 33:-0.03536782 34:0.04748314 35:0.013928 36:-0.00459952 37:0.0084422 38:0.01179458 39:0.01469774 40:-0.05590448 41:0.0085975 42:-0.01843388 43:0.02849598 44:-0.02015856 45:0.03465566 46:0.00954042 47:-0.100068 48:0.0042746 49:-0.00698082 50:-0.02557632 
1 0 0 1:0.0226652 2:-0.00262878 3:0.01074962 4:-0.01687942 5:-0.00301262 6:-0.00121638 7:0.02244712 8:-0.01033136 9:-0.0479286 10:0.00855348 11:0.0060941 12:0.00813946 13:-0.01739948 14:0.01847268 15:-0.02831406 16:-0.02139292 17:0.0258442 18:-0.0173808 19:-0.01064426 20:-0.00819934 21:-0.0091671 22:0.03837146 23:0.03390484 24:-0.01237648 25:-0.02553024 26:0.00413074 27:0.02028364 28:-0.04248988 29:-0.0126654 30:-0.00625468 31:0.03388238 32:-0.02477458 33:-0.02633182 34:0.01768762 35:0.018618 36:-0.01285014 37:0.01203862 38:0.01707008 39:0.03086352 40:-0.02284564 41:0.0150352 42:-0.009438 43:0.00051378 44:-0.00621082 45:0.00834008 46:-0.01857178 47:-0.050007 48:-0.00468134 49:0.00553784 50:-0.01673874 
1 1 1 1:-0.00696604 2:-0.0015874 3:0.01051804 4:-0.00932484 5:-0.04523868 6:0.02015038 7:0.03825578 8:-0.0230314 9:-0.0591004 10:0.00017106 11:0.05137426 12:0.00676284 13:-0.0495572 14:-0.03073478 15:-0.06009782 16:-0.07762294 17:0.06784362 18:-0.0489225 19:0.00123198 20:0.01361084 21:-0.05957942 22:0.0579225 23:0.06131018 24:0.00620284 25:-0.02339164 26:-0.02113178 27:0.04164626 28:-0.06415258 29:-0.01509966 30:0.0366466 31:0.04117236 32:-0.06571746 33:-0.0593036 34:0.0190632 35:-0.01340622 36:-0.01383334 37:0.01629212 38:0.00311692 39:0.01078038 40:-0.01379246 41:0.05686398 42:-0.02742796 43:0.04330786 44:0.00476798 45:0.01850742 46:-0.03720966 47:-0.08297482 48:0.02246484 49:-0.03467414 50:-0.03697342 
1 0 1 1:0.00292932 2:-0.0066716 3:0.00063392 4:-0.00564216 5:-0.01843748 6:0.0036093 7:0.02722326 8:-0.02360846 9:-0.03091724 10:-0.00843012 11:0.00687352 12:0.01160212 13:-0.02739786 14:-0.00901306 15:-0.04133834 16:-0.02029852 17:0.03362664 18:-0.0157406 19:0.00036462 20:-0.01154732 21:6.19e-05 22:0.03889198 23:0.02945362 24:-0.00593874 25:-0.0295501 26:-0.01987704 27:0.01835602 28:-0.03151168 29:-0.01749634 30:0.00334818 31:0.00991488 32:-0.0302099 33:-0.02576512 34:0.01799856 35:-0.00616954 36:-0.00375338 37:0.00236476 38:0.00775358 39:0.02313534 40:-0.02049832 41:0.03083814 42:-0.01512698 43:0.01634492 44:0.00981 45:0.0209871 46:-0.01042282 47:-0.034805 48:-0.00978288 49:-0.00381156 50:-0.01207738 
0 0.3339570524098271 1 1:0.0103693 2:-0.00846692 3:-0.00240944 4:0.04498824 5:-0.07329128 6:0.00676894 7:0.07895314 8:-0.1000566 9:-0.1124533 10:0.02451704 11:0.01339272 12:0.02724672 13:-0.075215 14:-0.01064922 15:-0.1509869 16:-0.10399062 17:0.19286976 18:-0.08080404 19:-0.00703084 20:0.01610946 21:-0.03418542 22:0.1753662 23:0.09126326 24:-0.00189704 25:-0.08434082 26:-0.04506782 27:0.18267644 28:-0.16795964 29:-0.07218244 30:0.0411283 31:0.14108472 32:-0.14100016 33:-0.12390998 34:0.12445838 35:-0.00643474 36:0.00766474 37:0.0614622 38:-0.02097522 39:0.05448916 40:-0.0675136 41:0.11498152 42:-0.08129694 43:0.1014431 44:0.02798074 45:0.07343772 46:0.01258448 47:-0.24330162 48:-0.03580404 49:0.00924186 50:-0.1199403 
1 0.4941678279394325 1 1:0.01199832 2:-0.01905518 3:0.00704088 4:-0.00076074 5:-0.04594086 6:0.00761996 7:0.02718332 8:-0.04881866 9:-0.06106804 10:0.00511594 11:0.01302928 12:0.00885422 13:-0.0129783 14:0.00279092 15:-0.06961738 16:-0.03853274 17:0.08424296 18:-0.03093424 19:0.00130806 20:-0.01500658 21:-0.01170916 22:0.05445178 23:0.0616618 24:0.01328284 25:-0.02429052 26:-0.01278944 27:0.02516512 28:-0.04881698 29:-0.02962562 30:0.02711526 31:0.03699506 32:-0.03871316 33:-0.05263434 34:0.0492323 35:-0.01545862 36:-0.0102322 37:0.00924552 38:-0.01734868 39:0.00645574 40:-0.01802542 41:0.04419078 42:-0.02593912 43:0.01550776 44:-0.0198155 45:0.0253089 46:-0.00266868 47:-0.08900448 48:0.00706612 49:-0.01045272 50:-0.0465256 
0 1 1 1:0.06086408 2:0.04369606 3:0.04368474 4:-0.00959612 5:-0.03268414 6:-0.03276008 7:0.07445714 8:-0.06406936 9:-0.12347044 10:-0.01070102 11:0.0044878 12:0.0665859 13:-0.12075552 14:-0.005673 15:-0.10012856 16:-0.1050875 17:0.07983476 18:-0.05455432 19:-0.02814902 20:-0.00331402 21:-0.0405532 22:0.08640326 23:0.07968544 24:0.03456556 25:-0.09550752 26:-0.00275888 27:0.08291128 28:-0.14424492 29:-0.10614762 30:-0.01905456 31:0.13120758 32:-0.08686248 33:-0.04339754 34:0.1448397 35:0.00437386 36:-0.02103814 37:0.01982024 38:0.00601432 39:0.081794 40:-0.09521308 41:0.06966358 42:-0.05553156 43:0.06539744 44:-0.01633354 45:0.05814744 46:-0.03298408 47:-0.16682254 48:0.01628858 49:-0.0309537 50:-0.08132392 
0 0.3018654578559737 0.2417179819184225 1:0.00614426 2:5.324e-05 3:-0.0069838 4:-0.0078958 5:-0.00459436 6:0.00771416 7:0.03411818 8:-0.01662052 9:-0.05181792 10:0.00090184 11:0.00859794 12:0.00638324 13:-0.01221878 14:0.00154896 15:-0.05356786 16:-0.02427342 17:0.06693102 18:-0.0107748 19:-0.00650892 20:0.0115343 21:-0.0086411 22:0.03267982 23:0.01904072 24:-0.00735318 25:-0.03561076 26:-0.01544724 27:0.02697732 28:-0.03543096 29:-0.00825782 30:-0.01835784 31:0.02555862 32:-0.02033134 33:-0.03493858 34:0.05033282 35:0.02255848 36:-0.0126252 37:0.01504576 38:0.0074263 39:0.0151318 40:-0.04737286 41:0.01255368 42:0.01268748 43:0.02890008 44:0.00137288 45:0.03347504 46:-0.01695616 47:-0.05727312 48:0.00015434 49:-0.0075308 50:-0.0239336 
0 0 1 1:-0.0164721 2:0.01360544 3:0.0044122 4:0.02116806 5:-0.05559044 6:0.00597488 7:0.11223006 8:-0.07195866 9:-0.1159562 10:-0.00304044 11:0.01762058 12:0.04183182 13:-0.05049774 14:-0.0162651 15:-0.13990022 16:-0.07801582 17:0.18531892 18:-0.0465011 19:-0.02111992 20:0.03478826 21:-0.03358938 22:0.12111992 23:0.09792888 24:-0.03371722 25:-0.07343338 26:-0.05937658 27:0.13098536 28:-0.10353082 29:-0.0715633 30:0.02619086 31:0.09769776 32:-0.10537864 33:-0.1231 34:0.13066186 35:0.01036266 36:-0.07534868 37:0.02643382 38:0.01478994 39:0.07586174 40:-0.08828968 41:0.0679306 42:-0.03624938 43:0.04593568 44:-0.02226538 45:0.0592926 46:-0.02968178 47:-0.18373252 48:-0.00460272 49:0.0021463 50:-0.07329928 
0 1 1 1:0.03519794 2:0.05485504 3:0.04171734 4:-0.00364994 5:-0.14004708 6:0.01046202 7:0.07232288 8:-0.1034726 9:-0.16355576 10:-0.01321526 11:0.05043536 12:0.04675276 13:-0.12098976 14:0.00082294 15:-0.13812968 16:-0.14927532 17:0.1411067 18:-0.09511586 19:-0.02139018 20:0.00278648 21:-0.04432622 22:0.17985302 23:0.18554258 24:0.0266524 25:-0.10546212 26:-0.082342 27:0.15390172 28:-0.27377744 29:-0.12021272 30:-0.00250446 31:0.13627182 32:-0.14332698 33:-0.11491994 34:0.19008254 35:0.01291926 36:-0.04661988 37:0.03818238 38:-0.04850764 39:0.07078078 40:-0.13413874 41:0.12500324 42:-0.14387848 43:0.100532 44:0.04276858 45:0.12583288 46:-0.04192496 47:-0.2786406 48:-0.00385218 49:-0.01760496 50:-0.13697912 
1 1 1 1:0.00890374 2:0.00250434 3:0.00318628 4:0.0020985 5:-0.02973574 6:-0.0004079 7:0.02484336 8:-0.01143658 9:-0.05453464 10:-0.01084182 11:0.01121106 12:0.00692384 13:-0.0327168 14:-0.00626214 15:-0.06028624 16:-0.02606562 17:0.05239156 18:-0.03078432 19:-0.00233722 20:-0.01599026 21:-0.02739538 22:0.040762 23:0.03550018 24:-0.00194522 25:-0.0402523 26:-0.01018258 27:0.03469706 28:-0.02389852 29:-0.01721816 30:0.01570114 31:0.03494256 32:-0.0313314 33:-0.0301597 34:0.04746194 35:0.0056004 36:-0.03538702 37:0.01455514 38:0.00746512 39:0.01974118 40:-0.02216738 41:0.03536682 42:-0.01868332 43:0.01443388 44:0.0024582 45:0.02890574 46:-0.01306702 47:-0.07201176 48:0.00724018 49:-0.01264034 50:-0.03130658 
1 1 0.04868169463923173 1:0.02873888 2:0.01816014 3:0.02633244 4:-0.01531954 5:-0.01743636 6:-0.01792384 7:0.02342036 8:-0.00661636 9:-0.04525982 10:-0.00330848 11:0.00392162 12:0.00052158 13:-0.0042626 14:0.02030212 15:-0.03066644 16:-0.041039 17:0.01674592 18:-0.01633568 19:-0.01918656 20:-0.0008945 21:0.0022296 22:0.02997724 23:0.01834932 24:0.0253669 25:0.00317652 26:0.00350084 27:0.02733596 28:-0.0305913 29:-0.03459122 30:-0.0011893 31:0.01799576 32:-0.0236344 33:-0.01166002 34:0.03121858 35:0.0244819 36:-0.02227492 37:0.02767814 38:0.00136246 39:0.0089551 40:-0.02725772 41:0.02714534 42:0.00765258 43:0.02877592 44:0.01435026 45:0.01461806 46:-0.00172188 47:-0.059717 48:0.02091046 49:0.00153358 50:-0.00514132 
1 0.1856233890393282 1 1:0.01164574 2:-0.00598386 3:-0.00110422 4:-0.00552926 5:-0.0133181 6:-0.0091186 7:0.013264 8:-0.020786 9:-0.02104314 10:0.0070476 11:0.005382 12:0.01747042 13:-0.01404296 14:0.00272302 15:-0.0152611 16:-0.02322876 17:0.01881034 18:-0.02232564 19:-0.00414056 20:0.00751974 21:0.00388948 22:0.04055442 23:0.01303584 24:-0.00612498 25:-0.01782324 26:-0.01295444 27:0.04107636 28:-0.01914538 29:-0.01843268 30:0.00215448 31:0.03224016 32:-0.0128168 33:-0.02209666 34:0.01020686 35:0.010713 36:0.008637 37:0.0037585 38:-0.0011865 39:0.0097314 40:-0.01652452 41:0.00813876 42:0.00307058 43:-0.00626606 44:0.01269996 45:0.00865406 46:0.00326658 47:-0.0409968 48:-0.0087595 49:-0.0063787 50:-0.020999 
0 1 1 1:0.02312188 2:0.03187422 3:0.02172476 4:-0.02611304 5:-0.02703876 6:-0.00433258 7:0.02021402 8:-0.05177882 9:-0.052166 10:-0.01237036 11:-0.0042458 12:0.02513564 13:-0.01792664 14:-0.00401148 15:-0.06440138 16:-0.0357323 17:0.04247164 18:-0.02414342 19:0.00473042 20:-0.00436214 21:-0.01530642 22:0.04312944 23:0.07092056 24:0.01346558 25:-0.02317428 26:-0.01119162 27:0.04111372 28:-0.06225098 29:-0.0235235 30:-0.00176298 31:0.04221756 32:-0.0436407 33:-0.04887814 34:0.05915086 35:0.02317018 36:-0.01665394 37:0.02148046 38:0.00020988 39:0.03756824 40:-0.06314566 41:0.04757552 42:-0.01536594 43:0.00751978 44:0.00027534 45:0.05326364 46:-0.00889088 47:-0.07502386 48:0.00358266 49:0.01333836 50:-0.02256526 
0 1 0 1:0.0198793 2:0.01576432 3:-0.00084658 4:0.00206056 5:-0.04946214 6:0.01055358 7:0.05026294 8:-0.02493392 9:-0.05929672 10:0.0113148 11:0.00725012 12:0.00386386 13:-0.02139182 14:0.01584274 15:-0.05078546 16:-0.04119858 17:0.07192088 18:-0.01429966 19:-0.0096806 20:-0.0111195 21:-0.00120614 22:0.05208436 23:0.04764914 24:-0.009819 25:-0.03554836 26:0.00238206 27:0.05561314 28:-0.04124648 29:-0.02757556 30:0.00132016 31:0.03816204 32:-0.04679772 33:-0.04911052 34:0.05756846 35:0.01058644 36:-0.0302041 37:0.01979866 38:0.01252454 39:0.02083008 40:-0.06096108 41:0.0198164 42:-0.00399498 43:0.02251216 44:0.00845642 45:0.03271742 46:-0.01163246 47:-0.09757802 48:0.00820122 49:0.00140756 50:-0.00284488 
1 1 1 1:0.03199104 2:0.0353656 3:0.01700532 4:-0.0013098 5:-0.01005336 6:-0.02625124 7:0.00272038 8:-0.03241814 9:-0.0529923 10:-0.0196278 11:0.00688414 12:0.03811538 13:-0.0608643 14:0.00443568 15:-0.0256509 16:-0.05201208 17:0.00279684 18:-0.03066596 19:-0.01701398 20:0.00318502 21:-0.0210932 22:0.0145523 23:0.03689122 24:0.03319284 25:-0.03966636 26:0.01329356 27:0.02445672 28:-0.06362872 29:-0.0419748 30:-0.0182167 31:0.05719218 32:-0.03204004 33:-0.01177358 34:0.07725648 35:0.01476674 36:-0.00921262 37:0.01951406 38:-0.01734286 39:0.02907664 40:-0.0488513 41:0.02927654 42:-0.04453568 43:0.03607334 44:-0.00721186 45:0.02062186 46:-0.00949344 47:-0.06649052 48:0.01344806 49:-0.02649548 50:-0.01926248 
1 0 1 1:0.0057725 2:0.00078384 3:0.01260916 4:0.01768582 5:-0.01710912 6:-0.0146631 7:0.01454704 8:-0.01754456 9:-0.02689684 10:-0.0180367 11:0.03849448 12:0.01195266 13:-0.05056236 14:0.01712176 15:-0.07108576 16:-0.07088388 17:0.06537656 18:-0.03516208 19:-0.00857558 20:0.0007173 21:0.01481558 22:0.06528074 23:0.04777158 24:0.01082484 25:-0.02205454 26:0.0040619 27:0.05041036 28:-0.0359047 29:-0.02010116 30:-0.01008592 31:0.0234134 32:-0.04726938 33:-0.04874292 34:0.04424884 35:-0.00303966 36:-0.00255414 37:0.01715782 38:0.00059942 39:0.00561514 40:-0.01343892 41:0.01738618 42:0.01721822 43:-0.02056594 44:-0.01761616 45:0.02653186 46:0.00220454 47:-0.06717812 48:0.02547658 49:-0.02283232 50:-0.03665264 
1 1 1 1:0.00189334 2:0.00943556 3:-5.408e-05 4:-0.00437712 5:-0.00543 6:0.00795412 7:0.00973842 8:0.00103782 9:-0.01160988 10:-0.00092112 11:0.00273784 12:0.01303364 13:-0.01398726 14:-0.00798494 15:-0.02120672 16:-0.01670832 17:0.01772416 18:-0.00981086 19:-0.00602786 20:0.00105122 21:-0.00077914 22:0.016964 23:-0.00187694 24:-0.00158096 25:-0.0088829 26:-0.00345128 27:0.0149288 28:-0.01014248 29:-0.00833702 30:-0.00772612 31:0.00943718 32:-0.0229228 33:-0.01142288 34:0.0084147 35:0.00290616 36:-0.00295878 37:0.01264456 38:0.0012405 39:0.00447404 40:-0.01410344 41:0.0111487 42:-0.00853622 43:0.00822162 44:-0.00345352 45:0.01144336 46:-4.454e-05 47:-0.01886238 48:-0.01668996 49:-0.01326588 50:-0.0047864 
1 0.8318512269865155 1 1:-0.0026158 2:-0.007469 3:0.00443966 4:-0.01121906 5:-0.02523024 6:-0.00909036 7:0.03336302 8:-0.00410702 9:-0.02847162 10:0.0020628 11:0.02524556 12:0.03513672 13:-0.0487572 14:0.01229258 15:-0.04594252 16:-0.04050474 17:0.08336842 18:-0.02517764 19:-0.02535612 20:-0.00093012 21:0.0110312 22:0.04813484 23:0.06906134 24:0.00650386 25:-0.02742134 26:-0.0138966 27:0.03934332 28:-0.05059132 29:-0.02170972 30:0.03295872 31:0.0500239 32:-0.00811616 33:-0.02968578 34:0.06887926 35:0.00944396 36:-0.0118024 37:-0.00623966 38:-0.00206656 39:0.02098134 40:-0.00582712 41:0.03486422 42:-0.01868722 43:0.00425684 44:-0.00803766 45:0.00217574 46:-0.00234778 47:-0.07521584 48:0.01451314 49:0.00285722 50:-0.0249416 
1 1 1 1:0.03520622 2:0.0001907 3:-0.00338792 4:-0.00536668 5:-0.0248697 6:0.00259508 7:0.02776388 8:-0.023793 9:-0.0091334 10:-0.00251712 11:0.00586668 12:0.02173332 13:-0.02420066 14:0.00087344 15:-0.01676192 16:-0.00724062 17:0.01917362 18:-0.00871538 19:0.00478488 20:-0.00798672 21:-0.00491168 22:0.00881638 23:0.02913758 24:0.00400886 25:-0.0266202 26:0.00120302 27:0.02355244 28:-0.0139007 29:-0.03777994 30:-0.0060334 31:0.01777536 32:-0.02235446 33:-0.01654188 34:0.0283577 35:-0.0021286 36:-0.001309 37:-0.00377032 38:-0.00248026 39:0.02084116 40:-0.0188427 41:0.02002704 42:-0.01455636 43:-0.00373606 44:0.00361894 45:0.00978068 46:-0.00824124 47:-0.03988848 48:0.0054999 49:0.00556284 50:-0.02484082 
0 0.7181753770519201 1 1:0.03023898 2:0.0006842 3:0.02889536 4:0.0066101 5:-0.05589358 6:-0.0036718 7:0.09130088 8:-0.02376696 9:-0.10840442 10:-0.01253254 11:0.0035592 12:0.0461804 13:-0.07425636 14:-0.02250668 15:-0.0948425 16:-0.08388246 17:0.1202768 18:-0.0507562 19:-0.01185152 20:-0.01499788 21:-0.01494746 22:0.06698826 23:0.10905006 24:-0.01190396 25:-0.03153364 26:-0.01651086 27:0.1301487 28:-0.1049946 29:-0.07090576 30:0.0047399 31:0.1231804 32:-0.06332174 33:-0.08005538 34:0.08576204 35:-0.0044944 36:-0.01551262 37:-0.01499182 38:-0.01380772 39:0.06072364 40:-0.10337666 41:0.06212012 42:-0.06605818 43:0.03830726 44:0.00872728 45:0.05759746 46:-0.03919384 47:-0.21083084 48:-0.016068 49:0.03085936 50:-0.10356724 
0 1 1 1:-0.0046129 2:0.02028004 3:0.00493012 4:0.0293564 5:-0.02029258 6:4.4e-07 7:0.0229932 8:-0.03032696 9:-0.07079726 10:-0.00010246 11:0.01847976 12:0.02260802 13:-0.04895426 14:0.00797684 15:-0.06786776 16:-0.03908802 17:0.07367376 18:-0.0213204 19:-0.03486364 20:0.00214292 21:-0.00626378 22:0.07299458 23:0.0457165 24:-0.00012956 25:-0.043329 26:-0.04082136 27:0.063351 28:-0.0560956 29:-0.05013518 30:-0.00279626 31:0.0254588 32:-0.03642058 33:-0.05567366 34:0.0667397 35:-0.01009806 36:-0.03882082 37:0.0090999 38:0.0108349 39:0.0250667 40:-0.05983002 41:0.02850128 42:-0.0255225 43:0.01921038 44:0.00375562 45:0.03348858 46:-0.01136198 47:-0.09192868 48:0.00246192 49:0.00438506 50:-0.0478428 
1 1 1 1:-0.00091776 2:-0.00443336 3:0.00798988 4:-0.00017944 5:-0.01649228 6:0.00338018 7:0.0353026 8:-0.01869416 9:-0.02878174 10:-0.00629346 11:0.00464848 12:0.01972058 13:-0.01345198 14:0.00320824 15:-0.02903904 16:-0.02020894 17:0.0331491 18:-0.01264 19:-0.00105154 20:0.00032848 21:-0.00643164 22:0.03065424 23:0.03130236 24:-0.00783556 25:-0.01234556 26:-0.01687078 27:0.04426692 28:-0.02879912 29:-0.0155975 30:0.00511644 31:0.03173148 32:-0.01814904 33:-0.016138 34:0.0281431 35:-0.00026496 36:-0.00866392 37:0.00468486 38:-0.00426888 39:0.0161497 40:-0.01568928 41:0.02541226 42:-0.0134578 43:0.0128683 44:0.00568374 45:0.02540604 46:-0.00901874 47:-0.04978272 48:-0.00268918 49:0.01114278 50:-0.02314674 
0 1 1 1:0.015613 2:0.02305508 3:0.0250182 4:-0.0034858 5:-0.04516136 6:0.0267633 7:0.03978886 8:-0.052351 9:-0.0641018 10:-0.01717898 11:0.00157766 12:0.02385906 13:-0.061972 14:-0.00305854 15:-0.05421042 16:-0.02957554 17:0.05760512 18:-0.03477186 19:-0.02415948 20:0.01831914 21:-0.01127036 22:0.05264314 23:0.07449192 24:0.00154494 25:-0.06189546 26:-0.04594768 27:0.06172286 28:-0.0720502 29:-0.01750008 30:-0.0096948 31:0.05688246 32:-0.04114006 33:-0.04840002 34:0.10972008 35:0.01734514 36:-0.02989058 37:0.04227368 38:0.0138263 39:0.02306462 40:-0.04115536 41:0.04468958 42:-0.0401009 43:0.03510218 44:0.00921204 45:0.0398393 46:-0.0207678 47:-0.12269904 48:0.0068764 49:0.02083322 50:-0.03021736 
0.3491768633576653 1 1 1:-0.00278388 2:0.00399966 3:0.01272362 4:0.00685828 5:-0.03344342 6:-0.00577292 7:0.06369648 8:-0.03146238 9:-0.0821421 10:-0.03038594 11:0.01436204 12:0.0250036 13:-0.06630536 14:-0.00575588 15:-0.06653722 16:-0.04887452 17:0.0525922 18:-0.04245886 19:-0.02322024 20:0.02580062 21:-0.00697552 22:0.04664442 23:0.05836726 24:-0.01435978 25:-0.02843578 26:-0.01916196 27:0.06138306 28:-0.03769716 29:-0.03209986 30:0.01456218 31:0.0569084 32:-0.05190918 33:-0.0317278 34:0.06761874 35:-0.00965914 36:-0.01913562 37:0.02992654 38:-0.00426582 39:0.00693676 40:-0.03515034 41:0.03686858 42:-0.004384 43:0.0481648 44:0.00463776 45:0.04005964 46:0.0061748 47:-0.0855544 48:0.01219982 49:-0.0007489 50:-0.04523656 
0 1 1 1:0.0060932 2:-0.00307512 3:0.02492784 4:0.0070587 5:-0.0492829 6:-0.02207082 7:0.06501948 8:-0.03784656 9:-0.04684096 10:-0.0176541 11:0.01954636 12:0.04075684 13:-0.0363359 14:-0.00623356 15:-0.08586942 16:-0.06054562 17:0.07947114 18:-0.0656415 19:-0.0141213 20:-0.03007552 21:-0.03441322 22:0.07783156 23:0.06456708 24:-0.01910714 25:-0.0773864 26:-0.0487975 27:0.1096395 28:-0.12583286 29:-0.06412992 30:0.01126496 31:0.11408034 32:-0.05331358 33:-0.04344396 34:0.08687006 35:-0.0045166 36:-0.01791392 37:0.06692988 38:-0.0234352 39:0.04180522 40:-0.0894582 41:0.06725484 42:-0.04783576 43:0.04169728 44:-0.01139842 45:0.01475412 46:-0.0208393 47:-0.11323732 48:-0.00113104 49:0.00988482 50:-0.0470564 
1 1 1 1:-0.02043314 2:0.01117106 3:-0.0152681 4:0.00443758 5:-0.00509026 6:-0.00466442 7:0.03243554 8:-0.01861934 9:-0.0198417 10:-0.0132578 11:0.01975314 12:0.01626266 13:-0.00832486 14:0.00652126 15:-0.02205412 16:-0.02271402 17:0.04866118 18:-0.01808858 19:0.00828284 20:-0.00222012 21:-0.01581824 22:0.04134034 23:0.0251045 24:-0.00319362 25:-0.01213528 26:-0.02145416 27:0.03486236 28:-0.03226438 29:-0.0178671 30:-0.00173098 31:0.02626518 32:-0.02744022 33:-0.02331066 34:0.03897836 35:0.00837088 36:-0.00963392 37:0.00695824 38:0.00281124 39:0.007235 40:-0.02091688 41:0.02680092 42:-0.009421 43:0.01902674 44:0.00136776 45:0.01183832 46:0.00011916 47:-0.04760372 48:0.00975454 49:0.00729676 50:-0.02052452 
0 1 1 1:0.0136215 2:-0.00482604 3:0.04369654 4:0.00676026 5:-0.04012034 6:0.00696084 7:0.0684792 8:-0.06023342 9:-0.06266736 10:0.01468976 11:0.03613234 12:0.05858134 13:-0.0963725 14:-0.00190708 15:-0.10587966 16:-0.11499002 17:0.11737572 18:-0.05511402 19:0.00315534 20:0.01072648 21:-0.02086274 22:0.07881266 23:0.11010658 24:0.00990352 25:-0.01570594 26:-0.01539652 27:0.0805863 28:-0.0696892 29:-0.04439442 30:0.01558646 31:0.08827876 32:-0.06988472 33:-0.03056116 34:0.08765624 35:-0.0055984 36:-0.01461364 37:0.02123688 38:0.00378606 39:-0.01167012 40:-0.038775 41:0.04138222 42:-0.05120662 43:0.02309042 44:-0.02422356 45:0.01389338 46:-0.00557174 47:-0.10655164 48:0.0532179 49:-0.01636854 50:-0.04872976 
-1 1 1 1:0.02231032 2:0.00187536 3:-0.00297544 4:5.556e-05 5:-0.02656168 6:0.00187142 7:0.02513828 8:-0.0200482 9:0.00199566 10:-0.01015136 11:0.0009777 12:0.01471176 13:-0.01179156 14:-0.00940082 15:-0.01667564 16:-0.01240152 17:0.0109077 18:0.00142756 19:0.00205768 20:-0.02270684 21:-0.00335236 22:0.01418946 23:0.01983738 24:0.01441744 25:-0.01886144 26:0.00328154 27:0.01704468 28:-0.01834654 29:-0.02766004 30:-0.02098996 31:0.01519104 32:-0.02032512 33:-0.00861774 34:0.02202876 35:-0.006987 36:0.00886724 37:0.0093821 38:-2.512e-05 39:0.00224186 40:-0.00430158 41:0.00596292 42:-0.00074278 43:-0.01089384 44:0.00230954 45:0.00408732 46:-0.00447036 47:-0.02422602 48:0.00313904 49:0.0105013 50:-0.02081322 
-1 1 1 1:0.00604182 2:-0.00145882 3:0.00080006 4:-0.00143042 5:-0.01545396 6:0.00339358 7:0.017989 8:-0.0130308 9:-0.01478392 10:-0.00208094 11:-0.00091008 12:0.00944096 13:-0.01000344 14:-0.00800102 15:-0.0184712 16:-0.01792558 17:0.0183176 18:-0.00044854 19:0.00297618 20:-0.00359206 21:-0.00276672 22:0.01370488 23:0.0137269 24:-0.00470198 25:-0.01664302 26:-0.00226848 27:0.0114895 28:-0.0115566 29:-0.0145303 30:0.00541652 31:0.01590816 32:-0.01648848 33:-0.00959876 34:0.01083634 35:-0.00735198 36:-0.0051411 37:-0.00223552 38:0.00549904 39:0.00702218 40:-0.0088261 41:0.00749932 42:-0.00281068 43:0.0070747 44:-0.00404854 45:0.00962974 46:-0.00815432 47:-0.01593002 48:0.00170112 49:-0.00114134 50:-0.01237746 
-1 1 1 1:0.01327352 2:-0.00240662 3:-0.0104798 4:-0.00045878 5:-0.01691898 6:0.0074443 7:0.01599214 8:-0.00677092 9:0.00167698 10:-0.00711086 11:-0.00421192 12:0.0079167 13:-0.00048174 14:-0.0068675 15:-0.01661 16:-0.00898718 17:0.00065234 18:0.00806598 19:0.00231198 20:-0.00843298 21:-0.002502 22:0.01043636 23:0.00785842 24:2.126e-05 25:-0.01550872 26:0.0081449 27:0.0152458 28:-0.00187014 29:-0.01684944 30:0.00468028 31:0.00171404 32:-0.00503932 33:-0.01242492 34:0.01495068 35:-0.00234666 36:0.00203814 37:0.00299604 38:0.00730166 39:0.00796466 40:-0.00412594 41:0.0043229 42:-0.00033938 43:-0.00656174 44:-0.00412936 45:-0.002693 46:1.336e-05 47:-0.01236224 48:0.00181048 49:0.00081666 50:-0.01128756 
-1 1 1 1:-0.0121005 2:0.01890636 3:0.01627104 4:-0.01626442 5:-0.0090621 6:-0.00038774 7:0.0091091 8:-0.01757136 9:-0.05971174 10:0.0089973 11:-0.00481336 12:0.001056 13:-0.00853618 14:0.0097844 15:-0.0611051 16:-0.03919896 17:0.04144412 18:-0.00705664 19:-0.03123782 20:0.01018012 21:-0.01341176 22:0.04293298 23:0.03851136 24:0.00605618 25:-0.02556626 26:-0.01107104 27:0.0193385 28:-0.02555988 29:-0.0134795 30:-0.0078688 31:0.01299816 32:-0.0324254 33:-0.0389616 34:0.02400486 35:0.01577682 36:-0.00322124 37:0.01617626 38:-0.0012034 39:0.01874456 40:-0.04415764 41:0.03100312 42:-0.00792418 43:0.00278778 44:-0.00728114 45:0.02100412 46:-0.02191356 47:-0.07334342 48:0.0146758 49:0.00872666 50:-0.01601302 
-1 1 1 1:-0.00255214 2:0.0018273 3:0.01917606 4:0.00711048 5:-0.0499621 6:-0.00719846 7:0.02735112 8:-0.03230382 9:-0.06249052 10:-0.01159274 11:0.01319786 12:-0.01202904 13:-0.03755964 14:-0.00628366 15:-0.08464744 16:-0.03954454 17:0.09778234 18:-0.05506964 19:-0.00040956 20:-0.01158578 21:-0.02777378 22:0.070725 23:0.05581842 24:-0.00502436 25:-0.00562652 26:-0.02329722 27:0.06579316 28:-0.0593323 29:-0.04708116 30:0.01334974 31:0.06860588 32:-0.04637454 33:-0.0491454 34:0.05759776 35:0.01908146 36:-0.00908726 37:0.0194422 38:-0.00883506 39:0.0075899 40:-0.04919914 41:0.07590038 42:-0.0271223 43:0.06811802 44:-0.00927122 45:0.03352676 46:0.01715518 47:-0.11046062 48:0.02588476 49:-0.00856284 50:-0.0454595 
-1 1 1 1:0.00184498 2:0.00417114 3:0.0009529 4:0.00501054 5:-0.00241896 6:0.00265772 7:0.00598786 8:0.00042556 9:-0.00435256 10:-0.00057062 11:0.00138746 12:0.00765262 13:-0.00307308 14:-0.00439942 15:-0.01361354 16:-0.00557596 17:0.00635262 18:0.00126732 19:0.00160596 20:-0.00218106 21:-0.00359628 22:0.00971646 23:0.01131078 24:7.396e-05 25:-0.01404902 26:0.0012806 27:0.00823974 28:-0.00496502 29:-0.00838082 30:0.00311626 31:0.00632062 32:-0.00246174 33:-0.0080337 34:0.00374486 35:0.00071856 36:-0.00078142 37:0.00245006 38:-0.0003756 39:0.00429946 40:-0.01048622 41:0.00337914 42:0.0001606 43:-0.00414988 44:-0.00141102 45:0.00628108 46:-0.00090996 47:-0.00972492 48:-0.0008051 49:-0.00302858 50:-0.00692602 
-1 1 1 1:-0.01052258 2:-0.00470658 3:0.00303806 4:-0.00587072 5:-0.01436166 6:0.00293448 7:0.01485748 8:-0.02186184 9:-0.03031616 10:0.00389036 11:0.0160545 12:-0.00583638 13:-0.02511748 14:-0.00317012 15:-0.03350206 16:-0.01351978 17:0.0403621 18:-0.00937264 19:0.0056542 20:-0.00774498 21:-0.0054827 22:0.0319611 23:0.02900872 24:-0.00239748 25:-0.01735554 26:-0.02336878 27:0.02815522 28:-0.0345205 29:-0.02278586 30:0.00229728 31:0.0197895 32:-0.02136448 33:-0.02022536 34:0.03447584 35:-0.01087238 36:-0.00965298 37:0.01838282 38:-0.00239816 39:0.0046701 40:-0.02735852 41:0.01550808 42:-0.01211802 43:0.0112817 44:0.00527164 45:0.01826804 46:0.00950394 47:-0.04944248 48:0.00136302 49:-0.0048426 50:-0.0281961 
-1 1 1 1:0.01344092 2:-0.00047996 3:0.00714374 4:-0.00209334 5:-0.01529604 6:0.00913476 7:0.0192843 8:-0.00138282 9:-0.02415038 10:-0.00645158 11:0.00862848 12:-0.00561934 13:-0.01083038 14:0.00371038 15:-0.02690986 16:-0.01189772 17:0.02057696 18:-0.00618086 19:0.00283102 20:0.00257932 21:-0.01105418 22:0.01923638 23:0.0267668 24:-0.01236698 25:-0.0177898 26:-0.00564016 27:0.03067604 28:-0.0111192 29:-0.01484832 30:0.01024572 31:0.01993656 32:-0.01950398 33:-0.01404278 34:0.02993352 35:0.00097948 36:-0.0170579 37:0.01643534 38:0.00461362 39:0.0084758 40:-0.01498372 41:0.01278398 42:0.00434466 43:0.00482912 44:-0.00297102 45:0.01634262 46:0.00481552 47:-0.03490966 48:0.00079272 49:-0.00561062 50:-0.02351494 
-1 1 1 1:0.00195072 2:0.0114981 3:0.00265922 4:-0.00357912 5:0.0028196 6:0.0083325 7:0.01087452 8:-0.00754706 9:-0.01610156 10:0.0034189 11:0.00888292 12:0.00893954 13:-0.00378982 14:0.0002219 15:-0.01220264 16:-0.01868398 17:0.02522816 18:-0.00205678 19:-0.00885376 20:0.00614398 21:0.00181666 22:0.0142581 23:0.00586738 24:-0.00740466 25:-0.01115776 26:-0.00093212 27:0.0136216 28:-0.01462142 29:-0.00977378 30:-0.00774644 31:0.00602902 32:-0.02968808 33:-0.0221756 34:0.0022141 35:0.0027789 36:-0.00010468 37:0.01519606 38:-0.00389408 39:0.01416612 40:-0.0107305 41:0.01788346 42:-0.00368038 43:0.00937292 44:-0.00595982 45:0.01046578 46:-0.0028862 47:-0.02543128 48:-0.01512986 49:-0.00561762 50:-0.00039662 
-1 1 1 1:-0.00827872 2:-0.0222853 3:0.02762718 4:-0.00869004 5:-0.05726728 6:-0.00329046 7:0.05199782 8:-0.05132012 9:-0.08001382 10:0.01595282 11:0.03473518 12:0.02645352 13:-0.05666004 14:-0.00706732 15:-0.10270676 16:-0.0662196 17:0.12384206 18:-0.0555649 19:-0.03209656 20:0.0183369 21:-0.03792504 22:0.0740648 23:0.06923916 24:-0.00643416 25:-0.02761218 26:-0.03597366 27:0.07976138 28:-0.08986038 29:-0.0423086 30:0.0441523 31:0.1008007 32:-0.0459031 33:-0.04468628 34:0.08607212 35:-0.0125438 36:-0.00184098 37:0.01977782 38:-0.0065336 39:0.01508146 40:-0.01527242 41:0.0819546 42:-0.0337781 43:0.03370476 44:-0.00197422 45:0.01718534 46:-0.00660218 47:-0.14181814 48:0.01522316 49:-0.02121966 50:-0.04892052 
-1 1 1 1:0.00618392 2:-0.0173421 3:0.01941568 4:-0.02106772 5:-0.05290562 6:0.01644032 7:0.04385886 8:-0.0410859 9:-0.04834268 10:0.00419564 11:0.00708798 12:0.00265624 13:-0.06432974 14:-0.00069804 15:-0.12348828 16:-0.0484602 17:0.10153038 18:-0.07285338 19:-0.01469738 20:0.01802402 21:-0.03877338 22:0.07797242 23:0.05590084 24:0.00043126 25:-0.02573116 26:-0.0165718 27:0.09571326 28:-0.0880991 29:-0.0224122 30:0.0009 31:0.12147092 32:-0.04482302 33:-0.0204346 34:0.04086124 35:-0.02046002 36:-0.00933688 37:0.01864254 38:-0.01637564 39:0.0117994 40:-0.03767876 41:0.06825784 42:-0.04390206 43:0.04685462 44:-0.02480934 45:-0.00102272 46:0.01102824 47:-0.14675462 48:-0.00769702 49:0.02823436 50:-0.05300686 
-1 1 1 1:0.00585006 2:-0.03236204 3:0.07510966 4:-0.03077788 5:-0.10045938 6:0.04421898 7:0.0791459 8:-0.15017534 9:-0.08800386 10:0.0100178 11:0.00954558 12:0.01107386 13:-0.13843258 14:-0.09284616 15:-0.1170819 16:-0.06528466 17:0.10338528 18:-0.10099934 19:-0.05674134 20:-0.05250476 21:-0.04905878 22:0.10794798 23:0.09927912 24:0.0607767 25:-0.12172838 26:-0.10389438 27:0.13083962 28:-0.08394316 29:-0.06109866 30:-0.00592138 31:0.1132814 32:-0.09160752 33:-0.05737738 34:0.16085902 35:0.01062816 36:-0.04455634 37:0.05132412 38:-0.01260614 39:-0.08326346 40:-0.087031 41:0.10037246 42:-0.07319404 43:0.03707254 44:0.02535892 45:0.07153676 46:-0.0083422 47:-0.22972918 48:0.05720234 49:-0.0716405 50:-0.10773936 
-1 1 1 1:-0.00067176 2:0.00312334 3:0.00526398 4:-0.01091104 5:-0.0033555 6:0.0039866 7:0.01743834 8:-0.00199846 9:-0.01398584 10:-0.0011948 11:0.00689074 12:0.00954448 13:-0.01076622 14:-0.00661548 15:-0.01772446 16:-0.01126474 17:0.0094812 18:-0.01122476 19:-0.00339712 20:0.00572436 21:-0.00025966 22:0.01313626 23:0.01389984 24:-0.00985518 25:-0.01173604 26:-0.0095023 27:0.01275414 28:-0.00935562 29:-0.00539068 30:0.00655898 31:0.00975652 32:-0.01305366 33:-0.01369236 34:0.01318264 35:0.00607812 36:-0.00847734 37:0.00098184 38:0.0025162 39:0.00662746 40:-0.01588014 41:0.01324726 42:-0.00882466 43:0.0080659 44:-0.00775692 45:0.01480466 46:-0.00581358 47:-0.01638136 48:0.00019024 49:-0.00207924 50:-0.01213234 
-1 1 1 1:0.00423512 2:0.00142494 3:0.00011174 4:0.0144784 5:-0.01195668 6:-0.00334198 7:0.01426498 8:-0.00511518 9:-0.01168046 10:0.00662486 11:0.00194748 12:0.0006701 13:-0.0135628 14:0.00639826 15:-0.02170594 16:-0.01022496 17:0.02308886 18:-0.00632146 19:0.00186836 20:0.00115618 21:-0.0002799 22:0.02435602 23:0.00680782 24:0.00048538 25:-0.01210332 26:0.00089054 27:0.01230298 28:-0.01163986 29:-0.01207366 30:0.0005262 31:0.00670442 32:-0.01089208 33:-0.01336912 34:0.02050956 35:0.00244146 36:-0.00744588 37:0.00339278 38:0.00428614 39:0.0080809 40:-0.02216932 41:0.0036978 42:0.00054688 43:0.00931662 44:0.00493066 45:0.0036061 46:0.00445846 47:-0.02307796 48:0.00392056 49:-0.00072666 50:-0.0049335 
-1 1 1 1:0.0066804 2:0.00069978 3:-0.00033376 4:0.0055084 5:-0.01378662 6:0.0129323 7:0.02229386 8:-0.00248948 9:-0.01277582 10:-0.00304184 11:-0.00918638 12:-0.00252116 13:-0.00217994 14:0.0005339 15:-0.02064392 16:-0.00629088 17:0.02190224 18:-0.00679358 19:-0.01040908 20:-0.002034 21:-0.00318184 22:0.0150124 23:0.02067346 24:-0.00195124 25:-0.0175085 26:0.01792092 27:0.01725022 28:-0.00290458 29:-0.01240444 30:0.0015236 31:0.00828148 32:-0.01164132 33:-0.01591602 34:0.01182654 35:-0.00354506 36:-0.00166746 37:0.00668174 38:0.0016581 39:0.00203482 40:-0.01231468 41:0.01286454 42:0.00575834 43:0.0166584 44:-0.01002664 45:0.01824384 46:-0.00750266 47:-0.0194405 48:0.0017737 49:-0.00516538 50:-0.01394932 
-1 1 1 1:0.00090998 2:0.01727124 3:-0.00203338 4:0.00167388 5:-0.01282242 6:0.00291092 7:0.01805366 8:-0.00376292 9:-0.0116066 10:-0.00412104 11:0.00087444 12:0.00598222 13:-0.00345902 14:-0.0100695 15:-0.02544866 16:-0.0181011 17:0.02411216 18:0.00235814 19:-0.00283792 20:0.00071386 21:-0.00666788 22:0.01782414 23:0.01571608 24:0.00282514 25:-0.01181184 26:0.00261348 27:0.02180486 28:-0.01128504 29:-0.01116728 30:0.00403922 31:0.01567208 32:-0.0026848 33:-0.01983176 34:0.01414342 35:-0.00325736 36:-0.00802648 37:-0.00071716 38:0.00734198 39:0.01399314 40:-0.02040778 41:0.00020302 42:0.0012474 43:-0.00277096 44:-0.00721648 45:0.00846968 46:-0.0084106 47:-0.00818688 48:-0.00742986 49:-0.00328374 50:-0.01221554 
-1 1 1 1:-0.00556168 2:-0.00658894 3:-0.00344932 4:0.00266266 5:-0.00850064 6:0.00232794 7:0.0149213 8:-0.0138712 9:-0.0301415 10:-0.00774628 11:-0.00183082 12:0.00600502 13:-0.00865332 14:-0.00304706 15:-0.02360836 16:-0.02089704 17:0.02766446 18:-0.01382376 19:-0.00293 20:-0.00830276 21:-0.0114523 22:0.02875078 23:0.02068684 24:0.0006327 25:-0.01095466 26:0.00136888 27:0.02644698 28:-0.019797 29:-0.0124185 30:0.00962778 31:0.01290074 32:-0.011097 33:-0.01740274 34:0.0319031 35:0.00464902 36:-0.00940912 37:0.00425444 38:0.00783258 39:0.01195714 40:-0.0105043 41:0.0148406 42:-0.00676888 43:0.00390984 44:0.0014716 45:0.00999616 46:-0.00146928 47:-0.03505304 48:-6.106e-05 49:-0.00299756 50:-0.01990236 
-1 1 1 1:0.00211208 2:0.00080858 3:0.0029053 4:-0.00213786 5:-0.00743098 6:0.00150696 7:0.01214016 8:-0.0008608 9:-0.00985672 10:-0.00162036 11:-0.00079662 12:0.00335376 13:-0.0058765 14:-0.00245218 15:-0.00907488 16:-0.00586252 17:0.00615966 18:0.00093202 19:0.00078898 20:0.00032486 21:-0.00141934 22:0.00499902 23:0.00766002 24:-0.003596 25:-0.00995204 26:-0.0020137 27:0.01073416 28:-0.00404612 29:-0.00734772 30:0.0068789 31:0.00622578 32:-0.00621952 33:-0.00645938 34:0.00681522 35:-0.00084416 36:-0.00343176 37:0.0003721 38:0.00155498 39:0.00152008 40:-0.00572622 41:0.0037028 42:0.00019494 43:0.00259022 44:-0.0051941 45:0.00590782 46:0.00056002 47:-0.0088938 48:0.00172046 49:-0.0020902 50:-0.00598396 
-1 1 1 1:0.00374796 2:0.0172623 3:-0.00062764 4:-0.01429158 5:-0.0572911 6:-0.00123952 7:0.0196524 8:-0.0219651 9:-0.04957166 10:0.00727862 11:0.0058571 12:0.00939878 13:-0.04631754 14:0.00231758 15:-0.02993396 16:-0.05796952 17:0.0571489 18:-0.03198958 19:-0.00626258 20:0.02751082 21:-0.00557804 22:0.03407306 23:0.07178448 24:-0.00076012 25:-0.01700486 26:-0.00602784 27:0.05352116 28:-0.06777752 29:-0.00588112 30:-0.00822636 31:0.0666328 32:-0.05724614 33:-0.02764818 34:0.01088158 35:-0.02250028 36:-0.01735356 37:-0.00142164 38:-0.0462519 39:-0.00628594 40:-0.03839938 41:0.05840774 42:-0.03849738 43:0.0506322 44:-0.0028668 45:0.04332802 46:-0.00262234 47:-0.0975512 48:-0.01619154 49:0.01158976 50:-0.03601416 
-1 1 1 1:0.01327352 2:-0.00240662 3:-0.0104798 4:-0.00045878 5:-0.01691898 6:0.0074443 7:0.01599214 8:-0.00677092 9:0.00167698 10:-0.00711086 11:-0.00421192 12:0.0079167 13:-0.00048174 14:-0.0068675 15:-0.01661 16:-0.00898718 17:0.00065234 18:0.00806598 19:0.00231198 20:-0.00843298 21:-0.002502 22:0.01043636 23:0.00785842 24:2.126e-05 25:-0.01550872 26:0.0081449 27:0.0152458 28:-0.00187014 29:-0.01684944 30:0.00468028 31:0.00171404 32:-0.00503932 33:-0.01242492 34:0.01495068 35:-0.00234666 36:0.00203814 37:0.00299604 38:0.00730166 39:0.00796466 40:-0.00412594 41:0.0043229 42:-0.00033938 43:-0.00656174 44:-0.00412936 45:-0.002693 46:1.336e-05 47:-0.01236224 48:0.00181048 49:0.00081666 50:-0.01128756 
-1 1 1 1:0.00704664 2:2.354e-05 3:-0.00185498 4:-0.00040016 5:-0.01685938 6:0.00660148 7:0.01070486 8:-0.00749978 9:0.00015148 10:-0.00544244 11:0.00362046 12:0.00822884 13:-0.00046098 14:-0.00754022 15:-0.0197475 16:-0.00341904 17:0.00893342 18:0.00766248 19:0.00644504 20:-0.01409348 21:-0.00030876 22:0.01696806 23:0.01024024 24:0.00218478 25:-0.0077824 26:0.00408588 27:0.01277378 28:-0.00628846 29:-0.01318152 30:-0.00705362 31:0.00515132 32:-0.00672948 33:-0.0079062 34:0.0075423 35:-0.00379254 36:0.0049583 37:0.0043503 38:0.00094336 39:-0.00371778 40:-0.00381562 41:0.00217006 42:0.00954378 43:-0.00622054 44:0.0014711 45:-0.00250696 46:-0.00619478 47:-0.01099414 48:-0.0048839 49:0.0035053 50:-0.00922052 
-1 1 1 1:0.02346248 2:-0.00737886 3:-0.00109188 4:0.0018782 5:-0.03052318 6:0.00988086 7:0.05167502 8:-0.03886814 9:-0.03417476 10:-0.01756512 11:0.01579066 12:0.02906844 13:-0.03260806 14:-0.0169774 15:-0.05905308 16:-0.03409482 17:0.05669062 18:-0.0237561 19:-0.00990872 20:0.00078584 21:-0.00705636 22:0.05233446 23:0.0504475 24:-0.01670386 25:-0.03376046 26:-0.03056402 27:0.0732051 28:-0.04320422 29:-0.04478824 30:0.0151796 31:0.0501559 32:-0.0430284 33:-0.03918978 34:0.05844758 35:-0.01685748 36:-0.00298676 37:0.01866056 38:0.00512104 39:0.03247216 40:-0.02718778 41:0.04335602 42:-0.02558058 43:0.02372404 44:0.0046711 45:0.02358408 46:-0.00070408 47:-0.08047962 48:0.00113584 49:0.00620074 50:-0.061303 
-1 1 1 1:0.00514422 2:0.00427756 3:0.00228014 4:-0.00369234 5:-0.00494246 6:0.00050864 7:0.0043799 8:-0.00317794 9:-0.0036373 10:-0.00269428 11:0.00219018 12:0.00109932 13:-0.00825058 14:-0.00374824 15:-0.00244302 16:-0.00690364 17:0.00088112 18:-0.00341416 19:-0.00015178 20:-0.0025272 21:-0.0018347 22:0.00413918 23:0.00666066 24:0.00323086 25:-0.0039157 26:-0.00228208 27:0.00475226 28:-0.01143708 29:-0.0047853 30:-0.0044848 31:0.00704568 32:-0.00738178 33:-0.00205012 34:0.01240274 35:0.00099894 36:-0.00390724 37:0.00566034 38:-0.00035776 39:0.00176148 40:-0.0071488 41:0.00395106 42:-0.00764746 43:0.00500432 44:0.00014218 45:0.00696238 46:-0.00441036 47:-0.0101492 48:-0.00190874 49:-0.002277 50:-0.0067269 
-1 1 1 1:0.00428456 2:0.00592336 3:0.00405648 4:-0.00377048 5:-0.01442836 6:0.00117638 7:0.0273449 8:-0.01925284 9:-0.02549142 10:0.0026171 11:0.00362006 12:0.01007494 13:-0.01154964 14:-0.00046628 15:-0.03077668 16:-0.02003172 17:0.02884876 18:-0.00274946 19:0.00361132 20:-0.00312548 21:-0.00222716 22:0.02283782 23:0.02510154 24:-0.00817948 25:-0.01674534 26:-0.00619034 27:0.01992992 28:-0.01532042 29:-0.01311708 30:0.00348344 31:0.02089112 32:-0.01882732 33:-0.01151304 34:0.01910962 35:-8.24e-05 36:-0.00630754 37:-0.00097586 38:0.00826224 39:0.01329984 40:-0.0170389 41:0.01244094 42:0.00105494 43:0.00649108 44:-0.0051684 45:0.01952342 46:-0.0106766 47:-0.03176146 48:-0.00190708 49:0.00171708 50:-0.01661316 
-1 1 1 1:-0.00750242 2:-0.00019268 3:0.01805586 4:0.0053078 5:-0.04247766 6:0.01789274 7:0.02871164 8:-0.0441858 9:-0.06139232 10:0.00559678 11:0.0181607 12:0.0053885 13:-0.0481835 14:-0.00760558 15:-0.07730144 16:-0.03346052 17:0.07288448 18:-0.02833004 19:-0.01037804 20:-0.03157482 21:-0.02602016 22:0.06575944 23:0.05557044 24:0.00647538 25:-0.01529036 26:-0.01427434 27:0.0508159 28:-0.0435093 29:-0.0376322 30:0.01109406 31:0.0384284 32:-0.03377792 33:-0.07400904 34:0.05325518 35:0.00958408 36:-0.02539118 37:0.02371374 38:0.01930438 39:-0.00572044 40:-0.02559064 41:0.05318946 42:-0.00358394 43:0.03072112 44:-0.00467472 45:0.02846052 46:-0.01131742 47:-0.09927254 48:-0.01043188 49:-0.00201898 50:-0.03772516 
-1 1 1 1:0.01511302 2:0.01458102 3:0.0183545 4:0.0023819 5:-0.00462884 6:-0.00451646 7:0.05345354 8:-0.02343686 9:-0.04180326 10:-0.00833768 11:0.00940878 12:0.05831946 13:-0.0323721 14:-0.02333916 15:-0.05172362 16:-0.04470368 17:0.0418418 18:-0.0332604 19:0.0026275 20:0.01966482 21:-0.00317408 22:0.04025372 23:0.059986 24:-0.00482432 25:-0.03690622 26:-0.01352858 27:0.05880176 28:-0.01919916 29:-0.0324067 30:-0.01000282 31:0.00492082 32:-0.03849804 33:-0.02450244 34:0.0323439 35:-0.01511892 36:-0.02896976 37:0.00909996 38:0.00530686 39:0.00812596 40:-0.04051496 41:0.02595758 42:0.00482782 43:0.02199936 44:-0.01820868 45:0.0345866 46:-0.03819264 47:-0.07208702 48:-0.0073761 49:0.00720104 50:-0.0383753 
-1 1 1 1:-0.01034902 2:-0.01154822 3:-0.00554002 4:-0.00526976 5:-0.02445692 6:-0.00887556 7:0.02401894 8:-0.04852956 9:-0.0487275 10:-0.008883 11:0.01293902 12:0.00736262 13:-0.03906688 14:-0.00475248 15:-0.0870457 16:-0.0533283 17:0.10828814 18:-0.02757114 19:0.00255204 20:0.00204562 21:-0.02735756 22:0.07627346 23:0.04830686 24:0.01226598 25:-0.02739746 26:-0.03755224 27:0.058953 28:-0.06837232 29:-0.02927904 30:0.01924336 31:0.05783386 32:-0.05286582 33:-0.04894984 34:0.04110282 35:-0.0278021 36:-0.01873666 37:-0.00237172 38:-0.01126892 39:0.00483436 40:0.0053652 41:0.05716622 42:-0.01713188 43:0.04246386 44:-0.02608844 45:0.00305788 46:0.01338218 47:-0.1199399 48:0.01456754 49:0.00582124 50:-0.05794676 
-1 1 1 1:0.01775262 2:0.00426968 3:0.02674918 4:-0.01579922 5:-0.03280004 6:0.0032279 7:0.02931122 8:-0.0327387 9:-0.04882982 10:-0.00276816 11:0.01024138 12:0.0297265 13:-0.01618022 14:-0.0086586 15:-0.02025986 16:-0.014276 17:0.0512727 18:-0.01692364 19:0.00530696 20:0.01202654 21:-0.00681076 22:0.0539918 23:0.04599492 24:0.01854622 25:-0.03738814 26:-0.00448022 27:0.05354004 28:-0.05360536 29:-0.02357182 30:0.00665184 31:0.05060806 32:-0.05250514 33:-0.0502603 34:0.0354201 35:-0.02431356 36:0.0068404 37:0.00654562 38:-0.01879268 39:0.02374406 40:-0.00865106 41:0.0487363 42:-0.02784678 43:0.03097164 44:0.0098909 45:0.02316916 46:-0.00649942 47:-0.07775794 48:0.00460492 49:-0.01639412 50:-0.04456346 
-1 1 1 1:0.01046136 2:0.00342184 3:0.0370165 4:-0.01308342 5:-0.04122164 6:0.02508226 7:0.0684689 8:-0.06745278 9:-0.05783218 10:-0.02296272 11:-0.02162324 12:0.02535256 13:-0.06524678 14:-0.00208122 15:-0.0611427 16:-0.03784306 17:0.04870872 18:-0.07781894 19:-0.01885312 20:-0.00254094 21:-0.01010788 22:0.10385736 23:0.04911862 24:-0.00781826 25:-0.06805854 26:-0.03827194 27:0.05674204 28:-0.01915598 29:-0.0184742 30:-0.00473636 31:0.05478642 32:-0.03833358 33:-0.02595648 34:0.08357554 35:0.01129848 36:-0.02591342 37:0.02919052 38:0.01638616 39:-0.01985364 40:-0.03688964 41:0.05173402 42:-0.01410436 43:0.03942684 44:0.01563186 45:0.03980596 46:-0.02169252 47:-0.13854922 48:0.02141992 49:0.01494226 50:-0.05526904 
-1 1 1 1:0.0087507 2:0.01018132 3:-0.01600322 4:-0.00387244 5:-0.00804884 6:-0.00405974 7:0.01402894 8:-0.00129088 9:-0.0055293 10:0.00445356 11:0.0030119 12:0.00405234 13:-0.011122 14:0.00221928 15:-0.01917394 16:-0.00810404 17:0.00183046 18:0.007052 19:-0.00653772 20:-0.00775938 21:-0.00167834 22:-0.00194516 23:0.01467124 24:0.00202164 25:-0.01591704 26:-0.00641504 27:0.00942068 28:-0.01325524 29:-0.00249344 30:0.00622868 31:0.00304706 32:-0.00041058 33:-0.01435368 34:0.00399648 35:0.01036866 36:-0.0004538 37:-0.00065232 38:0.0077104 39:0.00825552 40:-0.0074378 41:0.00207968 42:-0.00155716 43:-0.0024998 44:-0.01319338 45:0.00080842 46:-0.00370562 47:-0.00458004 48:0.0100238 49:0.00089654 50:-0.01171842 
-1 1 1 1:-0.00466434 2:0.00620384 3:-0.01561226 4:-0.01451724 5:0.00565002 6:0.00816694 7:0.0025596 8:6.12e-06 9:-0.0117294 10:-0.00259136 11:0.0179545 12:0.00954292 13:-0.0247451 14:0.01078412 15:-0.01878876 16:-0.02084146 17:0.01682112 18:-0.00780334 19:-0.00624846 20:0.00817986 21:-0.00232856 22:0.03033638 23:0.03226942 24:0.0047715 25:-0.01004336 26:0.0121887 27:0.00816524 28:0.0050068 29:-1.206e-05 30:0.00904914 31:0.02155566 32:-0.01500558 33:-0.03655696 34:-0.00138034 35:0.00315538 36:0.00196798 37:0.00184606 38:-0.00037778 39:0.0201452 40:-0.00586694 41:0.00569606 42:-0.00906828 43:0.00110896 44:-0.00906344 45:0.01374174 46:0.00401988 47:-0.02338942 48:-0.00669734 49:0.0139664 50:-0.00282502 
-1 1 1 1:0.01797156 2:0.02268536 3:0.03255946 4:-0.00545558 5:-0.00780514 6:-0.00299006 7:0.02968268 8:-0.03888748 9:-0.0814804 10:-0.04730408 11:0.00855748 12:0.03816976 13:-0.0384038 14:-0.00091102 15:-0.09096928 16:-0.0660336 17:0.05554586 18:-0.019644 19:-0.01079818 20:0.00581182 21:-0.02177976 22:0.05091172 23:0.0763578 24:0.00914504 25:-0.04591806 26:-0.0356972 27:0.05054198 28:-0.08213188 29:-0.05288614 30:0.00458114 31:0.06827728 32:-0.07686014 33:-0.04836632 34:0.07750098 35:0.01744402 36:-0.03630596 37:0.02714844 38:0.0084163 39:0.02172476 40:-0.04806486 41:0.04234852 42:-0.03644422 43:0.02765978 44:-0.01088456 45:0.05329724 46:-0.02851174 47:-0.0686006 48:-0.01027104 49:-0.0051697 50:-0.04627098 
-1 1 1 1:0.01369154 2:-0.00182224 3:-0.00811608 4:-0.00725628 5:-0.02182162 6:0.0121611 7:0.00346964 8:-0.02048112 9:0.00144642 10:-0.00753532 11:0.00368048 12:0.01046238 13:-0.01005348 14:-0.0167093 15:-0.0188856 16:-0.00658924 17:0.01470202 18:0.00793546 19:0.00232424 20:-0.01109686 21:0.00044606 22:0.01208436 23:0.00712956 24:0.004122 25:-0.01037102 26:0.0107578 27:0.01895098 28:-0.00308742 29:-0.00345332 30:0.00121568 31:0.00091418 32:-0.00737368 33:-0.00590356 34:0.0050361 35:-0.0021603 36:0.009631 37:0.00681364 38:-0.00298106 39:0.00460522 40:0.00028002 41:0.00438034 42:0.0022963 43:-0.00709508 44:0.00962592 45:-0.01026504 46:-0.00471844 47:-0.01479238 48:-0.00562418 49:-0.00490116 50:-0.00553396 
-1 1 1 1:-0.00028488 2:0.00321948 3:0.00360928 4:0.0007936 5:-0.01764434 6:0.00128 7:0.01926786 8:-0.0180028 9:-0.03407876 10:0.00146082 11:0.00796726 12:0.0086358 13:-0.02211926 14:-0.00897722 15:-0.01563234 16:-0.01904132 17:0.03520288 18:-0.01978086 19:-0.00325592 20:0.01601012 21:-0.01070804 22:0.03115146 23:0.03354894 24:-0.01291674 25:-0.0147302 26:0.00199464 27:0.03233404 28:-0.02624872 29:-0.02336502 30:0.01639974 31:0.02992768 32:-0.0224832 33:-0.02290314 34:0.02656964 35:0.00273104 36:-0.00470612 37:0.0119398 38:-0.0049544 39:0.00912158 40:-0.0196468 41:0.01620552 42:-0.01752568 43:0.02054568 44:0.010833 45:0.0211591 46:-0.0192633 47:-0.04121998 48:0.0030806 49:-0.00340394 50:-0.02895712 
-1 1 1 1:0.01369154 2:-0.00182224 3:-0.00811608 4:-0.00725628 5:-0.02182162 6:0.0121611 7:0.00346964 8:-0.02048112 9:0.00144642 10:-0.00753532 11:0.00368048 12:0.01046238 13:-0.01005348 14:-0.0167093 15:-0.0188856 16:-0.00658924 17:0.01470202 18:0.00793546 19:0.00232424 20:-0.01109686 21:0.00044606 22:0.01208436 23:0.00712956 24:0.004122 25:-0.01037102 26:0.0107578 27:0.01895098 28:-0.00308742 29:-0.00345332 30:0.00121568 31:0.00091418 32:-0.00737368 33:-0.00590356 34:0.0050361 35:-0.0021603 36:0.009631 37:0.00681364 38:-0.00298106 39:0.00460522 40:0.00028002 41:0.00438034 42:0.0022963 43:-0.00709508 44:0.00962592 45:-0.01026504 46:-0.00471844 47:-0.01479238 48:-0.00562418 49:-0.00490116 50:-0.00553396 
